tree
version=v4
num_class=3
num_tree_per_iteration=3
label_index=0
max_feature_idx=25
objective=multiclass num_class:3
feature_names=ret_1d ret_5d ret_21d ret_63d log_ret_1d vol_5d vol_21d vol_63d sma_5 sma_20 sma_50 sma_200 ema_12 ema_26 rsi_14 macd macd_signal macd_hist bb_upper bb_lower bb_pctb atr_14 volume_z_21 obv high_low_range_21 gap_overnight
feature_infos=[-0.57464790344238281:0.46348264813423157] [-0.57328909635543823:0.79895675182342529] [-0.6046372652053833:1.3829723596572876] [-0.71429795026779175:3.6551923751831055] [-0.85483795404434204:0.38081896305084229] [0.0093440702185034752:6.337364673614502] [0.053808994591236115:3.0251493453979492] [0.076342448592185974:1.7469046115875244] [0.70992964506149292:2.083904504776001] [0.58485555648803711:2.2254176139831543] [0.48013204336166382:2.7058303356170654] [0.2887042760848999:3.2051706314086914] [0.66586923599243164:2.1221306324005127] [0.58347845077514648:2.1960587501525879] [10.07640552520752:94.203353881835938] [-123.67174530029297:102.85893249511719] [-107.94163513183594:93.24798583984375] [-72.968902587890625:53.351356506347656] [9.4182167053222656:4359.1767578125] [5.9185581207275391:4094.530029296875] [-0.54876244068145752:1.5260215997695923] [0.0075877392664551735:0.20946849882602692] [-3.0320634841918945:4.345057487487793] [-6.7426247596740723:6.6698112487792969] [0.021235162392258644:1.7802934646606445] [-0.58738517761230469:0.37534162402153015]
tree_sizes=3404 3483 3417 3551 3539 3538 3548 3545 3536 3542 3544 3527 3540 3509 3534 3540 3535 3534 3553 3520 3562 3525 3545 3544 3551 3534 3544 3546 3542 3539 3538 3542 3524 3555 3539 3557 3528 3536 3557 3534 3540 3544 3524 3531 3542 3560 3549 3553 3549 3551 3538 3535 3545 3534 3522 3532 3527 3567 3553 3542 3545 3556 3536 3553 3560 3556 3576 3566 3546 3514 3559 3533 3552 3548 3560 3552 3552 3547 3537 3553 3532 3548 3547 3548 3534 3548 3555 3536 3547 3542 3517 3576 3537 3528 3534 3535 3531 3547 3559 3517 3557 3558 3545 3545 3530 3544 3526 3531 3550 3551 3524 3551 3550 3544 3523 3542 3532 3544 3543 3538 3551 3565 3539 3535 3540 3553 3516 3564 3518 3532 3567 3509 3511 3552 3512 3518 3550 3532 3550 3554 3509 3509 3557 3540 3485 3560 3533 3499 3550 3528 3521 3543 3512 3526 3577 3534 3491 3546 3572 3533 3549 3552 3510 3586 3540 3536 3556 3475 3556 3563 3497 3521 3557 3501 3551 3521 3529 3563 3547 3518 3508 3557 3487 3507 3570 3530 3524 3541 3561 3496 3559 3531 3513 3553 3530 3514 3506 3509 3512 3552 3535 3517 3558 3484 3510 3545 3546

Tree=0
num_leaves=31
num_cat=0
split_feature=6 6 6 21 6 21 21 6 21 6 6 6 7 21 6 7 7 21 21 6 21 6 21 17 7 6 7 7 19 7
split_gain=1150.57 391.766 128.404 106.421 140.048 122.274 100.113 138.314 91.7427 85.4535 61.5061 37.2828 33.295 30.819 29.608 28.2444 27.8789 27.1854 24.9239 36.6448 24.7716 25.4133 24.4094 21.7325 21.147 19.4123 19.2148 19.1228 18.541 18.1411
threshold=0.19721376150846484 0.3883699923753739 0.14085503667593005 0.018952087499201301 0.24989828467369082 0.027881234884262088 0.033218525350093848 0.54759415984153759 0.019014344550669197 0.31103736162185674 0.2412950471043587 0.15973301976919177 0.24955201148986819 0.023073838092386726 0.11895944178104402 0.18586750328540805 0.19853988289833072 0.024569389410316948 0.044590529054403312 0.73636570572853099 0.026136295869946483 0.46511334180831915 0.037203684449195869 -0.34779569506645197 0.16471319645643237 0.29711329936981207 0.18310993909835818 0.39806985855102545 459.78237915039068 0.43441089987754827
decision_type=2 2 2 2 2 2 2 2 2 2 2 2 2 2 2 2 2 2 2 2 2 2 2 2 2 2 2 2 2 2
left_child=2 3 14 10 13 9 20 22 11 12 16 26 -6 -5 -1 -13 -2 -11 -9 -20 -3 -22 -8 24 -16 -7 -4 -24 -27 -14
right_child=1 6 8 4 5 25 7 18 -10 17 -12 15 29 -15 23 -17 -18 -19 19 -21 21 -23 27 -25 -26 28 -28 -29 -30 -31
leaf_value=-1.4515069426158507 -1.4942182525970169 -1.5155018719293958 -1.4734140327464538 -1.478813933422962 -1.4913665305233856 -1.4711587797722012 -1.4926222336476151 -1.512492180964474 -1.4607619523099429 -1.5020958376408859 -1.5014866408993814 -1.4811969642377154 -1.4826239912102148 -1.4704997832020603 -1.4862738248102718 -1.4736727372779235 -1.4846107753121549 -1.4920044610377674 -1.4925483018285044 -1.5105825082751891 -1.4992812595075489 -1.5122985213047737 -1.4918590403065468 -1.4600365032231211 -1.4630878188867154 -1.4811893459889287 -1.4644723849460644 -1.4786617019128754 -1.4636493695637616 -1.4972379418845565
leaf_weight=815.24258774518967 1198.2512946128845 643.61256927251816 1264.32358700037 4228.3634765744209 1947.68482619524 736.00848412513733 876.57662808895111 637.03166365623474 1502.025897860527 1250.6353033185005 1182.193884909153 2074.0382140278816 3871.6783921718597 1515.1877090930939 176.10503429174423 3135.4066718220711 2045.8719379901886 1438.0594952702522 669.93619173765182 487.77672427892685 1061.1052215695381 583.33147382736206 368.79395073652267 1347.7694702148438 221.64490115642548 2789.2510364055634 1151.6584828495979 1071.8979067802429 159.25791591405869 224.54049962759018
leaf_count=3097 4552 2445 4803 16063 7399 2796 3330 2420 5706 4751 4491 7879 14708 5756 669 11911 7772 5463 2545 1853 4031 2216 1401 5120 842 10596 4375 4072 605 853
internal_value=-1.48252 -1.48786 -1.46928 -1.48477 -1.48308 -1.48606 -1.49878 -1.49412 -1.47206 -1.48928 -1.49172 -1.47428 -1.48598 -1.47662 -1.45939 -1.47667 -1.48816 -1.4967 -1.50454 -1.50015 -1.50717 -1.5039 -1.48604 -1.46307 -1.47336 -1.47842 -1.46915 -1.48204 -1.48024 -1.48342
internal_weight=40675.3 28987 11688.2 22587 18160.7 12417.1 6400.06 4112.01 9127.45 8732.6 4426.32 7625.43 6043.9 5743.55 2560.76 5209.44 3244.12 2688.69 1794.74 1157.71 2288.05 1644.44 2317.27 1745.52 397.75 3684.52 2415.98 1440.69 2948.51 4096.22
internal_count=154520 110118 44402 85805 68990 47171 24313 15621 34674 33174 16815 28968 22960 21819 9728 19790 12324 10214 6818 4398 8692 6247 8803 6631 1511 13997 9178 5473 11201 15561
is_linear=0
shrinkage=1


Tree=1
num_leaves=31
num_cat=0
split_feature=6 6 21 6 21 6 21 6 6 21 6 21 21 6 6 21 21 6 6 21 21 21 6 21 6 22 22 6 21 21
split_gain=3204.57 770.883 512.098 481.353 393.96 364.594 354.315 255.232 180.699 158.302 222.667 157.77 137.184 111.075 103.583 111.441 86.8345 82.1615 81.9032 79.596 78.6088 75.868 63.6743 61.553 48.9732 45.8413 43.5365 40.0481 38.2163 37.3618
threshold=0.23852512240409854 0.36546733975410467 0.023741233162581924 0.15875973552465442 0.031590009108185775 0.51650202274322521 0.019330578856170181 0.19460131227970126 0.28852583467960363 0.028019499965012077 0.2911678552627564 0.01998630911111832 0.043622205033898361 0.20424531400203708 0.44640314579010015 0.027089473791420463 0.016633789986371997 0.73636570572853099 0.1243441440165043 0.037203684449195869 0.017081717960536483 0.023482342250645164 0.33900032937526708 0.01972204074263573 0.41287180781364446 0.59939828515052807 0.07296438887715341 0.32328015565872198 0.062572129070758833 0.018268262967467312
decision_type=2 2 2 2 2 2 2 2 2 2 2 2 2 2 2 2 2 2 2 2 2 2 2 2 2 2 2 2 2 2
left_child=3 2 8 18 14 19 7 16 11 10 -4 29 -7 -8 15 -3 -5 28 -1 24 -20 25 -11 -10 -6 -15 -9 -12 -14 -2
right_child=1 4 9 6 5 12 13 26 23 22 27 -13 17 21 -16 -17 -18 -19 20 -21 -22 -23 -24 -25 -26 -27 -28 -29 -30 -31
leaf_value=-0.69712893300300038 -0.63608432657431169 -0.6234693632194126 -0.67062078972829697 -0.66839620004013356 -0.66079231044475717 -0.62305517806244093 -0.68991159981866856 -0.65545687512489792 -0.62320382789075057 -0.67780921577538544 -0.65679645337245418 -0.65958599904237292 -0.64928628379877995 -0.67001654775143338 -0.615974417246266 -0.64369225239603456 -0.67932546048736242 -0.6309193132486216 -0.68187094698083162 -0.66650558258870496 -0.69931298684669885 -0.68828290714969498 -0.66444567139679267 -0.64238527653858246 -0.64529668975488585 -0.68267159116874543 -0.66470462988670642 -0.6457307042643291 -0.67852836566488217 -0.64888191182569721
leaf_weight=1603.9181212484837 977.86178380250931 1298.9451358020306 3080.4519488215446 4229.1585500240326 922.03749039769173 1228.5091145932674 2323.2647208273411 3457.3595942258835 527.89549937844276 2778.8509005606174 1877.0450332760811 4425.1055664718151 1108.2433549761772 2802.0798011720181 1112.3646115362644 1436.4452410340309 3189.4779178202152 715.22534301877022 4708.7229497432709 1842.5763420462608 749.69403424859047 1081.6425171792507 1313.5568636059761 2031.7794841229916 1143.0867058932781 962.1260769367218 2012.6718400716782 1451.8062882125378 124.01235648989677 1376.4996910691261
leaf_count=4281 2610 3467 8222 11288 2461 3279 6201 9228 1409 7417 5010 11811 2958 7479 2969 3834 8513 1909 12568 4918 2001 2887 3506 5423 3051 2568 5372 3875 331 3674
internal_value=-0.663433 -0.652389 -0.658264 -0.675964 -0.641728 -0.648725 -0.672011 -0.667054 -0.649746 -0.665839 -0.660934 -0.654021 -0.636142 -0.680921 -0.628848 -0.634086 -0.673096 -0.644402 -0.68719 -0.658953 -0.684268 -0.676609 -0.673521 -0.638426 -0.652212 -0.673253 -0.65886 -0.651968 -0.652234 -0.643563
internal_weight=57892.4 30772.3 19840.9 27120.1 10931.4 7083.69 20057.8 12888.7 9339.14 10501.7 6409.3 6779.47 3175.99 7169.11 3847.75 2735.39 7418.64 1947.48 7062.34 3907.7 5458.42 4845.85 4092.41 2559.67 2065.12 3764.21 5470.03 3328.85 1232.26 2354.36
internal_count=154520 82134 52957 72386 29177 18907 53536 34401 24927 28030 17107 18095 8477 19135 10270 7301 19801 5198 18850 10430 14569 12934 10923 6832 5512 10047 14600 8885 3289 6284
is_linear=0
shrinkage=1


Tree=2
num_leaves=31
num_cat=0
split_feature=24 20 22 25 5 24 22 0 24 20 1 11 7 12 16 5 24 24 24 5 20 7 20 16 21 22 5 25 5 14
split_gain=576.338 176.099 132.899 96.8897 72.6404 72.0969 70.3373 61.4859 44.3543 38.9842 36.7635 36.6878 35.3414 34.2148 32.8198 28.6045 27.4434 26.4587 26.4451 25.0858 23.4642 23.2154 21.9961 25.5633 30.8308 19.4894 18.9695 17.6704 20.7422 17.3539
threshold=0.13079543411731723 0.16450908780097964 0.11823826655745508 0.01513487519696355 0.37904134392738348 0.081685207784175887 0.86380267143249523 0.0031972248107194905 0.1475581228733063 0.25330117344856268 -0.016197624616324898 0.66595965623855602 0.37179420888423925 0.98634460568428051 0.073792658746242537 0.78182074427604686 0.10835707560181619 0.095377631485462203 0.05960506200790406 0.68044885993003856 1.0000000180025095e-35 0.34181272983551031 0.29572489857673651 -0.54419633746147145 0.030228114686906341 0.73486444354057323 0.57795408368110668 -0.011344590224325655 0.30025796592235571 28.800107002258304
decision_type=2 2 2 2 2 2 2 2 2 2 2 2 2 2 2 2 2 2 2 2 2 2 2 2 2 2 2 2 2 2
left_child=2 3 5 14 10 13 8 20 -3 29 27 -10 16 -1 25 -8 -11 -12 -15 22 -5 -19 -13 -24 -25 26 -2 28 -4 -7
right_child=1 6 4 7 -6 9 15 -9 11 12 17 19 -14 18 -16 -17 -18 21 -20 -21 -22 -23 23 24 -26 -27 -28 -29 -30 -31
leaf_value=-1.3569176862284011 -1.352573203025508 -1.3616052790371094 -1.3214630200735875 -1.262059105122459 -1.3595301681683158 -1.3262322058207425 -1.3544204566691744 -1.3509938934158414 -1.3544791201533013 -1.3563228525036035 -1.3450334038897582 -1.3631232812472658 -1.3474277585657033 -1.3432751914806045 -1.3651245905761356 -1.376400245407583 -1.3622106090809993 -1.3533585891544548 -1.3505064760773156 -1.3801277855045748 -1.3111048622432671 -1.3388510900343438 -1.3749665903006338 -1.3711463144677523 -1.3618059407967484 -1.345073454993974 -1.3693138355499621 -1.3418965027923564 -1.3508356114140156 -1.3508504337800498
leaf_weight=1363.0666877031326 1147.7549741864204 2716.372577726841 228.80458089709282 41.914013564586639 1002.204255849123 74.354311734437943 1620.0053324997425 73.205982595682144 413.11140766739845 5144.8016239106655 4502.0243884921074 1315.9851930141449 774.54800409078598 1895.3172435164452 549.18841060996056 162.77565541863441 3219.0536582171917 2141.6338437795639 3810.1560823917389 543.73384720087051 60.574362069368362 316.65176001191139 1952.1595358848572 2592.6401130259037 1343.832174628973 771.39009895920753 198.37385872006416 2381.3475514948368 82.105533421039581 1920.8675668537617
leaf_count=4748 3998 9462 797 146 3491 259 5643 255 1439 17921 15682 4584 2698 6602 1913 567 11213 7460 13272 1894 211 1103 6800 9031 4681 2687 691 8295 286 6691
internal_value=-1.35533 -1.36311 -1.35116 -1.35186 -1.34672 -1.35375 -1.36563 -1.31591 -1.36714 -1.35626 -1.34539 -1.36899 -1.35764 -1.3498 -1.35424 -1.35643 -1.35859 -1.34731 -1.3481 -1.36976 -1.29093 -1.35149 -1.36898 -1.37028 -1.36796 -1.35141 -1.35504 -1.34043 -1.3292 -1.34993
internal_weight=44360 15503 28856.9 2842.4 10654.8 18202.2 12660.6 175.694 10877.8 11133.6 9652.57 8161.46 9138.4 7068.54 2666.71 1782.78 8363.86 6960.31 5705.47 7748.35 102.488 2458.29 7204.62 5888.63 3936.47 2117.52 1346.13 2692.26 310.91 1995.22
internal_count=154520 54002 100518 9901 37114 63404 44101 612 37891 38782 33623 28429 31832 24622 9289 6210 29134 24245 19874 26990 357 8563 25096 20512 13712 7376 4689 9378 1083 6950
is_linear=0
shrinkage=1


Tree=3
num_leaves=31
num_cat=0
split_feature=6 6 6 21 6 21 21 6 21 6 6 6 7 9 21 7 7 21 21 6 21 6 6 23 2 11 21 3 1 7
split_gain=1016.05 355.925 110.91 94.2854 123.406 107.964 93.093 128.404 78.6407 76.9098 55.6798 31.6637 30.7706 30.3735 26.4873 26.3716 25.8944 25.7274 23.8077 23.9192 23.432 34.2293 22.4974 21.8227 27.9253 22.0293 21.8203 20.313 19.9838 17.9197
threshold=0.19721376150846484 0.3883699923753739 0.14085503667593005 0.018952087499201301 0.24989828467369082 0.027881234884262088 0.033218525350093848 0.54759415984153759 0.019014344550669197 0.31103736162185674 0.2412950471043587 0.15973301976919177 0.24955201148986819 1.0039669871330263 0.023073838092386726 0.19853988289833072 0.16709728538990024 0.024569389410316948 0.026136295869946483 0.46511334180831915 0.044590529054403312 0.73636570572853099 0.11563149094581605 0.45238918066024786 -0.040411403402686112 0.90347304940223705 0.037203684449195869 -0.15057403594255445 -0.0029023871757090087 0.39806985855102545
decision_type=2 2 2 2 2 2 2 2 2 2 2 2 2 2 2 2 2 2 2 2 2 2 2 2 2 2 2 2 2 2
left_child=2 3 13 10 14 9 18 26 11 12 15 -4 -6 22 -5 -2 -13 -11 -3 -20 -9 -22 -1 24 -18 -25 -8 -15 -24 -28
right_child=1 6 8 4 5 -7 7 20 -10 17 -12 16 -14 27 -16 -17 23 -19 19 -21 21 -23 28 25 -26 -27 29 -29 -30 -31
leaf_value=0.034780134684596037 -0.011135669919332819 -0.031970492186687176 0.012504801785490334 0.0035737412337608862 -0.0083621766383831387 0.0039090065398804238 -0.009454697045285931 -0.028967390126438036 0.020216439305429632 -0.018693307161615484 -0.017995059338459445 -0.0022868372716077232 -0.00070752183586730779 0.073455552461605012 0.011242885553394772 -0.0017593424367164092 0.00092459168152974388 -0.0088032333250352372 -0.01593440812682036 -0.028723264163628966 -0.0095194313375429138 -0.027106587077143491 0.034570897318649381 0.0089451175098327635 0.014741959558257406 -0.00052123576779281261 -0.0089557136306242235 0.012846663637894716 0.018823518334578862 0.0038399347919915016
leaf_weight=464.73271694779396 1187.6853826344013 623.23221415281296 2448.3103421926498 4245.1459794640541 1934.3336751759052 3702.1179587244987 867.63301894068718 619.01135191321373 1532.5484101176262 1227.9246116876602 1158.564089089632 864.95946341753006 4091.3321003913879 13.997646421194075 1533.9756371676922 2038.7399379611015 493.50856232643127 1422.6337651312351 1044.3852168023586 565.98960173130035 664.91611549258232 475.52126204967499 251.71375247836113 1189.7816722691059 1420.431333810091 1269.1465455293655 366.95296412706375 847.89677900075912 1035.0521973967552 1074.2532567977905
leaf_count=1718 4552 2445 9178 16063 7399 13997 3330 2420 5706 4751 4491 3279 15561 52 5756 7772 1863 5463 4031 2216 2545 1853 939 4490 5365 4793 1401 3163 3856 4072
internal_value=0.000112872 -0.00494823 0.0124512 -0.00201129 -0.000421891 -0.00323864 -0.015453 -0.0109473 0.00987258 -0.00628911 -0.00859139 0.00780922 -0.00316571 0.0215448 0.00561042 -0.00521267 0.00561321 -0.0133874 -0.0236564 -0.0204338 -0.0211231 -0.0168588 0.0253298 0.00717701 0.011182 0.00405732 -0.00319018 0.0138452 0.0219103 0.000578104
internal_weight=40676.4 28844.3 11832.1 22542.5 18157.5 12378.3 6301.9 4068.29 9218.69 8676.22 4384.99 7686.14 6025.67 2613.39 5779.12 3226.43 5237.83 2650.56 2233.61 1610.37 1759.45 1140.44 1751.5 4372.87 1913.94 2458.93 2308.84 861.894 1286.77 1441.21
internal_count=154520 110118 44402 85805 68990 47171 24313 15621 34674 33174 16815 28968 22960 9728 21819 12324 19790 10214 8692 6247 6818 4398 6513 16511 7228 9283 8803 3215 4795 5473
is_linear=0
shrinkage=0.05


Tree=4
num_leaves=31
num_cat=0
split_feature=6 6 21 6 21 21 6 6 21 21 6 21 6 21 6 21 6 21 6 6 21 6 21 21 6 7 22 22 6 7
split_gain=2889.33 697.428 475.106 435.577 363.764 304.168 275.093 269.7 214.431 168.166 230.821 163.436 160.94 118.406 111.469 91.7954 74.6098 69.6229 64.5201 58.6084 55.1728 53.8104 51.2515 43.9599 42.9822 42.914 41.8134 39.7956 38.9055 36.093
threshold=0.23852512240409854 0.36546733975410467 0.023073838092386726 0.15222421288490298 0.027468125335872177 0.019330578856170181 0.19460131227970126 0.51650202274322521 0.034140029922127731 0.028019499965012077 0.29259166121482855 0.043622205033898361 0.27703341841697698 0.018576996400952343 0.20424531400203708 0.016633789986371997 0.73636570572853099 0.023482342250645164 0.41287180781364446 0.33900032937526708 0.019921052269637588 0.1243441440165043 0.0156479561701417 0.044590529054403312 0.42116436362266546 0.23762260377407077 0.59939828515052807 0.36170262098312383 0.33687758445739752 0.22075725346803668
decision_type=2 2 2 2 2 2 2 2 2 2 2 2 2 2 2 2 2 2 2 2 2 2 2 2 2 2 2 2 2 2
left_child=3 2 12 21 -3 6 15 8 18 10 -4 -9 13 -2 -7 -5 -13 26 -6 -11 -14 -1 -23 24 -10 -15 -16 29 -12 -8
right_child=1 4 9 5 7 14 27 11 23 19 28 16 20 25 17 -17 -18 -19 -20 -21 -22 22 -24 -25 -26 -27 -28 -29 -30 -31
leaf_value=-0.031923199411694997 0.023956508003127513 0.040349454923515826 -0.0054782050898492278 -0.0056427874539623285 0.012812823834135076 -0.025749933588020985 0.010930861240340815 0.040160259184367608 -0.0056093916043823385 -0.013788319587378063 0.0088613799786365528 0.010561707167547738 0.034684778009811928 0.011206781523899699 -0.0062608059274165094 -0.016102638472430784 0.030891073177995321 -0.023745796089928897 0.028377403876144288 -0.0009680632908523715 0.019347851040219369 -0.017746067118860259 -0.030466603687457523 -0.015111195843814488 0.0079119147953470841 0.00090423684908499675 -0.01834427583136776 -0.00246964484223914 0.020588232014846615 0.0011662857127177875
leaf_weight=1605.3357203006744 1053.667740046978 1933.8040704131126 3960.1765773892403 5216.7031930088997 1485.1689838469028 2398.5345406830311 2399.7310212850571 1461.750258654356 958.60822144150734 2780.0096263885498 2702.3895880579948 1231.3178084492683 818.30236211419106 1731.4528880119324 2802.7436677217484 3510.6874443590641 713.6205347776413 1082.3951380848885 1209.9519211351871 1313.5571132004261 2083.9355155527592 3004.9098854064941 1077.9576235115528 403.91615107655525 1517.9195147752762 2431.0287952125072 962.7036449611187 1504.8025523722172 959.67753738164902 1564.6079596877098
leaf_count=4281 2816 5175 10569 13919 3967 6397 6407 3912 2559 7417 7217 3289 2188 4623 7479 9365 1909 2887 3235 3506 5567 8015 2875 1078 4053 6490 2568 4016 2564 4177
internal_value=3.32053e-05 0.0105265 0.00493986 -0.0118596 0.0206767 -0.00859623 -0.00434115 0.0164403 0.00966631 -0.00150155 0.00288792 0.027525 0.0142361 0.00898309 -0.0169316 -0.00985109 0.0180246 -0.0125671 0.0198031 -0.00967586 0.023675 -0.0241605 -0.0211064 0.000179655 0.00267609 0.00519112 -0.00935189 0.00445044 0.0119364 0.00707846
internal_weight=57881.4 30750.3 19834.2 27131.1 10916.1 21442.9 14196.5 8982.25 5575.56 11715.8 7622.24 3406.69 8118.39 5216.15 7246.38 8727.39 1944.94 4847.84 2695.12 4093.57 2902.24 5688.2 4082.87 2880.44 2476.53 4162.48 3765.45 5469.14 3662.07 3964.34
internal_count=154520 82134 52957 72386 29177 57215 37884 24002 14892 31273 20350 9110 21684 13929 19331 23284 5198 12934 7202 10923 7755 15171 10890 7690 6612 11113 10047 14600 9781 10584
is_linear=0
shrinkage=0.05


Tree=5
num_leaves=31
num_cat=0
split_feature=6 6 21 21 21 22 6 21 21 6 21 6 12 21 7 6 25 6 12 6 21 6 8 21 7 6 2 13 19 11
split_gain=1007.34 287.48 261.671 196.843 118.503 97.1316 91.9625 95.6011 85.6684 74.6689 127.167 52.9636 49.0254 48.024 47.8542 42.8352 42.29 37.7631 30.8933 29.8252 29.4643 37.02 29.4081 28.6512 28.3273 28.0601 25.2656 24.3762 23.2141 23.0532
threshold=0.23852512240409854 0.34575010836124426 0.026136295869946483 0.027597033418715004 0.020451761782169346 0.36170262098312383 0.51650202274322521 0.043622205033898361 0.034140029922127731 0.17700091004371646 0.020117123611271385 0.28194700181484228 1.0780795216560366 0.032936932519078262 0.21999759227037433 0.27703341841697698 0.01513487519696355 0.29711329936981207 0.98874396085739147 0.20517574250698092 0.02266471087932587 0.15222421288490298 1.0125194787979128 0.025056689977645877 0.54541009664535534 0.40174874663352972 0.1292197182774544 0.99126288294792186 526.75225830078136 0.66595965623855602
decision_type=2 2 2 2 2 2 2 2 2 2 2 2 2 2 2 2 2 2 2 2 2 2 2 2 2 2 2 2 2 2
left_child=5 2 4 28 15 9 8 -8 25 14 19 -6 24 17 18 -2 -14 -4 -1 -11 21 27 29 -12 -10 -5 -27 -7 -3 -9
right_child=1 3 13 6 11 20 7 22 12 10 23 -13 16 -15 -16 -17 -18 -19 -20 -21 -22 -23 -24 -25 -26 26 -28 -29 -30 -31
leaf_value=0.00094691543919356237 -0.012083235192634562 -0.028708356811815841 0.011778333055033506 -0.0079151486859479168 5.7202100931094549e-05 0.01226526126868779 -0.028937207986228244 0.0013735604572648016 -0.0038776080403755994 0.0015627052552818757 0.0096477494717447151 -0.0087027311526649241 0.014455636414899085 0.022168071817991849 0.018151984149670355 -0.026214403018312734 0.078758304126834489 0.0013439680853898914 0.0099664705132550355 -0.0056772476377527498 0.024213349549630614 0.0097239834822595919 -0.00042548213560803612 0.025716736811470298 0.012602237247171716 -0.02196839905774051 -0.0024268575803251344 0.025519214808431862 -0.0065283378362492586 -0.018804127920413777
leaf_weight=1320.798465013504 1926.8325816690922 1979.1333512961864 1557.6169129014015 1463.1245853304863 4063.6313928961754 679.30321398377419 1099.7548394501209 174.23556160926819 1905.6551895439625 3203.3932959139347 2358.615705370903 2997.358787804842 186.68930143117905 526.20354837179184 1339.7596807479858 744.75858849287033 29.617921143770218 1958.7006909549236 3387.5962076187134 2557.5610122978687 534.74682399630547 4475.3764943778515 560.29215434193611 314.91216877102852 301.91474547982216 917.66734889149666 202.5227227807045 714.17129471898079 126.14773917198181 744.00239670276642
leaf_count=4584 6743 6988 5414 5124 14158 2345 3894 610 6661 11130 8188 10492 649 1827 4639 2620 100 6826 11712 8917 1845 15475 1963 1090 1055 3227 713 2461 445 2625
internal_value=-0.000146965 -0.00725613 -0.00261384 -0.0138544 -0.00705543 0.00784 -0.0100989 -0.0177719 -0.00614669 0.00557203 0.00253101 -0.00366071 0.000603133 0.00807818 0.00981197 -0.0160253 0.0233157 0.00596769 0.00743744 -0.00165063 0.0129684 0.0119425 -0.00946225 0.0115433 -0.00162103 -0.0124816 -0.0184404 0.019063 -0.0273821 -0.0149702
internal_weight=44352.1 23465.9 13775.1 9690.76 9732.58 20886.2 7585.48 2578.28 5007.19 14482.6 8434.48 7060.99 2423.88 4042.52 6048.15 2671.59 216.307 3516.32 4708.39 5760.95 6403.6 5868.85 1478.53 2673.53 2207.57 2583.31 1120.19 1393.47 2105.28 918.238
internal_count=154520 82134 48080 34054 34013 72386 26621 9092 17529 50260 29325 24650 8465 14067 20935 9363 749 12240 16296 20047 22126 20281 5198 9278 7716 9064 3940 4806 7433 3235
is_linear=0
shrinkage=0.05


Tree=6
num_leaves=31
num_cat=0
split_feature=6 6 6 21 6 21 6 21 21 6 6 6 21 21 9 19 21 18 21 6 5 21 6 21 19 2 11 21 6 9
split_gain=904.58 325.107 96.0182 87.6749 119.689 85.319 106.935 100.189 68.0189 67.977 46.6918 28.1722 27.8098 27.3911 26.8547 28.9819 24.5662 23.813 22.9952 22.9385 22.9178 22.4264 36.6974 20.2416 19.2507 19.2032 22.7541 22.4981 19.1709 17.8678
threshold=0.19721376150846484 0.3883699923753739 0.14085503667593005 0.033218525350093848 0.54759415984153759 0.018576996400952343 0.24989828467369082 0.027881234884262088 0.019014344550669197 0.31103736162185674 0.2412950471043587 0.15973301976919177 0.022357140667736534 0.023073838092386726 1.0039669871330263 52.057395935058601 0.025685859844088558 520.37631225585949 0.026136295869946483 0.46511334180831915 0.13614558428525927 0.048326566815376289 0.73636570572853099 0.037203684449195869 240.86161804199222 0.054435610771179206 0.8974556326866151 0.016183149069547657 0.27821652591228491 1.0396876335144045
decision_type=2 2 2 2 2 2 2 2 2 2 2 2 2 2 2 2 2 2 2 2 2 2 2 2 2 2 2 2 2 2
left_child=2 5 14 18 23 10 13 9 11 12 -2 -4 17 29 15 -1 -11 28 -3 -20 -17 -6 -23 -5 -16 26 27 -13 -8 -7
right_child=1 3 8 4 21 6 7 -9 -10 16 -12 25 -14 -15 24 20 -18 -19 19 -21 -22 22 -24 -25 -26 -27 -28 -29 -30 -31
leaf_value=0.042874660075912535 -0.0055966052945056579 -0.031196382718785439 0.011748153937288003 -0.0090450936764193048 -0.026312592735089027 0.0039639261923065643 -0.0054629849462920592 0.0036731376345192739 0.018795556199520176 -0.016442041835906997 -0.018553633084625574 0.0059263950190217548 -0.00057633310334552794 0.010562641463228833 0.0091955521877098833 0.025440435382114702 -0.0063920730963657859 0.011626778120567362 -0.015284974344279445 -0.027947727830531462 0.012511394757739417 -0.0054650891897299143 -0.025804471193929951 0.00064440478350729019 0.02802586725985198 -0.00024153615019777488 0.0049629048906117551 0.022016728687037249 -0.015308407948994896 -0.0059653518607377344
leaf_weight=175.59477987885475 2795.8891025781631 605.24704964458942 2473.2620806097984 860.64548110961914 832.74399217963219 4218.8888247013092 1456.6497994065285 3715.4534340202808 1559.0774321556091 1691.5214295983315 926.34057094156742 429.81504106521606 3784.7621571421623 1548.2789925634861 704.66852667927742 1113.1328071653843 952.684116512537 152.02349063754082 1029.0153672993183 551.49443723261356 498.38539949059486 480.09238839149475 413.40986104309559 1439.5920586585999 168.63036078214645 1212.4401398897171 3180.3178024291992 441.61746338009834 750.65469995141029 507.13326224684715
leaf_count=640 10734 2445 9178 3330 3314 15938 5589 13997 5706 6624 3657 1620 14417 5756 2593 4051 3694 584 4031 2216 1822 1851 1653 5473 622 4552 11966 1652 2901 1914
internal_value=0.000108594 -0.00470337 0.0116641 -0.0148289 -0.0104497 -0.00190747 -0.000536369 -0.00320941 0.00926597 -0.00611974 -0.00882294 0.00734492 -0.00323374 0.00478977 0.0200414 0.0235566 -0.0128234 -0.00749434 -0.0228928 -0.0197081 0.0214461 -0.0204009 -0.0148832 -0.00297903 0.0128401 0.00527502 0.00692699 0.0140879 -0.008814 0.00289729
internal_weight=40669.5 28712.5 11956.9 6212.24 4026.48 22500.3 18778.1 12503.7 9296.53 8788.3 3722.23 7737.45 6144.09 6274.3 2660.41 1787.11 2644.21 2359.33 2185.76 1580.51 1611.52 1726.25 893.502 2300.24 873.299 5264.19 4051.75 871.433 2207.3 4726.02
internal_count=154520 110118 44402 24313 15621 85805 71414 47806 34674 33809 14391 28968 23491 23608 9728 6513 10318 9074 8692 6247 5873 6818 3504 8803 3215 19790 15238 3272 8490 17852
is_linear=0
shrinkage=0.05


Tree=7
num_leaves=31
num_cat=0
split_feature=6 6 21 6 21 6 21 6 21 6 21 6 21 6 21 6 6 21 21 21 6 6 6 21 21 21 21 21 6 21
split_gain=2579.04 633.659 438.573 385.314 332.669 299.085 277.237 239.996 229.795 248.056 114.112 97.3163 89.9912 100.139 85.2159 77.0417 68.1738 66.0492 65.4725 62.4517 54.0373 52.7258 49.5598 48.1401 43.3934 38.6463 35.2448 34.4485 34.1486 33.9385
threshold=0.23761887103319171 0.36546733975410467 0.020515740849077705 0.15222421288490298 0.031590009108185775 0.51650202274322521 0.019330578856170181 0.19460131227970126 0.028019499965012077 0.2911678552627564 0.043622205033898361 0.19987394660711291 0.024378621019423011 0.44640314579010015 0.016633789986371997 0.26660785079002386 0.73636570572853099 0.023482342250645164 0.036314018070697791 0.023741233162581924 0.29711329936981207 0.32328015565872198 0.11895944178104402 0.015514629427343609 0.032639628276228912 0.018576996400952343 0.062572129070758833 0.017757532186806205 0.41287180781364446 0.024378621019423011
decision_type=2 2 2 2 2 2 2 2 2 2 2 2 2 2 2 2 2 2 2 2 2 2 2 2 2 2 2 2 2 2
left_child=3 2 15 22 12 18 7 14 9 19 -7 -8 -3 -14 -5 25 26 -13 28 -4 -10 -11 -1 -24 -22 -2 -12 -9 -6 -23
right_child=1 4 8 6 5 10 11 27 20 21 16 17 13 -15 -16 -17 -18 -19 -20 -21 24 29 23 -25 -26 -27 -28 -29 -30 -31
leaf_value=-0.032074132801529452 0.021820110964004383 0.045261450456466235 0.0026223676684566542 -0.0052202270916575574 0.0034360472222643304 0.036577733553323381 -0.025654864358440527 0.0076806751449765027 -0.018748599173383042 0.0087585714874478977 0.012754693513253396 -0.0096179072454231854 0.021144276126386086 0.041384684362601815 -0.015296953219632127 0.028720860331225825 0.029375644726857487 -0.02346542334853698 -0.0020708510461142316 -0.0067710012697786443 -0.0015710572575106862 0.027397314770415366 -0.017353524099138502 -0.029000095654388065 -0.014381443138581097 0.0085524868036339751 -0.015334492056137279 -0.00035448307293871697 0.017290346128815717 0.014154416226487783
leaf_weight=1160.8127833604813 947.01572042703629 903.52320140600204 4096.7527379691601 5217.9597282111645 824.77396309375763 1219.2342169880867 1987.3028441369534 3018.2718963623047 1087.7810033559799 2916.9257794618607 1106.2227654457092 3996.7241538763046 2049.4198045432568 872.30998507142067 3511.6536087691784 1509.8115509152412 711.25888520479202 1098.7014452219009 2111.3097290098667 3114.1469167172909 2031.8634659647942 785.40722635388374 3312.2109059095383 1215.1792778968811 980.53596892952919 1310.3677847087383 123.97340980172157 2388.1072919368744 968.12662237882614 1268.3910835385323
leaf_count=3097 2536 2431 10939 13919 2203 3279 5300 8060 2901 7796 2958 10661 5492 2347 9365 4046 1909 2930 5636 8309 5421 2103 8833 3241 2616 3501 331 6376 2591 3393
internal_value=2.91288e-05 0.00987475 0.00460069 -0.0112917 0.0195838 0.0131519 -0.00819336 -0.00414733 0.00104317 0.00448963 0.0245857 -0.0162677 0.031461 0.0271902 -0.00927448 0.0199745 0.0170507 -0.0126052 0.00389387 -0.00143366 -0.00919487 0.0130832 -0.0228484 -0.0204812 -0.00574284 0.0141214 0.00991892 0.00413052 0.0109204 0.0192222
internal_weight=57846.1 30939.2 20049 26906.9 10890.2 7064.9 21218.7 14136 16281.8 12181.6 3160.69 7082.73 3825.25 2921.73 8729.61 3767.2 1941.46 5095.43 3904.21 7210.9 4100.18 4970.72 5688.2 4527.39 3012.4 2257.38 1230.2 5406.38 1792.9 2053.8
internal_count=154520 82738 53561 71782 29177 18907 56611 37720 43478 32540 8477 18891 10270 7839 23284 10083 5198 13591 10430 19248 10938 13292 15171 12074 8037 6037 3289 14436 4794 5496
is_linear=0
shrinkage=0.05


Tree=8
num_leaves=31
num_cat=0
split_feature=6 6 21 21 21 22 6 21 21 6 21 14 6 21 21 6 21 6 6 20 14 10 6 6 21 25 2 6 11 10
split_gain=894.937 261.384 235.676 183.849 108.478 87.5204 83.6789 89.5312 77.9144 70.9872 95.1343 48.2123 47.8853 45.2271 42.5488 39.7995 35.8028 33.1887 31.6814 30.123 28.9591 27.7969 27.4029 26.9669 26.2285 25.7333 25.3282 23.5943 24.567 31.2904
threshold=0.23852512240409854 0.34575010836124426 0.026136295869946483 0.027597033418715004 0.020451761782169346 0.1405327767133713 0.51650202274322521 0.043622205033898361 0.03352146968245507 0.17700091004371646 0.020117123611271385 28.800107002258304 0.28194700181484228 0.036314018070697791 0.016696214675903324 0.27703341841697698 0.022830502130091194 0.15222421288490298 0.31615252792835241 0.11007921025156976 54.404462814331062 0.77215462923049938 0.14859562367200854 0.40886826813220983 0.017390847206115726 0.017486937344074253 0.14708983153104785 0.97042575478553783 0.66595965623855602 0.92682769894599926
decision_type=2 2 2 2 2 2 2 2 2 2 2 2 2 2 2 2 2 2 2 2 2 2 2 2 2 2 2 2 2 2
left_child=5 2 4 -3 15 9 8 -8 21 14 -11 25 -6 18 22 -2 17 20 -4 -9 -7 -5 -1 -23 -19 -10 -13 28 29 -21
right_child=1 3 13 6 12 16 7 19 11 10 -12 26 -14 -15 -16 -17 -18 24 -20 27 -22 23 -24 -25 -26 -27 -28 -29 -30 -31
leaf_value=0.010668987962598396 -0.011556629120991637 -0.02647094882194688 0.0099184041578260634 0.05204750659173351 6.2136010242236966e-05 0.023167162517057211 -0.027975146476610698 0.008078654018187215 0.018703557568451407 -0.0020839547985223848 0.0099368140920841376 -0.0034736669624591907 -0.0082842965583964159 0.033893350846679438 0.017210859588750384 -0.025305980609646735 0.023097044912570329 0.0046499559193994419 0.0005072880753480718 -0.0025023621584325112 0.010157809047320332 -0.0088751298925298094 0.0026161319512815698 -0.020098152411233978 0.011594695139472642 0.078931654366557899 0.012743966847030167 -0.031679506827458556 -0.013184503325304282 0.050351491998137411
leaf_weight=2177.8490447998047 1908.7750362753868 2056.9538753032684 2519.8261606097221 16.444633305072784 4063.306554377079 849.90811717510223 1071.8026772737503 220.18973097205162 146.39961898326874 5210.5752758979797 2405.5575823187828 2206.1506868898869 2976.2772221565247 157.66150414943695 1266.4028712213039 728.37811043858528 614.55921360850334 2365.4778715372086 1387.9740715622902 180.15933713316917 865.70628574490547 1481.3535003960133 2055.6134456694126 840.760413646698 3207.6412393450737 20.195245683193207 270.06091937422752 135.4382366836071 896.72709485888481 33.025819659233093
leaf_count=7463 6743 7433 8705 58 14158 2882 3894 771 506 18150 8276 7720 10492 540 4333 2620 2087 8142 4822 633 2958 5226 7092 3008 11003 66 945 485 3193 116
internal_value=-0.000137727 -0.00688228 -0.00246282 -0.0132241 -0.00670722 0.00734414 -0.00959909 -0.0169908 -0.00583274 0.00483893 0.00171223 4.77289e-05 -0.00346602 0.00763852 0.00916772 -0.0153569 0.0115009 0.0105222 0.00657714 -0.00895274 0.0166065 -0.0124801 0.00676015 -0.0129415 0.00864807 0.0260776 -0.00170247 -0.0119685 -0.00955607 0.00568188
internal_weight=44337.2 23317.9 13742.2 9575.66 9676.74 21019.3 7518.71 2537.34 4981.37 13116 7616.13 2642.81 7039.58 4065.46 5499.87 2637.15 7903.29 7288.73 3907.8 1465.54 1715.61 2338.56 4233.46 2322.11 5573.12 166.595 2476.21 1245.35 1109.91 213.185
internal_count=154520 82134 48080 34054 34013 72386 26621 9092 17529 45314 26426 9237 24650 14067 18888 9363 27072 24985 13527 5198 5840 8292 14555 8234 19145 572 8665 4427 3942 749
is_linear=0
shrinkage=0.05


Tree=9
num_leaves=31
num_cat=0
split_feature=6 6 6 21 6 21 6 21 7 6 7 6 21 7 9 19 21 21 6 2 7 5 7 21 6 21 7 6 6 19
split_gain=804.153 297.082 84.4777 76.0004 101.413 75.2988 99.5757 113.354 64.4895 43.8345 41.1905 34.9879 32.5145 24.1101 23.9013 25.7471 23.0753 21.5695 30.1546 21.3939 20.5653 20.4248 20.1443 20.0717 19.8163 19.4215 21.9754 19.7776 17.5499 17.4345
threshold=0.19721376150846484 0.39484207332134252 0.14085503667593005 0.033218525350093848 0.54759415984153759 0.018576996400952343 0.28320747613906866 0.027881234884262088 0.19037014245986941 0.2412950471043587 0.24769210070371631 0.25187830626964575 0.0185134606435895 0.19853988289833072 1.0039669871330263 52.057395935058601 0.023916471749544147 0.044590529054403312 0.73636570572853099 0.053503595292568214 0.34742164611816412 0.13614558428525927 0.38621419668197637 0.025685859844088558 0.46511334180831915 0.024569389410316948 0.37179420888423925 0.24510258436203006 0.15973301976919177 240.86161804199222
decision_type=2 2 2 2 2 2 2 2 2 2 2 2 2 2 2 2 2 2 2 2 2 2 2 2 2 2 2 2 2 2
left_child=2 5 14 23 22 9 10 16 19 13 11 -7 20 -2 15 -1 -8 -6 -19 28 -10 -17 -5 -3 -25 26 27 -12 -4 -16
right_child=1 3 8 4 17 6 7 -9 12 -11 25 -13 -14 -15 29 21 -18 18 -20 -21 -22 -23 -24 24 -26 -27 -28 -29 -30 -31
leaf_value=0.039948397496692808 -0.011132437719862128 -0.031701936540472764 0.010354738673779991 -0.010961294528417403 -0.027457663463489074 0.0017912593930399356 -0.01353138002722579 0.0022076349711026393 0.010183335232465026 -0.017927362375217852 0.0078330894385908907 -0.0079368032624514261 0.017764558996479284 -0.0015781133536303456 0.0084879629763143158 0.023739326883567079 -0.0066090015133608753 -0.0087068167970911214 -0.025516736204355902 -0.0037094362957516957 -0.011621244196068824 0.011617199832483251 -0.00037256655447504445 -0.015191112332175766 -0.027208397374519092 0.0093279644756895635 -0.0070973145327590517 0.00058287332853443796 0.0027574800295036808 0.026252234326049395
leaf_weight=180.46169692277908 1081.5133010745049 467.34788993000984 1223.6711252629757 630.7589460760355 587.99310851097107 3117.8079148232937 2105.228081420064 3491.1979666948318 3480.1537085771561 913.12560045719147 2081.8773538172245 1313.3991396278143 1788.0302401185036 1699.0567077994347 711.53578788042068 1134.361674040556 2823.4105700403452 654.34395611286163 452.10665766894817 755.51617604494095 111.31345358490944 504.22425538301468 1563.2383670508862 906.08240012824535 556.16999058425426 1965.7365649938583 452.36878496408463 1718.6997600495815 2013.5969121456146 171.93582510948181
leaf_count=640 4207 1947 4509 2448 2420 11743 8298 13156 12916 3670 7796 5069 6474 6527 2593 4051 10962 2545 1853 2815 413 1822 5980 3606 2298 7340 1707 6546 7547 622
internal_value=0.000106538 -0.00446394 0.0109254 -0.0145471 -0.0105186 -0.00188653 -0.000620613 -0.00468425 0.00867846 -0.00842066 0.00259165 -0.0010911 0.0122521 -0.00529637 0.0187152 0.0219957 -0.00956707 -0.0197071 -0.0155817 0.00386228 0.00950583 0.0200131 -0.00341939 -0.0226616 -0.0197669 0.00521663 0.003315 0.00455581 0.00563098 0.0119534
internal_weight=40656.3 28581.5 12074.8 5818.04 3888.44 22763.4 19069.7 8419.84 9372.28 3693.7 10649.9 4431.21 5379.5 2780.57 2702.52 1819.05 4928.64 1694.44 1106.45 3992.78 3591.47 1638.59 2194 1929.6 1462.25 6218.68 4252.95 3800.58 3237.27 883.472
internal_count=154520 110118 44402 23097 15246 87021 72617 32416 34674 14404 40201 16812 19803 10734 9728 6513 19260 6818 4398 14871 13329 5873 8428 7851 5904 23389 16049 14342 12056 3215
is_linear=0
shrinkage=0.05


Tree=10
num_leaves=31
num_cat=0
split_feature=6 6 21 6 21 21 6 21 6 6 21 21 6 7 6 6 6 6 21 21 21 6 6 22 21 21 6 21 6 21
split_gain=2302.24 570.082 396.033 346.959 330.854 268.234 247.044 198.702 194.091 184.063 157.028 132.79 81.7714 69.4706 68.7679 65.6026 62.9409 61.5588 67.3342 56.7883 50.2298 43.1636 43.1397 43.0199 39.8586 36.1051 45.6423 34.9594 34.3947 34.268
threshold=0.23761887103319171 0.35798560082912451 0.020515740849077705 0.15875973552465442 0.027736104093492035 0.019330578856170181 0.51650202274322521 0.028019499965012077 0.28449913859367376 0.1981051713228226 0.034140029922127731 0.043622205033898361 0.20782302320003512 0.19218872487545016 0.40174874663352972 0.26660785079002386 0.85834822058677684 0.1243441440165043 0.017081717960536483 0.025261589325964454 0.023741233162581924 0.29711329936981207 0.32328015565872198 0.63560307025909435 0.024096149019896988 0.044590529054403312 0.42116436362266546 0.018326037563383583 0.44061781466007238 0.017757532186806205
decision_type=2 2 2 2 2 2 2 2 2 2 2 2 2 2 2 2 2 2 2 2 2 2 2 2 2 2 2 2 2 2
left_child=3 2 15 17 24 9 10 8 20 13 14 -8 -7 -5 -6 27 -13 -1 -19 23 -4 -9 -10 -14 -3 26 -12 -2 -26 -11
right_child=1 4 7 5 6 12 11 21 22 29 25 16 19 -15 -16 -17 -18 18 -20 -21 -22 -23 -24 -25 28 -27 -28 -29 -30 -31
leaf_value=-0.02881101684240911 0.021515652090961328 0.042814731702287293 0.001594534953315948 -0.0025244889627711472 0.008232791941568264 -0.021955904395262873 0.036194984166471711 -0.017865461607648968 0.0075857184451622083 0.0086801037350859016 -0.0060392385142561521 0.011680785218299392 -0.0058660031816117706 -0.011847570672512079 0.023774046433729421 0.026955498411814868 0.034453919539616296 -0.015439782899746854 -0.031583842080909537 -0.027715606814758365 -0.0073665054621060641 -0.0060210616891135217 0.017064282564691838 -0.018119699765661527 0.024536113864870448 -0.014162490465691858 0.0074368411118971058 0.0086025491347735943 0.042400812176061342 0.00017140973422934524
leaf_weight=1602.3266289234161 832.36196196079254 963.32603615522385 3754.6609564423561 3676.6095799803734 1413.1062396764755 2708.7259823083878 1435.2220670580864 1087.8349658250809 3691.7397601902485 2593.1472796201706 1072.1861937940121 1559.7926509082317 2898.9037482738495 4381.0121926367283 1437.1582973301411 1471.4810142815113 377.12986209988594 4711.5391215085983 749.45072060823441 447.8327548801899 2679.1328206062317 2633.8915112018585 1781.5911564528942 952.34853807091713 979.5365908741951 407.07824623584747 1516.8597616553307 1421.6776689589024 373.8146824836731 2178.7108120322227
leaf_count=4281 2235 2610 10026 9807 3780 7228 3887 2901 9871 6928 2862 4181 7732 11685 3865 3958 1017 12568 2001 1195 7147 7026 4777 2540 2640 1086 4053 3802 1014 5817
internal_value=2.23028e-05 0.00933545 0.00409116 -0.0106717 0.018134 -0.00728283 0.0138879 0.000598771 0.003751 -0.00298523 0.00767008 0.0246658 -0.0151497 -0.00759425 0.0160713 0.0187403 0.016119 -0.0201882 -0.0176568 -0.0108598 -0.00213626 -0.00948483 0.0106722 -0.00889782 0.0350269 -0.000320758 0.00185412 0.013374 0.0294771 0.00479638
internal_weight=57790.2 30889.6 19354.4 26900.6 11535.2 19837.3 9218.53 15628.9 11907.1 12829.5 5846.39 3372.14 7007.81 8057.62 2850.26 3725.52 1936.92 7063.32 5460.99 4299.09 6433.79 3721.73 5473.33 3851.25 2316.68 2996.12 2589.05 2254.04 1353.35 4771.86
internal_count=154520 82738 51743 71782 30995 52932 24731 41748 31821 34237 15646 9085 18695 21492 7645 9995 5198 18850 14569 11467 17173 9927 14648 10272 6264 8001 6915 6037 3654 12745
is_linear=0
shrinkage=0.05


Tree=11
num_leaves=31
num_cat=0
split_feature=6 6 21 21 21 22 6 21 21 6 21 14 6 7 21 6 6 9 20 6 21 10 7 6 21 19 25 21 6 16
split_gain=795.531 238.146 213.34 172.191 98.0627 80.6001 76.1786 83.8002 70.5117 58.91 98.8376 44.3764 43.4898 42.2355 40.3457 37.5822 29.1619 28.6829 28.2399 27.3387 25.8854 25.7743 25.1706 25.0531 23.5896 23.1115 22.7985 22.7378 25.5191 22.5074
threshold=0.23852512240409854 0.34575010836124426 0.026136295869946483 0.027597033418715004 0.020451761782169346 0.43563851714134222 0.51650202274322521 0.043622205033898361 0.03352146968245507 0.17700091004371646 0.020117123611271385 28.800107002258304 0.28194700181484228 0.2143891975283623 0.036314018070697791 0.27703341841697698 0.26553104817867285 0.98941558599472057 0.11007921025156976 0.20517574250698092 0.029107449576258663 0.77215462923049938 0.54541009664535534 0.40886826813220983 0.025056689977645877 526.75225830078136 0.015823340974748138 0.02266471087932587 0.15222421288490298 -0.8823389708995818
decision_type=2 2 2 2 2 2 2 2 2 2 2 2 2 2 2 2 2 2 2 2 2 2 2 2 2 2 2 2 2 2
left_child=5 2 4 25 15 9 8 -8 21 13 19 26 -6 17 16 -2 -4 -1 29 -11 -18 -5 -13 -23 -12 -3 -10 28 -7 -9
right_child=1 3 14 6 12 27 7 18 11 10 24 22 -14 -15 -16 -17 20 -19 -20 -21 -22 23 -24 -25 -26 -27 -28 -29 -30 -31
leaf_value=0.0015160341222840705 -0.010972081850365072 -0.026973122796425605 0.017356959267964635 0.049585116783602702 5.133352094339395e-05 0.016811613120501591 -0.02704707779306674 0.020247712143587577 0.017262058727897142 0.0016129212037940838 0.0082963052424609614 -0.0035880020938031526 -0.0079168440531625466 0.01559901559650209 0.031804203218998732 -0.024456557358237183 0.00080721259867784815 0.0094483051855709099 -0.011421307335068022 -0.0052306414151734454 0.0096149124218619583 -0.008436565835913748 0.011444754108139398 -0.01932789287939788 0.022469056033430957 -0.0044544263467825879 0.069763730763341789 0.021747275273707466 0.0088935015732266639 -0.012807162596661842
leaf_weight=1927.7785013914108 1888.767241448164 1889.0650545060635 513.91391676664352 16.788782238960266 4063.9073249101639 1343.6812883615494 1044.5300858020782 138.86855298280716 144.47335079312325 3305.2479373514652 2474.2333160042763 2154.3746838569641 2957.7858789265156 1607.0193253755569 160.83196690678596 712.95752441883087 1951.8373689651489 2793.5171356499195 1232.751577347517 2611.925047814846 1458.5677481889725 1470.2122978270054 319.59217810630798 826.6215852200985 333.72924113273621 121.87310326099396 24.181923180818558 520.28142532706261 4224.1317800283432 81.548333197832108
leaf_count=6607 6743 6988 1757 58 14158 4515 3894 485 495 11444 8449 7556 10492 5450 540 2620 6766 9503 4427 9144 5004 5226 1109 3008 1122 445 77 1739 14413 286
internal_value=-0.000126939 -0.0065258 -0.00231362 -0.012626 -0.00637784 0.00688668 -0.00912182 -0.016243 -0.00553181 0.00492273 0.00225809 4.66072e-05 -0.0033045 0.0085957 0.00725919 -0.01467 0.0062512 0.0062106 -0.0084724 -0.00140712 0.00457574 -0.0119054 -0.00164363 -0.0123592 0.00998327 -0.0256112 0.0248563 0.0117418 0.0108055 0.00799536
internal_weight=44315 23173.5 13708.6 9464.88 9623.42 21141.5 7453.94 2497.7 4956.24 15053.5 8725.14 2642.62 7021.69 6328.31 4085.15 2601.72 3924.32 4721.3 1453.17 5917.17 3410.41 2313.62 2473.97 2296.83 2807.96 2010.94 168.655 6088.09 5567.81 220.417
internal_count=154520 82134 48080 34054 34013 72386 26621 9092 17529 51719 30159 9237 24650 21560 14067 9363 13527 16110 5198 20588 11770 8292 8665 8234 9571 7433 572 20667 18928 771
is_linear=0
shrinkage=0.05


Tree=12
num_leaves=31
num_cat=0
split_feature=6 6 21 6 6 21 6 21 7 6 21 7 23 6 7 21 9 19 21 21 6 6 18 6 7 7 6 21 19 5
split_gain=716.466 271.262 77.7951 104.195 74.0164 71.2406 97.5623 94.217 57.0211 54.3767 28.643 27.35 25.7529 24.8974 24.3099 21.917 21.3983 23.0287 21.3309 21.0223 32.7257 20.8206 22.0833 20.6368 19.2394 18.908 19.1314 18.5391 24.032 18.2058
threshold=0.19721376150846484 0.3883699923753739 0.033218525350093848 0.54759415984153759 0.14085503667593005 0.019854166544973854 0.27703341841697698 0.027881234884262088 0.19037014245986941 0.2412950471043587 0.018952087499201301 0.19853988289833072 1.3162327408790591 0.31103736162185674 0.24769210070371631 0.025685859844088558 1.0039669871330263 52.057395935058601 0.026136295869946483 0.048326566815376289 0.73636570572853099 0.21837939321994784 111.83273696899415 0.46511334180831915 0.34554764628410345 0.34742164611816412 0.1618265435099602 0.022509093396365646 554.37371826171886 0.13614558428525927
decision_type=2 2 2 2 2 2 2 2 2 2 2 2 2 2 2 2 2 2 2 2 2 2 2 2 2 2 2 2 2 2
left_child=4 5 18 24 16 9 14 13 12 11 25 -2 -6 27 21 -15 17 -1 -3 -5 -21 -7 -23 -20 -4 26 -10 28 -8 -19
right_child=1 2 3 19 8 6 7 -9 10 -11 -12 -13 -14 15 -16 -17 -18 29 23 20 -22 22 -24 -25 -26 -27 -28 -29 -30 -31
leaf_value=0.037324641771301445 -0.0093021745281903056 -0.029696577030832921 -0.016959574081893775 -0.024901874528951162 0.0061229467893865689 0.0083626400880362963 -0.013279545027066754 0.0027199875915372897 0.015374861221990358 -0.013847816432928435 0.017343299244253308 -0.00057719522980200248 -0.0028046622880859074 -0.015253915955151848 0.0060462424588461332 -0.0055561469102560872 0.011116991021647062 0.022170622345430255 -0.014118307848670403 -0.0047588556832416735 -0.024278989182933097 -0.0071761441421612521 0.0027500588519908204 -0.026399153909153594 -0.0011016478135941236 -0.0094453263517376221 0.0075777692945556618 -0.0021000452894761028 0.037205225248416345 0.010797463774693858
leaf_weight=184.94489926099777 1309.6585484743118 570.21887798607349 210.73648421466351 795.59675008058548 2886.079046100378 624.90754643082619 686.0725459009409 3409.0648377388716 1118.0709282457829 1736.9576639980078 1510.4787072241306 2862.8325882554054 1120.7934229671955 1547.4733831435442 5084.2892633974552 937.80978927016258 893.13887155056 1154.2579079270363 1001.7120048105717 473.89265449345112 393.78775130212307 1065.1552983522415 1181.1381109952927 522.67384880781174 2072.7088511586189 130.62663277983665 2674.4134451150894 1944.5563929080963 24.268297761678696 509.62066304683685
leaf_count=640 5109 2445 825 3314 10705 2320 2690 12787 4067 6971 5369 10923 4166 6217 19008 3694 3215 4051 4031 1851 1653 4046 4488 2216 7978 485 9882 7458 94 1822
internal_value=0.000106495 -0.00423734 -0.0136406 -0.00950446 0.0102531 -0.00170259 -1.55662e-05 -0.00372416 0.00815157 -0.00641344 0.0114889 -0.00331714 0.00362448 -0.00799898 0.00396919 -0.0115969 0.0174862 0.0205597 -0.0214308 -0.0190235 -0.0136254 0.000289333 -0.00195467 -0.0183338 -0.00256803 0.00923321 0.00987811 -0.00462874 -0.0115427 0.0186911
internal_weight=40637.9 28455.5 6041.33 3946.72 12182.4 22414.2 16504.7 8549.25 9440.46 5909.45 5433.59 4172.49 4006.87 5140.18 7955.49 2485.28 2741.96 1848.82 2094.6 1663.28 867.68 2871.2 2246.29 1524.39 2283.45 3923.11 3792.48 2654.9 710.341 1663.88
internal_count=154520 110118 24313 15621 44402 85805 62802 32940 34674 23003 19803 16032 14871 20153 29862 9911 9728 6513 8692 6818 3504 10854 8534 6247 8803 14434 13949 10242 2784 5873
is_linear=0
shrinkage=0.05


Tree=13
num_leaves=31
num_cat=0
split_feature=6 6 6 8 22 22 6 6 25 14 11 6 22 13 8 25 25 11 15 3 13 6 3 10 6 8 2 23 2 11
split_gain=2055.48 513.896 313.43 108.024 107.387 106.728 98.6016 79.8189 51.8892 47.2676 46.5452 42.7321 42.283 36.7349 34.4715 34.0377 31.7927 29.5103 30.78 39.6909 24.8346 24.7879 25.0128 23.585 28.2399 23.5194 21.5474 21.546 21.4722 19.9883
threshold=0.23761887103319171 0.36791706085205084 0.15222421288490298 1.024430572986603 -0.030201195739209648 0.43563851714134222 0.53688433766365062 0.19276591390371325 0.017486937344074253 62.958204269409187 0.66595965623855602 0.11563149094581605 0.61780139803886425 0.97933059930801403 1.0081403851509096 -0.0079005202278494818 0.0044395327568054208 0.68894809484481823 2.0060873031616215 -0.011927029583603142 0.98384800553321849 0.2911678552627564 0.40999062359333044 1.2132325768470766 0.97042575478553783 1.001415550708771 0.058105314150452621 -2.596285223960876 0.07389469072222711 0.84777557849884044
decision_type=2 2 2 2 2 2 2 2 2 2 2 2 2 2 2 2 2 2 2 2 2 2 2 2 2 2 2 2 2 2
left_child=2 5 11 6 7 9 12 25 23 15 28 -1 17 -6 -9 -2 -17 -3 29 -20 -13 -11 -23 -5 27 -4 -7 -25 -8 -19
right_child=1 3 4 8 13 26 10 14 -10 21 -12 20 -14 -15 -16 16 -18 18 19 -21 -22 22 -24 24 -26 -27 -28 -29 -30 -31
leaf_value=-0.030394872093327488 -0.0017827697536579421 -0.00069790667624524023 -0.0059281572265529074 0.01157861864694713 -0.0067610075326518561 -0.0037564160273319048 -0.013282357358743403 0.0015797580009010118 -0.026214285509788937 0.0082744731140163546 0.031394505559252599 -0.01393950834077869 0.0073445272152505587 -0.01351894362008192 -0.0072244782164043566 0.0079395496603264972 0.0020738741120874377 0.0065530223491791261 -0.00056377861279190155 0.029097813201559297 -0.021415891605998372 0.020320646416461891 -0.0079507231853600223 0.01131535191850512 0.036471673372951395 -0.012590120929485896 0.0033729591439238325 -0.020227687456641132 0.017818823177646392 0.018354293363171365
leaf_weight=920.73278313875198 1587.3573338389397 189.78326812386513 3353.708972454071 1618.7164167761803 2966.5578910112381 3969.6131611168385 69.946426749229431 4996.8655409514904 108.94511470198631 1501.222182482481 2121.5999173820019 1783.4458703994751 993.31892141699791 6268.4438548088074 1429.7338976264 7229.4038491845131 3398.8440913558006 404.5459232032299 124.91817647218704 1129.7473413348198 2972.331314265728 1019.8392450809479 84.41822949051857 79.393563985824585 37.313698440790176 2195.5188002288342 1445.050853818655 168.73240950703621 264.6780024766922 3282.5239197313786
leaf_count=2467 4244 509 8947 4349 7916 10611 188 13344 292 4021 5761 4763 2671 16729 3817 19354 9092 1087 336 3062 7941 2741 226 213 101 5858 3868 452 716 8844
internal_value=1.35044e-05 0.00882531 -0.0100902 0.0177471 -0.00729706 0.00415411 0.0201929 -0.00417219 0.00731873 0.00634898 0.0286596 -0.0205259 0.0167963 -0.0113487 -0.000378236 0.00504416 0.00606425 0.0186247 0.0193678 0.0261408 -0.0186136 0.0124642 0.0181543 0.0092412 -0.00399612 -0.008565 -0.0018528 -0.0101141 0.0113008 0.017061
internal_weight=57717.3 30829.9 26887.3 10594.2 21210.8 20235.7 8581.06 11975.8 2013.1 14821.1 2456.22 5676.51 6124.84 9235 6426.6 12215.6 10628.2 5131.52 4941.74 1254.67 4755.78 2605.48 1104.26 1904.16 285.44 5549.23 5414.66 248.126 334.624 3687.07
internal_count=154520 82738 71782 28581 56611 54157 23174 31966 5407 39678 6665 15171 16509 24645 17161 32690 28446 13838 13329 3398 12704 6988 2967 5115 766 14805 14479 665 904 9931
is_linear=0
shrinkage=0.05


Tree=14
num_leaves=31
num_cat=0
split_feature=6 6 21 21 6 21 21 21 6 21 7 6 6 21 12 6 6 21 6 21 6 6 1 20 7 8 6 6 10 6
split_gain=707.371 220.978 188.619 171.609 95.8858 88.119 78.4052 62.5835 107.002 57.2858 45.5123 41.0543 39.4082 37.9895 37.4574 36.2114 34.024 33.691 29.7477 28.5856 32.4648 28.4464 26.6911 26.659 26.1727 25.8201 23.0829 23.0449 22.9697 22.6171
threshold=0.32328015565872198 0.22655060142278674 0.020515740849077705 0.027597033418715004 0.51650202274322521 0.026136295869946483 0.043622205033898361 0.018326037563383583 0.15337604284286502 0.03352146968245507 0.37179420888423925 0.25284136831760412 0.40174874663352972 0.022911637090146545 1.0780795216560366 0.27133102715015417 0.40174874663352972 0.014862682204693558 0.19987394660711291 0.02266471087932587 0.17609710246324542 0.35301622748374945 -0.041678937152028077 0.0089769084006547945 0.54541009664535534 1.0324348211288454 0.12181213870644571 0.97042575478553783 1.1921638846397402 0.26553104817867285
decision_type=2 2 2 2 2 2 2 2 2 2 2 2 2 2 2 2 2 2 2 2 2 2 2 2 2 2 2 2 2 2
left_child=1 7 15 13 9 11 -6 8 17 12 18 -4 -5 -2 21 -3 -15 -1 -10 20 -9 -11 -19 28 -23 29 -24 -25 -8 -7
right_child=3 2 5 4 6 25 23 19 10 14 -12 -13 -14 16 -16 -17 -18 22 -20 -21 -22 24 26 27 -26 -27 -28 -29 -30 -31
leaf_value=0.0084711865888610471 -0.030002759855840406 -0.0083918379817972608 0.0046226428667673737 -0.0046322186293958709 -0.026140255496113731 0.016338131918361726 -0.014822464973062378 0.018958871332264274 0.0030704222660154854 0.0147318180263913 0.037770964862135228 -0.0033577802078175382 -0.016973727802275181 -0.013878046974482134 0.019920689972157256 -0.020616635539543609 -0.028518493291058013 0.066269808424655921 -0.0040063382649531722 0.01916993024391115 0.0080407597153433052 -0.0043058636984275121 0.039210697767968428 -0.0077243487027134506 0.011357995819824676 0.023330480663183051 0.014929868325661406 -0.029198908641985349 0.032133880609872531 0.0054507237767923086
leaf_weight=3129.8489574193954 873.82693362236023 2865.5423551797867 2393.2960712313652 2014.2553571760654 1017.7306749820709 609.73024496436119 40.370410025119781 812.08873310685158 6391.7347937822342 275.9440752863884 86.949841767549515 4932.1888419687748 954.00771528482437 1572.5202973484993 247.08164295554161 769.34744358062744 532.40784674882889 27.866267710924149 1933.8331594765186 970.87562462687492 4245.366587549448 2025.0136270821095 106.49784401059151 1188.5827624797821 306.90659573674202 296.63581767678261 1248.9556764662266 139.79949396848679 72.500235706567764 2205.1187568306923
leaf_count=10520 3284 10184 8241 7119 3894 2052 142 2715 21878 937 296 17333 3515 5782 834 2865 2027 92 6755 3237 14484 7121 354 4285 1059 1007 4181 519 252 7556
internal_value=-0.000115434 0.00357437 -0.00117202 -0.0109372 -0.00723446 0.00224381 -0.0155139 0.00709845 0.00513557 -0.00373721 0.00180272 -0.0007498 -0.00860094 -0.0212301 0.00131794 -0.0109812 -0.0175847 0.0113467 0.00142603 0.0113062 0.00979524 -0.000443354 0.017848 -0.00800543 -0.00224178 0.00929318 0.0168441 -0.00999013 0.0152965 0.00781134
internal_weight=44286.8 33025.9 14071.9 11260.9 8282.19 10437 2458.98 18954 12925.7 5823.21 8412.52 7325.48 2968.26 2978.76 2854.95 3634.89 2104.93 4513.17 8325.57 6028.33 5057.46 2607.86 1383.32 1441.25 2331.92 3111.48 1355.45 1328.38 112.871 2814.85
internal_count=154520 113750 49238 40770 29677 36189 9092 64512 44076 20585 28929 25574 10634 11093 9951 13049 7809 15147 28633 20436 17199 9117 4627 5198 8180 10615 4535 4804 394 9608
is_linear=0
shrinkage=0.05


Tree=15
num_leaves=31
num_cat=0
split_feature=6 6 6 21 6 21 6 21 6 6 21 6 7 21 21 5 21 6 18 24 6 7 24 11 14 7 15 6 21 15
split_gain=674.36 175.553 149.919 109.426 75.1508 64.9367 69.3839 56.3237 54.229 38.6784 48.9482 36.2393 35.4701 34.3006 31.6618 30.5739 34.2155 28.8009 25.763 25.7206 24.3787 20.7903 19.7631 19.5443 23.1136 18.7724 17.5773 16.9625 21.2606 25.3222
threshold=0.24802147597074511 0.15973301976919177 0.46511334180831915 0.02476119622588158 0.31269557774066931 0.020320012234151367 0.19721376150846484 0.037203684449195869 0.58846753835678112 0.29259166121482855 0.031349046155810363 0.3883699923753739 0.19853988289833072 0.0195932611823082 0.016183149069547657 0.17006165534257892 0.018268262967467312 0.21052449196577075 520.37631225585949 0.1102837882936001 0.11895944178104402 0.2731968760490418 0.06739042699337007 0.89990055561065685 63.514324188232429 0.40071669220924383 -0.59457278251647938 0.39829252660274511 0.037203684449195869 5.9098050594329843
decision_type=2 2 2 2 2 2 2 2 2 2 2 2 2 2 2 2 2 2 2 2 2 2 2 2 2 2 2 2 2 2
left_child=1 15 3 4 13 6 14 -4 25 -5 11 21 -8 -2 -3 16 20 -7 -15 -14 -1 -11 -17 24 26 -9 -16 -12 -29 -30
right_child=2 5 7 9 -6 17 12 8 -10 10 27 -13 19 18 23 22 -18 -19 -20 -21 -22 -23 -24 -25 -26 -27 -28 28 29 -31
leaf_value=0.022230533384325901 -0.014924044262505596 0.00067775807593507798 -0.02540989678170566 0.0050228602621674306 -0.019135449345807028 0.014356743707166334 -0.0096200499725575955 -0.017173194321599038 -0.019144433446838673 -0.012813416372522805 0.0054503795594803483 -0.01570485780287844 0.0021423212885419529 -0.0056742413996978538 -0.016422562985460212 0.012980985989086081 0.035580768693326159 0.0057988401472205964 0.010535134146515249 -0.007455961121364727 0.012752920484206221 -0.0023566262262606661 -0.00025235744922975342 0.0056326783233651744 0.0047854727429109912 -0.00040710783626929495 0.022049638673130732 -0.0081558277437496739 0.0027347838720284713 0.057623572184025577
leaf_weight=855.26042839884758 1011.441841930151 2515.0051446557045 1136.34750418365 1957.1225997209549 1582.055908575654 1402.475298166275 1435.9926036149263 206.68588568270206 1183.2650658637285 567.56347866356373 1648.3900998979807 824.6709650605917 2698.2954870909452 3867.025342091918 31.081082105636597 569.8823025226593 206.06438091397285 3301.2259437441826 261.43281352519989 941.32226999104023 3325.8133893013 2937.2463766336441 557.22038888931274 2496.0683094263077 419.03992906212807 870.25482223927975 576.26841607689857 692.06166677176952 561.44118367135525 21.747140854597092
leaf_count=2937 4102 9376 4847 7332 6555 5037 5618 824 4929 2202 6218 3396 10291 14933 113 2049 725 12266 1001 3584 11897 11313 2002 9121 1531 3398 2088 2757 2145 83
internal_value=-2.34261e-05 0.006106 -0.00678805 -0.00475436 -0.00960484 0.00342728 0.00134242 -0.0163256 -0.0117552 -0.00121371 -0.00289726 -0.00627286 -0.00296582 -0.00667004 0.00496511 0.0137884 0.0156763 0.00835181 -0.00464635 -0.000338866 0.0146933 -0.00405173 0.00643477 0.00802472 0.0138359 -0.00363078 0.0200702 0.00209983 -0.00222727 0.00479969
internal_weight=40659.8 21331 19328.8 15932.2 6721.96 15816.8 11113.1 3396.55 2260.21 9210.24 7253.12 4329.48 5075.61 5139.9 6037.46 5514.24 4387.14 4703.7 4128.46 3639.62 4181.07 3504.81 1127.1 3522.46 1026.39 1076.94 607.349 2923.64 1275.25 583.188
internal_count=154670 78635 76035 62037 26591 59025 41722 13998 9151 35446 28114 16911 19493 20036 22229 19610 15559 17303 15934 13875 14834 13515 4051 12853 3732 4222 2201 11203 4985 2228
is_linear=0
shrinkage=0.05


Tree=16
num_leaves=31
num_cat=0
split_feature=6 6 21 6 21 21 6 6 21 6 6 21 21 6 6 6 6 21 21 21 6 21 7 21 12 6 6 2 21 22
split_gain=1911.91 389.464 399.859 323.527 285.701 265.212 193.861 177.033 127.537 174.624 109.819 98.1713 93.1799 78.548 76.8309 59.4713 58.4291 55.9462 52.0679 51.7316 64.2063 49.8923 47.6439 38.3488 34.4417 33.1999 32.6306 31.6459 30.3335 29.114
threshold=0.24510258436203006 0.38515383005142217 0.022748515009880069 0.1618265435099602 0.033218525350093848 0.019854166544973854 0.53688433766365062 0.20335869491100314 0.02860907465219498 0.3079648911952973 0.30315978825092321 0.048326566815376289 0.016633789986371997 0.73636570572853099 0.21052449196577075 0.46511334180831915 0.33687758445739752 0.01998630911111832 0.023652239702641967 0.017572953365743164 0.1243441440165043 0.027089473791420463 0.21281612664461139 0.034140029922127731 1.0780795216560366 0.17875541746616366 0.2701632976531983 -0.021622117608785626 0.019921052269637588 0.77785986661911022
decision_type=2 2 2 2 2 2 2 2 2 2 2 2 2 2 2 2 2 2 2 2 2 2 2 2 2 2 2 2 2 2
left_child=3 2 10 19 15 7 24 12 9 -4 17 27 -5 -13 -7 21 -10 -2 -16 20 -1 -3 -9 -18 -6 -14 -19 -8 -12 -11
right_child=1 4 8 5 6 14 11 22 16 29 28 13 25 -15 18 -17 23 26 -20 -21 -22 -23 -24 -25 -26 -27 -28 -29 -30 -31
leaf_value=-0.025558603915928763 0.018506123466827364 0.034250220148908134 -0.0022122881679723775 -0.0011461311311460932 0.0040458612198649609 -0.021392442228311909 0.038461126164202192 0.010456329296319997 -0.012726610689118213 0.01421628156163913 0.038878030499656102 0.00030562611425134708 -0.017529981116257597 0.024355851367774028 -0.0071398542647566551 0.038749687132172313 0.0035265429308892586 0.0034339737646642875 -0.019148082712377765 -0.030764966100776465 -0.014094196082616375 0.018795640812179618 0.00084932985970465166 -0.01087782401926625 -0.014439885739373931 -0.0083663446699475379 0.013734692868135402 0.022950745640807277 0.022754880041209791 0.0024896824605888049
leaf_weight=1572.871202647686 1941.44596144557 828.5923258960247 5407.8056824803352 4336.4106859862804 2897.8629175126553 2317.3096359968185 634.33776608109474 2401.1886841654778 2201.0710854530334 2893.1421900093555 425.74108353257179 744.44762480258942 1493.7550419867039 624.68529888987541 3476.0705566108227 1087.2596464455128 1439.6929170191288 1849.574170768261 1220.7065481543541 715.74336484074593 5491.8111762404442 1421.3896589577198 2792.7050598263741 680.2195548415184 275.78225603699684 2934.5656334161758 1317.9099486172199 689.81984320282936 940.00741371512413 649.17815259099007
leaf_count=4225 5236 2280 14440 11567 7763 6195 1736 6422 5871 7782 1162 1998 3987 1701 9274 2998 3848 4942 3261 1918 14672 3841 7462 1815 737 7832 3532 1888 2542 1743
internal_value=-0.000106804 0.00896342 0.00500357 -0.00923929 0.0174578 -0.00600848 0.0108123 -0.00202233 3.33386e-05 0.00343944 0.0151901 0.0206784 -0.00635721 0.0112835 -0.0139404 0.0291386 -0.00702054 0.0118212 -0.0102622 -0.0179474 -0.0166476 0.0244905 0.00529182 -0.00109334 0.00243751 -0.0114589 0.00772172 0.0303871 0.027787 0.0120688
internal_weight=57703.1 28950 19745.8 28753.1 9204.18 20972.7 5866.94 13958.6 13271.1 8950.13 6474.68 2693.29 8764.73 1369.13 7014.09 3337.24 4320.98 5108.93 4696.78 7780.43 7064.68 2249.98 5193.89 2119.91 3173.65 4428.32 3167.48 1324.16 1365.75 3542.32
internal_count=154670 77855 52913 76815 24942 56000 15823 37270 35499 23965 17414 7323 23386 3699 18730 9119 11534 13710 12535 20815 18897 6121 13884 5663 8500 11819 8474 3624 3704 9525
is_linear=0
shrinkage=0.05


Tree=17
num_leaves=31
num_cat=0
split_feature=24 22 22 14 5 0 25 24 2 5 7 11 5 25 0 9 10 24 7 14 7 7 24 3 13 14 25 0 7 5
split_gain=340.098 115.695 99.0034 57.8306 41.6497 41.0219 47.4181 36.443 32.3039 33.4775 29.5162 28.019 26.1427 25.5869 29.662 23.8296 22.2573 21.1716 20.7997 20.6513 20.1685 18.988 19.7342 19.9338 18.8474 16.6312 15.8597 38.5609 16.9308 15.1756
threshold=0.13079543411731723 0.59939828515052807 -0.010377760976552962 38.386493682861335 0.40782664716243749 -0.0099761285819113237 0.011255891993641855 0.084552694112062468 -0.085743062198162065 0.4796887487173081 0.35157503187656408 0.66595965623855602 0.68044885993003856 0.016586672514677051 0.0029223544988781218 0.98571953177452099 0.92682769894599926 0.1475581228733063 0.39806985855102545 39.563457489013679 0.33640827238559728 0.44405443966388708 0.24754519015550616 0.086414299905300154 0.97621455788612377 33.859083175659187 0.014580462127923967 -0.00017699275485938412 0.34554764628410345 0.11719791963696481
decision_type=2 2 2 2 2 2 2 2 2 2 2 2 2 2 2 2 2 2 2 2 2 2 2 2 2 2 2 2 2 2
left_child=2 3 7 5 10 6 -2 20 13 -10 15 16 17 -3 -15 -4 -5 -13 19 -9 24 -19 23 -23 -1 29 28 -28 -7 -17
right_child=1 8 4 11 -6 26 -8 18 9 -11 -12 12 -14 14 -16 25 -18 21 -20 -21 -22 22 -24 -25 -26 -27 27 -29 -30 -31
leaf_value=-0.0029422374359049804 0.003747006833478075 0.0067579287973673274 0.0036795958383042228 -0.0016322863236548722 -0.0042607638657669832 -0.0043216490335548285 0.050125900284630112 0.0048002506618761986 0.002577823302116109 -0.010616698086054394 0.017093694036395976 -0.0061897013047686597 -0.022164971273516597 0.065903670245551313 0.0091423482377501822 0.034375707996607295 0.034063101282588007 -0.013408426367648739 0.0084042238112459668 -0.0026410713584908404 0.015292591117210368 -0.0076336567698192291 -0.014602055412624576 0.0076761050634052523 0.0040347075884569674 0.0078897836035369175 0.06508012277730707 -0.0038773193447807263 -0.016099194466958826 0.01291589184287535
leaf_weight=1157.2377847135067 888.02028678357601 1034.0871746242046 3857.8866353034973 340.52591812610626 805.41339346766472 946.02844062447548 58.69518706202507 1055.1230736672878 1645.0265491306782 678.96892765164375 749.59425604343414 2451.600282818079 474.94954541325569 41.011439621448517 52.92692756652832 103.45049116015434 49.963347971439362 4337.1835636943579 531.44548800587654 7984.9769401550293 343.86001247167587 644.53892233967781 530.59755788743496 316.91079768538475 5894.1941848993301 6344.479513913393 25.60466730594635 95.396423190832138 451.69702208042145 413.6047797203064
leaf_count=3983 3119 3581 13219 1227 2864 3334 198 3616 5772 2467 2555 8729 1778 133 188 343 175 15823 1841 28025 1174 2339 1968 1145 20120 21511 87 336 1633 1387
internal_value=0.000160713 -0.00594263 0.00330505 -0.00833188 0.00672564 -0.00153307 0.00663271 0.000830146 0.00209278 -0.00127517 0.00749763 -0.010164 -0.0107485 0.00903547 0.03402 0.00682597 0.00292971 -0.0100929 -0.00120633 -0.00177195 0.00346657 -0.0117334 -0.00686046 -0.00258182 0.00288896 0.00859421 -0.0066267 0.010715 -0.0081322 0.017225
internal_weight=44305 15063.7 29241.3 11611.7 12274.4 2465.44 946.715 16966.8 3452.02 2324 11469 9146.27 8755.78 1128.03 93.9384 10719.4 390.489 8280.83 9571.55 9040.1 7395.29 5829.23 1492.05 961.45 7051.43 6861.53 1518.73 121.001 1397.73 517.055
internal_count=154670 54032 100638 41891 41879 8707 3317 58759 12141 8239 39015 33184 31782 3902 321 36460 1402 30004 33482 31641 25277 21275 5452 3484 24103 23241 5390 423 4967 1730
is_linear=0
shrinkage=0.05


Tree=18
num_leaves=31
num_cat=0
split_feature=24 24 5 24 5 22 21 1 22 21 10 5 16 5 19 1 1 24 21 22 16 24 21 19 22 7 3 7 3 7
split_gain=363.638 96.1139 71.1386 42.0621 33.7243 42.7249 30.4076 33.6232 30.0199 25.7165 22.052 21.0811 20.8269 19.0448 19.5086 18.5814 15.9137 15.8681 21.144 25.5863 15.9817 14.1128 13.7048 13.2575 13.1209 12.5774 12.4982 12.2894 12.1135 18.1953
threshold=0.10739884153008462 0.186033770442009 0.16705161333084109 0.081685207784175887 0.53653013706207286 0.42134957015514379 0.025799890048801902 0.010329832788556816 0.79832530021667492 0.024666036479175094 0.87625139951705944 1.0284314155578616 1.4517502188682558 0.30433811247348791 115.70067596435548 0.03718570992350579 0.03718570992350579 0.072855945676565184 0.018638675101101402 0.54697507619857799 -8.0372428894042951 0.1386017128825188 0.035920549184083946 126.14437484741212 0.45173677802085882 0.27224092185497289 -0.15767133980989453 0.34361706674098974 -0.050582787021994584 0.22523552179336551
decision_type=2 2 2 2 2 2 2 2 2 2 2 2 2 2 2 2 2 2 2 2 2 2 2 2 2 2 2 2 2 2
left_child=2 4 3 8 5 9 24 11 28 10 -2 -8 -9 17 25 -5 -11 27 -19 20 -20 -12 -6 -16 -3 26 -15 -4 29 -1
right_child=1 6 13 15 22 -7 7 12 -10 16 21 -13 -14 14 23 -17 -18 18 19 -21 -22 -23 -24 -25 -26 -27 -28 -29 -30 -31
leaf_value=0.021526526599983151 0.010615249554664398 -0.024657555572046169 0.0067937439688527061 0.0048179325012522234 -0.016484830606619559 0.0024713129631729119 -0.0045089968448677161 -0.018198333559408426 0.018225051872046878 0.00046818290963106832 -0.0048356741485870644 -0.022988569627816233 -0.0072576856158406734 0.035064671570361639 0.019641318490233473 -0.0068809686197807366 -0.0069432988290564482 -0.0023998412532843616 0.033614121716625769 0.011430636315680153 0.0010208278051896458 -0.010210164253109539 -0.0027196063231292836 0.00070217042373595996 -0.0067495647308306933 -0.00056184550934724466 -0.012533781437689337 -0.010107079321259815 0.0078274720239253689 0.0046659932443877282
leaf_weight=416.40949925780296 194.24812698364258 493.04166468977928 2647.4804850518703 3209.26266951859 599.62183095514774 3729.276431247592 2582.2884296178818 1216.4076330214739 1024.9493288099766 3741.0679466426373 3949.4268289059401 164.2355732023716 680.31173653900623 13.955001235008238 101.91144232451916 379.13826157152653 897.7789458334446 2168.9917061030865 38.062935218214989 850.02231937646866 2665.8364594578743 1773.2706452906132 260.26976120471954 988.86740499734879 130.21045143902302 450.09448672831059 625.89291974902153 111.79763332009315 4268.2701588869095 261.34454593062401
leaf_count=1508 754 2043 9743 11922 2425 14186 10238 4977 3680 14443 15175 706 2788 53 389 1424 3512 8173 141 3164 10028 6976 1017 3798 518 1715 2403 413 15410 948
internal_value=-2.32596e-05 -0.0047314 0.00472868 0.00786089 -0.00270766 -0.00212831 -0.01055 -0.00915578 0.0104325 -0.0037538 -0.00593911 -0.00561665 -0.0142774 0.00192011 -0.00224599 0.00358032 -0.000965239 0.00299179 0.00148894 0.00386371 0.00148272 -0.00650207 -0.012325 0.00247788 -0.0209259 -0.00697786 -0.0114825 0.00610682 0.00881629 0.0150341
internal_weight=40633.7 20411.5 20222.3 9559.37 15145 14285.1 5266.5 4643.24 5970.97 10555.8 5916.95 2746.52 1896.72 10662.9 2180.72 3588.4 4638.85 8482.19 5722.91 3553.92 2703.9 5722.7 859.892 1090.78 623.252 1089.94 639.848 2759.28 4946.02 677.754
internal_count=154670 79758 74912 34892 58488 55046 21270 18709 21546 40860 22905 10944 7765 40020 8358 13346 17955 31662 21506 13333 10169 22151 3442 4187 2561 4171 2456 10156 17866 2456
is_linear=0
shrinkage=0.05


Tree=19
num_leaves=31
num_cat=0
split_feature=6 6 21 6 21 21 6 6 21 6 6 21 6 21 21 6 6 6 21 6 21 21 7 21 21 21 2 6 7 22
split_gain=1726.76 353.397 369.278 295.003 266.816 265.994 177.999 127.907 117.315 159.373 101.214 92.4479 73.2471 71.3098 68.1952 81.0413 64.7326 55.4812 55.0629 54.1487 48.7579 47.0986 43.8012 37.5287 35.1965 30.5993 30.1471 29.8949 30.5353 26.7604
threshold=0.24510258436203006 0.38515383005142217 0.022748515009880069 0.16874659806489947 0.019854166544973854 0.033218525350093848 0.53688433766365062 0.20335869491100314 0.02860907465219498 0.3079648911952973 0.27703341841697698 0.048326566815376289 0.73636570572853099 0.016633789986371997 0.017822938039898876 0.13779038935899737 0.21052449196577075 0.46511334180831915 0.020451761782169346 0.33687758445739752 0.024096149019896988 0.027089473791420463 0.21281612664461139 0.015717686153948311 0.034140029922127731 0.037203684449195869 -0.021622117608785626 0.31103736162185674 0.24955201148986819 0.77785986661911022
decision_type=2 2 2 2 2 2 2 2 2 2 2 2 2 2 2 2 2 2 2 2 2 2 2 2 2 2 2 2 2 2
left_child=3 2 10 14 7 17 25 13 9 -4 18 26 -13 -5 15 -1 -6 21 -2 -10 -18 -3 -9 -17 -21 -7 -8 28 -12 -11
right_child=1 5 8 4 16 6 11 22 19 29 27 12 -14 -15 -16 23 20 -19 -20 24 -22 -23 -24 -25 -26 -27 -28 -29 -30 -31
leaf_value=-0.021037491308019365 0.015474157286633787 0.032996308114909695 -0.0021493214699790397 0.00019184064477840095 -0.02017365995987375 0.0083758165389424717 0.037096588195375951 0.010055231361575063 -0.012280198638500536 0.013562841639390333 0.024341973517552677 0 0.023264059815247821 -0.009748978442822475 -0.028791265586240858 -0.0079262331089557502 -0.0071291352461663633 0.037298746621746939 0.0032821607261366635 0.0033469390578560309 -0.019506247722214126 0.017930047610875976 0.00084196358404221633 -0.016894141334446788 -0.010452703527942316 -0.0017011176144924409 0.021902797882413953 0.028326620064214145 0.010802838470500009 0.0023157335896124686
leaf_weight=3118.2740214765072 1791.1095021665096 821.45724955201149 5407.779846996069 3339.3341188132763 2221.2542327642441 1230.4515149593353 628.91706696152687 2399.5907493233681 2200.636736035347 2887.5404327809811 841.65165081620216 743.78882175683975 621.14873108267784 3921.2511082291603 948.38038095831871 3556.0786669254303 3679.172839730978 1075.5328204035759 1920.1983042359352 1439.299035012722 1016.3027455806732 1416.5838753581047 2792.5870901346207 1739.3523767590523 680.29970690608025 1941.1163582205772 685.78435137867928 1078.6924865543842 828.56427067518234 648.87490698695183
leaf_count=8378 4826 2280 14440 8908 5947 3306 1736 6422 5871 7782 2279 1998 1701 10469 2546 9498 9817 2998 5131 3848 2718 3841 7462 4650 1815 5194 1888 2946 2232 1743
internal_value=-0.000108177 0.00852361 0.00475366 -0.00878755 -0.00526479 0.0166367 0.0102249 -0.000890778 -2.041e-05 0.00324723 0.0145566 0.0197124 0.0105909 -0.00517631 -0.0160752 -0.014641 -0.0131388 0.0279567 0.00916773 -0.00678649 -0.0098095 0.0234635 0.005101 -0.0108731 -0.00108008 0.00220693 0.0291772 0.0218298 0.0176295 0.0115007
internal_weight=57621 28889.4 19724.6 28731.6 19369.5 9164.78 5851.21 12452.8 13264.4 8944.2 6460.22 2679.64 1364.94 7260.59 9362.09 8413.71 6916.73 3313.57 3711.31 4320.24 4695.48 2238.04 5192.18 5295.43 2119.6 3171.57 1314.7 2748.91 1670.22 3536.42
internal_count=154670 77855 52913 76815 51743 24942 15823 33261 35499 23965 17414 7323 3699 19377 25072 22526 18482 9119 9957 11534 12535 6121 13884 14148 5663 8500 3624 7457 4511 9525
is_linear=0
shrinkage=0.05


Tree=20
num_leaves=31
num_cat=0
split_feature=6 6 21 21 6 21 6 21 21 21 6 20 21 10 6 21 21 6 22 7 6 8 6 7 21 18 21 7 6 21
split_gain=593.742 151.276 187.708 129.263 95.6292 64.3095 83.1667 62.7001 54.2269 51.3888 50.8034 45.1049 37.5303 34.3976 32.5597 30.1552 29.6057 28.6413 28.5894 26.5757 32.7286 26.5021 25.2683 54.7372 26.7293 25.0721 23.7142 23.555 23.2022 26.4354
threshold=0.30949629843235021 0.22744774818420413 0.023741233162581924 0.027597033418715004 0.42572094500064855 0.019528013654053215 0.17786609381437304 0.03352146968245507 0.020451761782169346 0.035539830103516586 0.35558727383613592 0.0089769084006547945 0.019921052269637588 1.1921638846397402 0.33900032937526708 0.016313033178448681 0.026601596735417846 0.25383624434471136 0.084202382713556304 0.2143891975283623 0.14983280003070834 1.0105308294296267 0.62228697538375866 0.47551757097244268 0.048326566815376289 679.84423828125011 0.015439115464687349 0.35830351710319525 0.17518001794815066 0.022830502130091194
decision_type=2 2 2 2 2 2 2 2 2 2 2 2 2 2 2 2 2 2 2 2 2 2 2 2 2 2 2 2 2 2
left_child=1 5 8 10 9 6 15 -6 26 14 12 13 -2 -9 -5 19 -4 -10 -8 20 21 -1 23 -13 -24 -12 -3 -14 -7 -30
right_child=3 2 16 4 7 28 18 11 17 -11 25 22 27 -15 -16 -17 -18 -19 -20 -21 -22 -23 24 -25 -26 -27 -28 -29 29 -31
leaf_value=0.0067912544356219951 -0.033558784151863384 -0.029419721524013426 0.0038220839426174437 0.0041794453970418017 -0.023292019263671745 0.023807404380452812 -0.0019082526666047179 -0.0051201164450928724 0.0030375959943903423 0.0099515763305983024 -0.024773058395030578 -0.013268445949504624 -0.011795605754411383 0.029889739732874322 -0.0065818470328706351 0.013090898822555886 0.011745638459645678 -0.0051385584820939495 0.0049881889593357707 0.014085118286119858 0.00059821404846803386 0.021329957601809207 -0.025936008992507226 0.0027510969854541972 -0.0098120185572106028 0.0062016652679988344 -0.0092459512104525569 0.0049466438426721653 0.008495944774111407 0.018350896542015296
leaf_weight=2904.4128286838531 181.34770655632019 152.93406426906586 2729.6873762905598 1010.7026946544647 827.63204200565815 386.43120917677879 3957.4663714766502 150.20767259597778 1846.484300673008 938.72869697213173 1557.6355504244566 1270.0611403882504 1751.0027943253517 131.19105514883995 2304.4292032122612 2323.2262109220028 2078.7645474374294 2549.0499377548695 2422.2705515325069 973.25204727053642 2328.0973010957241 351.80834558606148 411.14844256639481 918.28500998020172 690.3451384305954 67.886249750852585 3151.3131161630154 238.21962970495224 2778.8666226863861 903.23009642958641
leaf_count=9643 706 560 9457 3471 3194 1267 13764 530 6368 3245 6109 4666 6361 444 8305 7714 7025 9019 8221 3252 7903 1153 1590 3329 2557 259 11400 860 9331 2967
internal_value=0.000162204 0.0037825 -0.000501565 -0.0090961 -0.00572042 0.00655506 0.0050653 -0.0108894 -0.00534227 -0.000373919 -0.0167889 -0.00801314 -0.0117777 0.0111889 -0.00329946 0.00819382 0.00724877 -0.00170278 0.000709455 0.00645794 0.00512752 0.00836419 -0.00965741 -0.00654414 -0.0158369 -0.0234761 -0.0101821 -0.00978797 0.0121415 0.0109152
internal_weight=44286.1 31837.3 12508.2 12448.8 8652.73 19329.1 15260.5 4398.87 7699.78 4253.86 3796.09 3571.24 2170.57 281.399 3315.13 8880.8 4808.45 4395.53 6379.74 6557.57 5584.32 3256.22 3289.84 2188.35 1101.49 1625.52 3304.25 1989.22 4068.53 3682.1
internal_count=154670 109044 43829 45626 31331 65215 51650 16310 27347 15021 14295 13116 7927 974 11776 29665 16482 15387 21985 21951 18699 10796 12142 7995 4147 6368 11960 7221 13565 12298
is_linear=0
shrinkage=0.05


Tree=21
num_leaves=31
num_cat=0
split_feature=24 24 24 21 1 22 8 7 21 11 21 3 10 1 14 24 22 18 7 7 10 11 14 7 16 21 21 23 8 7
split_gain=327.422 88.0891 62.9661 28.8994 31.5084 27.521 27.4015 22.4751 21.6327 20.8753 19.5385 17.5918 17.766 17.3861 17.3634 16.5306 16.4051 15.9725 18.8655 15.1017 14.242 14.1835 20.3648 15.1375 13.8984 13.6946 13.4796 15.8873 13.3372 13.2655
threshold=0.10739884153008462 0.186033770442009 0.07194112986326219 0.025799890048801902 0.010329832788556816 0.39101661741733557 0.99087834358215343 0.36975018680095678 0.020249447785317901 0.78743147850036632 0.011525655630975963 0.34432525932788854 1.0469207763671877 0.05968137830495835 79.983551025390639 0.23404626548290255 0.96087348461151134 555.27923583984386 0.42597390711307531 0.17353978753089908 1.0779311060905459 0.93411144614219677 44.083520889282234 0.17462363094091418 -8.0372428894042951 0.015227810945361854 0.031349046155810363 -0.97417899966239918 1.0265877246856692 0.16356191784143451
decision_type=2 2 2 2 2 2 2 2 2 2 2 2 2 2 2 2 2 2 2 2 2 2 2 2 2 2 2 2 2 2
left_child=2 5 7 -3 15 8 -4 11 14 -6 -8 12 21 26 -2 17 24 -5 20 -14 -19 22 23 -1 -12 -25 -10 -28 29 -26
right_child=1 3 6 4 9 -7 10 -9 13 -11 16 -13 19 -15 -16 -17 -18 18 -20 -21 -22 -23 -24 25 28 -27 27 -29 -30 -31
leaf_value=0.0093257372814867494 -0.0086357462582521052 -0.020316687693434268 -0.0012482169643413554 -0.0026771006056569521 -0.0051589083569984796 0.00084488546764777215 0.037295069344479306 -0.012228739605087816 -0.0029833626167121981 -0.016997409613045748 0.024112168646092384 0.063927828279006366 0.047860621149072295 -0.010185654191943521 0.017863283507140813 -0.00905620807948288 0.0085589869861689549 0.010007543940516702 -0.015648635906779194 0.015788994188360387 0.061014259912917181 0.0059307891785301409 0.0094594615215599243 0.063058617066295689 -0.0042025509097344425 0.025688859556897637 -0.0056009880097968139 0.0059156371517424637 -0.0084437031433078191 0.0035753353298414222
leaf_weight=77.84318345785141 2452.1905245631933 612.23667375743389 3693.479087382555 1230.6556353420019 515.20654962956905 4246.0987393707037 43.370143830776215 131.83171711862087 6220.6073035150766 1357.0153112113476 75.539886623620987 14.259722977876661 44.374324157834053 705.64876894652843 63.206560462713242 1418.88894957304 1454.9549195319414 26.691361337900162 24.888594388961792 218.47766223549843 28.68775899708271 3787.812023550272 2881.2458317428827 37.096592247486115 594.87510071694851 75.152934342622757 429.44801777601242 986.78261013329029 265.31782993674278 6897.1765798926353
leaf_count=276 9522 2561 13930 4838 2138 16232 148 486 24203 5627 276 52 159 2811 235 5787 5381 108 102 791 109 13679 10356 132 2154 273 1651 3834 1000 25819
internal_value=-1.51237e-05 -0.00450196 0.00447709 -0.0101054 -0.00874547 -0.00256712 0.00239597 0.00820578 -0.00390187 -0.0137428 0.00383894 0.00858415 0.00847174 -0.00267543 -0.00796721 -0.00531591 0.00368177 -0.00126338 0.0203259 0.0212384 0.0365828 0.00798147 0.0105086 0.0263712 0.0027751 0.0381286 -0.0019807 0.00241974 0.00256637 0.00295705
internal_weight=40611.1 20318.3 20292.8 5214.27 4602.03 15104 13024.7 7268.09 10857.9 1872.22 9331.23 7136.26 7122 8342.49 2515.4 2729.81 9287.86 1310.92 80.2677 262.852 55.3791 6859.15 3071.34 190.093 7832.91 112.25 7636.84 1416.23 7757.37 7492.05
internal_count=154670 79758 74912 21270 18709 58488 48708 26204 42256 7765 34778 25718 25666 32499 9757 10944 34630 5157 319 950 217 24716 11037 681 29249 405 29688 5485 28973 27973
is_linear=0
shrinkage=0.05


Tree=22
num_leaves=31
num_cat=0
split_feature=6 6 21 6 21 21 6 6 21 6 6 21 21 6 6 6 21 6 21 6 21 7 7 22 21 15 21 6 6 6
split_gain=1558.53 320.111 338.509 269.038 246.344 225.614 164.155 145.858 107.802 143.68 93.0963 86.2494 80.231 68.1878 64.2965 52.2987 50.5691 48.4973 45.0574 56.3892 44.9917 43.9047 40.9569 34.3476 31.9275 28.8063 28.4724 29.8848 28.3331 27.1881
threshold=0.24510258436203006 0.38515383005142217 0.022748515009880069 0.1618265435099602 0.033218525350093848 0.019854166544973854 0.53688433766365062 0.20335869491100314 0.02860907465219498 0.29259166121482855 0.27703341841697698 0.048326566815376289 0.016633789986371997 0.73636570572853099 0.21052449196577075 0.46511334180831915 0.020451761782169346 0.33687758445739752 0.017572953365743164 0.1243441440165043 0.023652239702641967 0.3248820453882218 0.21281612664461139 0.77785986661911022 0.034140029922127731 -0.50330364704132069 0.044590529054403312 0.41703101992607122 0.17875541746616366 0.31103736162185674
decision_type=2 2 2 2 2 2 2 2 2 2 2 2 2 2 2 2 2 2 2 2 2 2 2 2 2 2 2 2 2 2
left_child=3 2 10 18 15 7 26 12 9 -4 16 25 -5 -13 -7 21 -2 -10 19 -1 -16 -3 -9 -11 -19 -8 27 -6 -14 -12
right_child=1 4 8 5 6 14 11 22 17 23 29 13 28 -15 20 -17 -18 24 -20 -21 -22 -23 -24 -25 -26 -27 -28 -29 -30 -31
leaf_value=-0.023486736273774105 0.014802561691661428 0.030445760128123191 -0.00371689231957943 -0.00083751182387702182 -0.0049956010950207644 -0.019568351925610388 0.035663510084247944 0.0096978303204767139 -0.011740106982018311 0.011027130828672245 0.016904766879973658 -0.00018535649007377165 -0.016024326753190269 0.02228651269315296 -0.0064725726858321161 0.035926906211279669 0.0031110793272255957 0.0030789807142019205 -0.028322477331911539 -0.01271155987337552 -0.017644840498686538 0.016257401664509657 0.00078674961588583192 0.00015794750806848935 -0.010064607927023867 0.020761109528137325 -0.0087436619008393526 0.0071817962561066045 -0.0075528267608428474 0.027133507408397296
leaf_weight=1562.1808732450008 1787.1445953845978 966.57805782556534 4157.0908945202827 4336.2384782731533 675.57003727555275 2309.2730213999748 634.07822865247726 2397.9426429271698 2199.9269388914108 3885.0309937596321 1665.6224590539932 743.34610363841057 1491.006917655468 617.64296013116837 3475.5849738121033 1062.7374067604542 1919.7046039104462 1438.7176986932755 710.73807948827744 5479.6920393109322 1217.9457007944584 1257.743928194046 2792.2145815193653 895.27906009554863 680.34785553812981 670.29008910059929 517.16609469056129 1976.8187611699104 2933.3563092648983 1071.406077593565
leaf_count=4225 4826 2678 11094 11567 1807 6195 1766 6422 5871 10468 4511 1998 3987 1701 9274 2998 5131 3848 1918 14672 3261 3443 7462 2403 1815 1858 1382 5311 7832 2946
internal_value=-0.000111355 0.00810169 0.00451567 -0.00835778 0.0158455 -0.00541306 0.0096768 -0.00173673 -5.35934e-05 0.00308044 0.0139162 0.0188221 -0.0056721 0.01001 -0.0127361 0.0267936 0.00874937 -0.00654001 -0.0163159 -0.015103 -0.00937309 0.0224263 0.00490489 0.00899259 -0.00113882 0.0280115 0.00198433 0.00407823 -0.0104091 0.0209115
internal_weight=57528.4 28822.2 19700.3 28706.2 9121.97 20953.6 5834.91 13950.8 13256.4 8937.4 6443.88 2665.36 8760.6 1360.99 7002.8 3287.06 3706.85 4318.99 7752.61 7041.87 4693.53 2224.32 5190.16 4780.31 2119.07 1304.37 3169.55 2652.39 4424.36 2737.03
internal_count=154670 77855 52913 76815 24942 56000 15823 37270 35499 23965 17414 7323 23386 3699 18730 9119 9957 11534 20815 18897 12535 6121 13884 12871 5663 3624 8500 7118 11819 7457
is_linear=0
shrinkage=0.05


Tree=23
num_leaves=31
num_cat=0
split_feature=6 6 21 21 6 21 21 6 21 6 21 20 21 25 6 21 6 6 6 2 21 6 22 7 6 24 0 7 6 21
split_gain=529.495 153.529 169.98 130.841 63.9854 57.6122 55.9214 72.2198 53.6993 50.3206 49.799 46.875 34.2031 32.8065 31.112 30.4115 31.2563 29.7934 28.4167 28.2126 27.2906 28.1727 26.6847 24.1184 23.4622 22.8704 21.3954 20.7315 20.2869 23.6674
threshold=0.32510176301002508 0.22744774818420413 0.023741233162581924 0.027597033418715004 0.42572094500064855 0.039904030039906509 0.019528013654053215 0.17786609381437304 0.020451761782169346 0.53688433766365062 0.035539830103516586 0.11007921025156976 0.022054441273212436 0.01513487519696355 0.43051967024803167 0.02860907465219498 0.29259166121482855 0.2701632976531983 0.25383624434471136 0.13239435106515887 0.015368151012808086 0.13779038935899737 0.084202382713556304 0.2160032317042351 0.97042575478553783 0.13351400196552279 0.0037505327491089706 0.38124117255210882 0.17518001794815066 0.022830502130091194
decision_type=2 2 2 2 2 2 2 2 2 2 2 2 2 2 2 2 2 2 2 2 2 2 2 2 2 2 2 2 2 2
left_child=1 6 8 12 10 9 7 20 17 19 -5 13 -2 -7 -14 16 25 -3 -10 -6 21 -1 -9 -23 -13 -4 -15 -22 -8 -30
right_child=3 2 15 4 5 11 28 22 18 -11 -12 24 14 26 -16 -17 -18 -19 -20 -21 27 23 -24 -25 -26 -27 -28 -29 29 -31
leaf_value=0.0095884476787481791 -0.029595698079598359 -0.0077415018383496549 0.0098805328969761644 -0.0047092062763859051 -0.015078515426483634 0.0045816403567287851 0.022140055812755216 -0.0018444058442789405 0.0028273939040081748 -0.029496027740415289 0.0088215672552480577 -0.0068734086845886368 -0.013295365600855938 0.065560746652827823 -0.029402794407451069 0.011969748402958528 -0.0020550018770406765 -0.019029325084180343 -0.0051365157131628009 0.0026844601551639976 0.010449082639846534 0.00050179673408795448 0.0048150107171729614 0.014233350568189383 -0.029125103441238268 0.0006628220038630881 -0.0020489410567968136 0.039716296075702991 0.0078929274659467526 0.017166274430534294
leaf_weight=2227.5331165492535 587.17442482709885 2630.336880505085 1931.8286221325397 2771.0523829758167 1177.4093517065048 365.47182434797287 392.82497152686119 3953.5417075157166 1851.7626026272774 548.50246132910252 900.90787196159363 1801.29214887321 1808.1446754783392 39.550020575523376 360.2952678501606 1449.912413328886 1569.6611425578594 752.9747843593359 2832.6257227063179 275.3194428384304 3643.2960556745529 2642.0298314094543 2427.6518039703369 363.86271902918816 126.91050922870636 1034.4751951396465 16.391718447208405 61.575537115335464 2799.2404391169548 914.46510919928551
leaf_count=7315 2349 9489 6575 9953 4407 1279 1267 13764 6368 2234 3100 6684 6908 126 1476 4837 5552 2904 10094 1025 12055 8883 8221 1213 498 3540 57 199 9331 2967
internal_value=0.000158734 0.00326192 -0.000718587 -0.00947977 -0.00625013 -0.0103524 0.00614183 0.00475228 -0.00545544 -0.0165876 -0.00138795 -0.00503903 -0.0188803 0.0100604 -0.0159752 0.00566485 0.00364818 -0.0102556 -0.00198728 -0.0117087 0.00765299 0.00532638 0.000688345 0.00216608 -0.008342 0.00666774 0.0456926 0.0109379 0.0113241 0.0101781
internal_weight=44258 33479.6 14053.6 10778.4 8022.81 4350.85 19426 15319.5 8067.7 2001.23 3671.96 2349.62 2755.61 421.414 2168.44 5985.88 4535.96 3383.31 4684.39 1452.73 8938.3 5233.43 6381.19 3005.89 1928.2 2966.3 55.9417 3704.87 4106.53 3713.71
internal_count=154670 114574 49359 40096 29363 16310 65215 51650 28855 7666 13053 8644 10733 1462 8384 20504 15667 12393 16462 5432 29665 17411 21985 10096 7182 10115 183 12254 13565 12298
is_linear=0
shrinkage=0.05


Tree=24
num_leaves=31
num_cat=0
split_feature=6 6 6 21 21 6 21 21 6 6 6 21 6 21 5 21 6 17 6 6 11 14 24 19 21 19 22 6 24 16
split_gain=507.369 131.381 123.573 89.9049 54.1658 54.2155 43.9371 37.8286 67.3182 37.3414 29.6917 37.62 29.2827 26.0986 25.6562 29.3602 21.8773 21.4637 20.4044 18.9149 17.8643 19.9229 17.0495 17.0126 15.6788 15.4936 15.4638 16.0622 14.7104 14.5253
threshold=0.24802147597074511 0.15973301976919177 0.48481747508049017 0.021613784134387973 0.020320012234151367 0.19721376150846484 0.037203684449195869 0.02816495951265097 0.31789369881153112 0.58846753835678112 0.39829252660274511 0.037203684449195869 0.31103736162185674 0.016183149069547657 0.17006165534257892 0.018268262967467312 0.21052449196577075 0.026515824720263485 0.3883699923753739 0.11895944178104402 0.89990055561065685 63.514324188232429 0.064767692238092436 477.58062744140631 0.025799890048801902 79.25528717041017 1.0661617517471316 0.27703341841697698 0.070489309728145613 3.0282646417617802
decision_type=2 2 2 2 2 2 2 2 2 2 2 2 2 2 2 2 2 2 2 2 2 2 2 2 2 2 2 2 2 2
left_child=1 14 3 12 5 13 -4 8 26 25 -9 -12 23 -3 15 19 -6 -13 24 -1 21 -15 -16 -2 -10 -8 27 -5 -23 -11
right_child=2 4 6 7 16 -7 9 10 18 29 11 17 -14 20 22 -17 -18 -19 -20 -21 -22 28 -24 -25 -26 -27 -28 -29 -30 -31
leaf_value=0.019109873262002908 -0.010901905905587185 0.00029477650304634434 -0.025294610304325532 0.00059324279999062009 0.012543096511139924 -0.002815224284190304 -0.012644463324761906 0.0030809828724015836 -0.013252713765163904 -0.020610230563046707 -0.0099464242337436708 -0.0021616050078273399 -0.022418815943814892 0.018138508571454385 0.011773988220956615 0.031570190572099373 0.0051527163614574732 0.015052613004968289 -0.020041783289897717 0.010890445847352489 0.0046586232432823957 0.040012519763055615 -0.00045447484001725005 0.0060117603537550475 -0.0041779994175272939 0.0013173601475161417 0.0049133438655722013 -0.0056181463197644945 0.0016274907215361155 -0.0070020758209341401
leaf_weight=884.28397524356842 2195.0934539437294 2530.1992353796959 829.54229272902012 1940.6134040653706 1434.4669172763824 5061.264249175787 310.85317835211754 3812.9543599188328 1058.6055859774351 877.26124180853367 1215.6418789625168 495.5990546643734 567.72696956992149 621.25150293111801 522.60153287649155 214.2002087533474 3332.1449075341225 284.87080559134483 557.23242971301079 3404.7787583172321 2530.8622350394726 26.566839605569839 625.24404525756836 159.02052429318428 868.67618378996849 548.94063200056553 784.55949878692627 2241.2539884448051 396.89126199483871 254.28950998187065
leaf_count=2937 8878 9376 3779 7375 5037 19493 1252 14317 4409 3829 5036 1905 2492 2201 1834 725 12266 1089 2497 11897 9121 95 2217 634 3472 2204 3004 8763 1436 1100
internal_value=-5.7511e-06 0.00523941 -0.00596387 -0.00427993 0.00291584 0.00101067 -0.0156214 -0.00252994 -0.00488805 -0.0115883 0.000493827 -0.00444554 -0.0122197 0.00418289 0.0117898 0.0134914 0.00737805 0.00411629 -0.0116076 0.0125866 0.00693277 0.0124362 0.0051092 -0.00975706 -0.00916553 -0.00372552 -0.00152534 -0.00273458 0.00405637 -0.0175574
internal_weight=40587.5 21584.8 19002.7 16181.8 15933.6 11167 2820.89 13260 7450.94 1991.34 5809.07 1996.11 2921.84 6105.77 5651.11 4503.26 4766.61 780.47 2484.51 4289.06 3575.57 1044.71 1147.85 2354.11 1927.28 859.794 4966.43 4181.87 423.458 1131.55
internal_count=154670 78635 76035 63871 59025 41722 12164 51867 29520 8385 22347 8030 12004 22229 19610 15559 17303 2994 10378 14834 12853 3732 4051 9512 7881 3456 19142 16138 1531 4929
is_linear=0
shrinkage=0.05


Tree=25
num_leaves=31
num_cat=0
split_feature=6 6 21 6 21 21 6 6 6 6 21 21 21 21 6 6 6 21 21 6 21 21 21 7 21 21 12 2 6 13
split_gain=1408.3 306.194 309.15 233.005 230.125 203.424 153.78 119.465 116.537 96.1251 107.673 78.8746 78.435 74.9672 64.4823 53.8177 52.0553 47.5623 43.0219 63.7622 39.9016 38.0598 37.7527 34.6053 33.2159 32.6359 28.2732 27.8328 27.0429 25.8579
threshold=0.2412950471043587 0.38515383005142217 0.023741233162581924 0.1618265435099602 0.03352146968245507 0.019854166544973854 0.53688433766365062 0.3079648911952973 0.20335869491100314 0.29711329936981207 0.032639628276228912 0.048326566815376289 0.020451761782169346 0.016633789986371997 0.85834822058677684 0.44640314579010015 0.21052449196577075 0.027089473791420463 0.015717686153948311 0.13779038935899737 0.027597033418715004 0.025261589325964454 0.028019499965012077 0.2167838513851166 0.019921052269637588 0.015922632068395618 1.0780795216560366 0.021955448202788833 0.27703341841697698 1.1862118840217593
decision_type=2 2 2 2 2 2 2 2 2 2 2 2 2 2 2 2 2 2 2 2 2 2 2 2 2 2 2 2 2 2
left_child=3 2 7 18 15 8 26 12 13 20 22 27 25 -5 29 17 -7 -3 19 -1 -4 -18 -11 -10 -9 -2 -6 -8 -14 -13
right_child=1 4 9 5 6 16 11 24 23 10 -12 14 28 -15 -16 -17 21 -19 -20 -21 -22 -23 -24 -25 -26 -27 -28 -29 -30 -31
leaf_value=-0.01864355203240094 0.034742936430420722 0.030513881681751249 -0.0040752654097491407 -0.00068957102550603819 0.0028555557151855849 -0.018735351471600378 0.033107925596306646 0.036825771642957902 0.0083747091443374909 0.008707258984577684 -0.010212830351354457 0.005605503843169591 0.0015893692590372892 -0.0099433802010972239 0.028371795993966553 0.033083564208938078 -0.0075206838451530008 0.014478097507383601 -0.021690500695675061 -0.0080021985326875784 -0.014611567239963576 -0.02222340379180621 0.00061950763993732106 -4.7135373921841307e-05 0.019558120126931821 0.013474334857710345 -0.014001238970231828 0.018102318734580666 0.00989367824468914 -0.022808150419935461
leaf_weight=2805.1728662848473 194.18417328596115 721.87274238467216 3151.8022889494896 4336.0742389559746 2789.6177507638931 2304.3172873556614 735.54516690969467 358.67768105864525 2507.4940445125103 3356.7491462528706 1396.1358404457569 931.40508130192757 3033.3826889097691 4421.6747671067715 337.829430103302 1370.41300329566 3581.150869846344 1293.396198362112 2100.4186542332172 2830.8556846678257 1258.1408119499683 502.35412746667862 2533.1352288424969 2372.6846682429314 1264.0615724027157 2594.0899550318718 272.94608590006828 537.25886368751526 1449.7935280799866 87.456451773643494
leaf_count=7579 531 2042 8410 11567 7486 6195 2067 1005 6715 9058 3727 2524 8105 11819 940 3893 9563 3526 5660 7576 3361 1350 6770 6338 3464 7037 730 1499 3898 235
internal_value=-0.000114635 0.00745937 0.00408626 -0.00820873 0.0151096 -0.00536121 0.00896822 0.011112 -0.00191186 -0.00125606 0.0022699 0.0178375 0.00837319 -0.00536233 0.00944303 0.0254325 -0.0127246 0.0202259 -0.0155787 -0.0132998 -0.00708263 -0.00933114 0.00522978 0.00427917 0.0233799 0.0149585 0.00135118 0.0267798 0.00427614 0.00315964
internal_weight=57430.1 29667.9 20590.2 27762.2 9077.74 20025.8 5692.06 8894.19 13637.9 11696 7286.02 2629.49 7271.45 8757.75 1356.69 3385.68 6387.82 2015.27 7736.45 5636.03 4409.94 4083.5 5889.88 4880.18 1622.74 2788.27 3062.56 1272.8 4483.18 1018.86
internal_count=154670 80308 55366 74362 24942 53547 15481 24040 36439 31326 19555 7265 19571 23386 3699 9461 17108 5568 20815 15155 11771 10913 15828 13053 4469 7568 8216 3566 12003 2759
is_linear=0
shrinkage=0.05


Tree=26
num_leaves=31
num_cat=0
split_feature=24 22 22 8 25 2 8 7 2 20 5 25 0 24 20 5 0 22 16 20 7 5 16 7 17 19 18 18 17 18
split_gain=252.428 101.444 81.8857 58.6942 54.4386 37.0742 34.8624 34.9949 28.1468 27.7388 27.2609 24.6519 30.8033 23.6866 23.4487 22.8507 19.5638 18.6082 17.6292 25.5568 20.5118 16.9184 16.3256 14.9553 15.3812 14.6938 16.4758 14.3189 14.1532 13.9413
threshold=0.12949347496032718 0.45173677802085882 0.43563851714134222 1.004728436470032 0.017486937344074253 -0.091852020472288118 0.99717465043067943 0.40071669220924383 -0.085743062198162065 0.0089769084006547945 0.4796887487173081 0.013080837670713665 0.0029223544988781218 0.081685207784175887 -0.072938583791255937 0.40782664716243749 -0.0099761285819113237 -1.3964352011680601 -0.74205899238586415 0.29572489857673651 0.45612466335296636 0.24079047888517383 11.761393547058107 0.34742164611816412 0.15330081433057788 737.62341308593761 203.664909362793 176.38589477539065 -2.6839536428451534 15.636008739471437
decision_type=2 2 2 2 2 2 2 2 2 2 2 2 2 2 2 2 2 2 2 2 2 2 2 2 2 2 2 2 2 2
left_child=2 3 6 18 5 16 7 13 11 -6 22 28 -13 17 -8 23 -5 -1 19 -2 25 -16 -10 24 -4 26 -20 -9 -3 -23
right_child=1 8 15 4 9 -7 14 27 10 -11 -12 12 -14 -15 21 -17 -18 -19 20 -21 -22 29 -24 -25 -26 -27 -28 -29 -30 -31
leaf_value=-0.014511934344537143 -0.0058949857586551536 -0.0059633453616014069 0.0089341980445106581 0.008533886918511523 0.084097393864464631 -0.0072224430816900977 0.018607199517000152 0.020870823342984797 0.00084454182299382476 0.01928073064361864 -0.00923830025756321 0.053766179316573959 0.0072550326168580592 -0.0036476391263404839 0.0038969121537736125 -0.0024801751032141532 -0.0036409109740575471 0.0023211348747847103 -0.0084388637976798037 -0.016734047929343424 -0.0014411316923200294 0.033806134237970922 0.021175622358142264 0.016234764048697361 0.0039558006320891386 0.013755583360215207 -0.016310438019351 0.00033444595658935341 0.0080433824318871684 -0.00099958013173755524
leaf_weight=172.12165409326553 770.6449276804924 223.40632228553295 4704.2292895466089 723.5675540715456 19.473721653223038 2689.4639652520418 239.04623952507973 250.3400469571352 1890.6541088223457 108.99832619726658 756.07146728038788 62.231310695409775 83.770042464137077 5567.4950444698334 8353.8079755008221 571.10565207898617 605.755066588521 3491.312389716506 2529.1247617900372 1862.2953280806541 858.22487570345402 28.973316431045532 104.13153770565987 501.69190758466721 2321.9099820405245 63.253197014331818 905.12345550954342 129.15559732913971 927.15250898897648 2711.9936613291502
leaf_count=585 2780 778 15691 2565 61 9831 796 854 6659 385 2817 198 299 19558 28473 2051 2178 11865 9316 7021 3178 100 373 1677 7861 234 3391 445 3198 9452
internal_value=0.00015425 -0.00507001 0.00288559 -0.00753398 -0.00282006 -0.00384569 0.00123434 -0.000980559 0.00170807 0.0292023 -0.00115296 0.00778168 0.0271373 -0.00159287 0.00311288 0.00715512 0.00298237 0.00152852 -0.0103306 -0.0135638 -0.00837473 0.00277843 0.00190938 0.0078868 0.00728979 -0.0100746 -0.0105154 0.0138967 0.00531904 -0.000628623
internal_weight=44226.5 15183.3 29043.2 11135.9 4147.26 4018.79 20944.2 9610.42 4047.42 128.472 2750.86 1296.56 146.001 9230.93 11333.8 8098.94 1329.32 3663.43 6988.67 2632.94 4355.73 11094.8 1994.79 7527.83 7026.14 3497.5 3434.25 379.496 1150.56 2740.97
internal_count=154670 55262 99408 40940 15020 14574 72128 33307 14322 446 9849 4473 497 32008 38821 27280 4743 12450 25920 9801 16119 38025 7032 25229 23552 12941 12707 1299 3976 9552
is_linear=0
shrinkage=0.05


Tree=27
num_leaves=31
num_cat=0
split_feature=6 6 6 21 6 7 6 21 6 6 21 6 6 21 21 5 18 21 3 6 21 7 6 5 21 15 18 21 6 3
split_gain=451.023 116.577 112.734 83.2342 63.2848 56.3393 35.8438 33.7796 36.5737 33.1124 37.0357 36.1208 30.0795 30.0163 25.6598 23.6366 22.5071 22.2772 20.2494 19.7734 31.1577 18.6074 18.0662 16.8694 15.4446 14.8885 14.8352 15.6604 14.7332 14.6815
threshold=0.24894213676452639 0.15973301976919177 0.49891994893550878 0.02476119622588158 0.31269557774066931 0.19585162401199344 0.19460131227970126 0.042725047096610076 0.73636570572853099 0.29259166121482855 0.031349046155810363 0.3883699923753739 0.19721376150846484 0.020650433376431469 0.0195932611823082 0.13286472856998446 520.37631225585949 0.019014344550669197 -0.17032021284103391 0.41703101992607122 0.037203684449195869 0.2731968760490418 0.36310379207134252 0.43312291800975805 0.0185134606435895 -2.1552745103836055 101.35871505737306 0.018268262967467312 0.1243441440165043 -0.039740378037095063
decision_type=2 2 2 2 2 2 2 2 2 2 2 2 2 2 2 2 2 2 2 2 2 2 2 2 2 2 2 2 2 2
left_child=1 15 3 4 14 6 -3 -4 -9 -5 11 18 17 -14 -2 24 -16 -7 -11 -12 -21 -20 -6 -18 28 -19 -17 -28 -1 -8
right_child=2 5 7 9 22 12 29 8 -10 10 19 -13 13 -15 16 26 23 25 21 20 -22 -23 -24 -25 -26 -27 27 -29 -30 -31
leaf_value=0.018238746138009777 -0.013271460588333098 0.0012720462517529119 -0.022137372274470435 0.0045693711852675652 -0.013437784066597153 0.0053736407912815289 0.00071651623085594671 -0.0049142932054322052 -0.022489962096060891 -0.016883364291515986 0.0043006555347533618 -0.014633512239743891 -0.00021323040474052941 0.0060088538946602753 -0.0050524495590919859 0.012526994294627853 0.0064350508248860105 0.00069576888562683796 -0.011153168070586942 -0.011540940400127271 0.0033033392818525779 -0.00070550558956092822 -0.024817865651797649 0.053526402219837538 0.032495427037054811 0.015490383604660422 0.0033071508319696195 0.023127044659280303 0.010811011016259336 -0.010811970053802092
