tree
version=v4
num_class=3
num_tree_per_iteration=3
label_index=0
max_feature_idx=25
objective=multiclass num_class:3
feature_names=ret_1d ret_5d ret_21d ret_63d log_ret_1d vol_5d vol_21d vol_63d sma_5 sma_20 sma_50 sma_200 ema_12 ema_26 rsi_14 macd macd_signal macd_hist bb_upper bb_lower bb_pctb atr_14 volume_z_21 obv high_low_range_21 gap_overnight
feature_infos=[-0.57464790344238281:0.46348264813423157] [-0.57328909635543823:0.79895675182342529] [-0.56462329626083374:1.3829723596572876] [-0.63661873340606689:3.6551923751831055] [-0.85483795404434204:0.38081896305084229] [0.0093440702185034752:6.337364673614502] [0.053808994591236115:3.0251493453979492] [0.090229280292987823:1.7469046115875244] [0.70992964506149292:2.083904504776001] [0.58485555648803711:2.2254176139831543] [0.48013204336166382:2.2280304431915283] [0.2887042760848999:3.2801449298858643] [0.66586923599243164:2.1221306324005127] [0.58347845077514648:2.1960587501525879] [10.07640552520752:92.490150451660156] [-123.67174530029297:102.85893249511719] [-107.94163513183594:93.24798583984375] [-72.968902587890625:53.351356506347656] [7.1358327865600586:4359.1767578125] [5.725062370300293:4094.530029296875] [-0.54876244068145752:1.5260215997695923] [0.0092295659705996513:0.15281480550765991] [-3.0320634841918945:4.3494596481323242] [-6.7426247596740723:6.6698112487792969] [0.024229902774095535:1.4392455816268921] [-0.58738517761230469:0.37534162402153015]
tree_sizes=3398 3482 3400 3553 3544 3542 3558 3541 3557 3537 3536 3554 3557 3536 3527 3543 3539 3537 3528 3556 3549 3555 3537 3546 3536 3510 3543 3545 3548 3537 3560 3550 3540 3552 3550 3533 3536 3550 3546 3543 3540 3548 3518 3526 3539 3558 3559 3561 3555 3568 3545 3524 3555 3551 3531 3530 3544 3553 3556 3533 3526 3547 3549 3567 3541 3559 3538 3555 3533 3545 3564 3553 3547 3550 3527 3535 3547 3541 3537 3551 3555 3540 3537 3544 3525 3574 3566 3537 3535 3528 3519 3566 3550 3541 3535 3545 3569 3552 3541 3536 3557 3564 3520 3536 3519 3534 3548 3526 3530 3552 3544 3535 3563 3545 3557 3559 3549 3512 3549 3554 3570 3517 3553 3535 3582 3542 3540 3545 3567 3539 3561 3557 3522 3550 3581 3536 3558 3538 3526 3551 3522 3513 3572 3531 3517 3574 3541 3518 3547 3528 3491 3527 3516 3511 3559 3521 3522 3536 3526 3503 3552 3545 3539 3554 3533 3540 3560 3544 3504 3577 3524 3532 3570 3526 3520 3544 3516 3506 3576 3522 3517 3540 3485 3525 3561 3509 3550 3554 3522 3479 3545 3493 3506 3545 3521 3486 3538 3525 3458 3533 3505 3453 3568 3511 3516 3548 3533 3463 3566 3530 3475 3553 3495 3493 3563 3509 3480 3584 3484 3507 3563 3500 3517 3553 3520 3538 3570 3508 3505 3538 3504 3528 3568 3520 3529 3530 3535 3517 3534 3491 3453 3551 3462 3465 3550 3483 3501 3541 3491 3510 3551 3461 3482 3551 3526 3506 3562 3500 3513 3558 3535 3499 3538 3463 3526 3553 3504 3500 3534 3499 3529 3533 3504 3485 3505 3500 3468 3570 3483 3492 3553 3492 3479 3502 3508 3534 3532 3475 3484 3516 3491

Tree=0
num_leaves=31
num_cat=0
split_feature=6 6 6 21 6 21 21 6 21 6 21 7 6 7 5 6 6 6 21 19 21 7 21 6 6 7 18 7 7 16
split_gain=1288.82 304.716 277.999 114.432 118.349 94.596 83.081 76.8361 57.2895 44.5321 62.2283 39.0936 35.9214 51.1424 29.6803 25.5553 25.5047 23.7381 23.0576 22.3792 22.3425 26.1871 21.164 22.7045 20.7901 19.6432 19.5565 19.5307 19.3683 19.1017
threshold=0.24550494551658633 0.36626994609832769 0.19652511179447177 0.029336495324969295 0.5786951780319215 0.0211641313508153 0.018600091338157657 0.14139621704816821 0.015909871086478237 0.30303835868835455 0.02637956012040377 0.22856371849775317 0.4388850629329682 0.44416454434394842 0.16957086324691775 0.2883052676916123 0.45857052505016332 0.16027076542377475 0.023087779060006145 50.967283248901374 0.030328994616866115 0.43246769905090338 0.043354356661438949 0.71475398540496837 0.17743299156427386 0.25387205183506018 485.44543457031256 0.19534921646118167 0.35179385542869573 -1.8804963827133176
decision_type=2 2 2 2 2 2 2 2 2 2 2 2 2 2 2 2 2 2 2 2 2 2 2 2 2 2 2 2 2 2
left_child=2 5 7 16 12 15 11 19 17 20 -11 -4 28 -14 24 27 -3 -9 -8 -1 21 25 -6 -24 -10 -7 -21 -2 -5 -20
right_child=1 3 6 4 22 9 18 8 14 10 -12 -13 13 -15 -16 -17 -18 -19 29 26 -22 -23 23 -25 -26 -27 -28 -29 -30 -31
leaf_value=-1.451313204594143 -1.5167045993537722 -1.5124820901658291 -1.4979828532401438 -1.5005226040018604 -1.5204280347998467 -1.4935510770851155 -1.4850428953762975 -1.4771536482532086 -1.4654624423813407 -1.5014474291525906 -1.4902129997104903 -1.4854480536558201 -1.5092386855937838 -1.4950473681239949 -1.4773138829594121 -1.5097600624701863 -1.525727841174348 -1.4859070283274369 -1.4900828089130709 -1.4691201232422477 -1.4761235091888183 -1.5026137724138815 -1.5019358510660852 -1.5155583827805892 -1.4746431903562049 -1.4864010839741821 -1.4477394877593346 -1.4972806909103045 -1.4904097063764083 -1.4745774375881799
leaf_weight=232.30913987755775 139.85691171884537 1539.7355505526066 1870.2588138282299 669.95127373933792 612.59422567486763 1269.9740916192532 4300.7309875190258 1400.4024474918842 1394.116743594408 2017.710951089859 3170.089998960495 931.33179414272308 1247.712223649025 1295.1169072091579 2415.5436269342899 723.6416611969471 478.76111352443695 1738.2590319812298 243.3091216981411 1756.5923350155354 357.76131349802017 332.61849790811539 590.59426203370094 639.57037156820297 1114.9267288148403 3936.6839701235294 114.45219179987907 1764.4494648873806 1617.783040612936 1066.4744279384613
leaf_count=887 534 5879 7141 2558 2339 4849 16421 5347 5323 7704 12104 3556 4764 4945 9223 2763 1828 6637 929 6707 1366 1270 2255 2442 4257 15031 437 6737 6177 4072
internal_value=-1.4898 -1.49787 -1.48006 -1.50519 -1.50204 -1.49323 -1.48678 -1.4745 -1.47672 -1.4912 -1.49458 -1.49381 -1.49792 -1.50201 -1.47335 -1.50176 -1.51563 -1.482 -1.48327 -1.46598 -1.48823 -1.48902 -1.51282 -1.50902 -1.46954 -1.48815 -1.46781 -1.49871 -1.49337 -1.47746
internal_weight=40983.3 22404.6 18578.7 8691.82 6673.32 13712.8 8412.11 10166.6 8063.25 11084.8 5187.8 2801.59 4830.56 2542.83 4924.59 2627.95 2018.5 3138.66 5610.51 2103.35 5897.04 5539.28 1842.76 1230.16 2509.04 5206.66 1871.04 1904.31 2287.73 1309.78
internal_count=156482 85545 70937 33187 25480 52358 32119 38818 30787 42324 19808 10697 18444 9709 18803 10034 7707 11984 21422 8031 22516 21150 7036 4697 9580 19880 7144 7271 8735 5001
is_linear=0
shrinkage=1


Tree=1
num_leaves=31
num_cat=0
split_feature=6 6 21 21 6 6 21 21 21 6 21 6 6 6 21 6 21 6 6 21 6 21 6 21 21 21 7 21 21 21
split_gain=3109.27 875.167 553.84 503.289 503.207 415.672 367.314 200.591 185.661 180.006 164.652 200.7 144.23 112.807 117.191 104.231 97.4676 67.514 64.8581 62.2725 65.7126 56.7134 54.9353 68.6853 50.7334 48.794 44.8077 42.7813 34.7936 33.9723
threshold=0.24550494551658633 0.35744395852088934 0.023087779060006145 0.028577120974659923 0.17743299156427386 0.54467478394508373 0.020027485676109794 0.03414557687938214 0.042579282075166709 0.20393287390470508 0.028429212048649791 0.30589969456195837 0.2883052676916123 0.15024759620428088 0.016648628748953346 0.43030619621276861 0.020489319227635864 0.71475398540496837 0.43461982905864721 0.023659004829823974 0.20300877839326861 0.023744776844978336 0.42614053189754492 0.039512300863862045 0.01969657372683287 0.016648628748953346 0.21220222115516665 0.053690096363425262 0.071962319314479842 0.032855825498700149
decision_type=2 2 2 2 2 2 2 2 2 2 2 2 2 2 2 2 2 2 2 2 2 2 2 2 2 2 2 2 2 2
left_child=4 2 12 18 13 7 9 15 -7 25 11 -4 16 -1 -15 -5 -2 27 21 20 -8 -3 -9 -24 -14 -6 -11 -10 -19 -12
right_child=1 3 10 5 6 8 19 22 17 26 29 -13 24 14 -16 -17 -18 28 -20 -21 -22 -23 23 -25 -26 -27 -28 -29 -30 -31
leaf_value=-0.68527190518794701 -0.63953679189315105 -0.61165749527506885 -0.66289023185615337 -0.64606694738955639 -0.65946136582424364 -0.6114175021874334 -0.68240585924650288 -0.66464680812111132 -0.63746753644483722 -0.64670929734270188 -0.66671418167597762 -0.64669209442080489 -0.61775009555082094 -0.66848625931410122 -0.68329210269973617 -0.62640517208422475 -0.65399927614592313 -0.62134804861027271 -0.60703148740442225 -0.68322455568369145 -0.66856162710970701 -0.6292806289045304 -0.64333605608977407 -0.65966531751776747 -0.63627017012143328 -0.66955654043911328 -0.65631543734028419 -0.65731445238430242 -0.64478031820552884 -0.67764308815498453
leaf_weight=4404.2609667778015 2047.8315447568893 667.38036078214645 5125.9455656707287 2138.4634456038475 1916.7523493170738 1127.6555927693844 1105.5593855381012 1422.3965265154839 778.9849328994751 2026.484361499548 2693.1156983077526 3050.0256218910217 480.12436729669571 3269.8641582429409 2262.8014252781868 985.34103772044182 2704.7255699038506 731.04739856719971 801.83016410470009 1527.2598828673363 3829.7595787644386 1459.0987012386322 1155.743991792202 1453.1065094470978 1625.7565354406834 3193.0892009139061 3030.9255105555058 417.58086547255516 203.36000892519951 968.11348631978035
leaf_count=11760 5468 1782 13687 5710 5118 3011 2952 3798 2080 5411 7191 8144 1282 8731 6042 2631 7222 1952 2141 4078 10226 3896 3086 3880 4341 8526 8093 1115 543 2585
internal_value=-0.657749 -0.647262 -0.654243 -0.63748 -0.670397 -0.64263 -0.665077 -0.649373 -0.627827 -0.659152 -0.660794 -0.656848 -0.642938 -0.679299 -0.674543 -0.639863 -0.647766 -0.636515 -0.619166 -0.674397 -0.671664 -0.623745 -0.656744 -0.652433 -0.632044 -0.665771 -0.652465 -0.644389 -0.62644 -0.669606
internal_weight=58604.4 32037.6 18695.6 13342 26566.8 10413.7 16629.8 7155.05 3258.63 10167.3 11837.2 8175.97 6858.44 9936.93 5532.67 3123.8 4752.56 2130.97 2928.31 6462.58 4935.32 2126.48 4031.25 2608.85 2105.88 5109.84 5057.41 1196.57 934.407 3661.23
internal_count=156482 85545 49920 35625 70937 27806 44404 19105 8701 27148 31607 21831 18313 26533 14773 8341 12690 5690 7819 17256 13178 5678 10764 6966 5623 13644 13504 3195 2495 9776
is_linear=0
shrinkage=1


Tree=2
num_leaves=31
num_cat=0
split_feature=24 20 22 22 24 11 7 24 5 5 11 8 7 24 21 19 14 24 11 24 7 25 20 5 24 3 25 12 24 11
split_gain=455.725 213.944 122.071 83.1096 68.9949 65.2477 52.653 53.5735 47.985 47.1299 45.4906 38.8802 34.8477 51.4651 31.4294 28.7994 26.7078 40.2165 26.403 26.4252 25.9317 24.9385 23.4173 22.368 21.3464 22.9298 32.9934 21.1624 19.7992 19.3844
threshold=0.11205105856060983 0.24870623648166659 0.11963639035820962 0.44204153120517736 0.1637753173708916 1.0906175374984743 0.41330771148204809 0.052297133952379234 0.25065346062183386 0.75808191299438488 1.1785822510719302 0.97769153118133556 0.44416454434394842 0.23825576156377795 0.064043004065752043 88.018505096435561 39.510581970214851 0.1706209480762482 1.078097999095917 0.083177931606769576 0.37823466956615454 0.013422055635601284 1.0000000180025095e-35 0.25644393265247351 0.33466865122318273 -0.18026879429817197 0.0062463246285915383 0.98878103494644176 0.080086015164852156 0.66929623484611522
decision_type=2 2 2 2 2 2 2 2 2 2 2 2 2 2 2 2 2 2 2 2 2 2 2 2 2 2 2 2 2 2
left_child=2 9 6 4 5 20 7 -1 27 10 16 -5 -6 -14 -11 28 17 23 19 -9 -3 -19 -23 -2 25 -12 -27 -4 -8 -15
right_child=1 3 8 11 12 -7 15 18 -10 14 24 -13 13 29 -16 -17 -18 21 -20 -21 -22 22 -24 -25 -26 26 -28 -29 -30 -31
leaf_value=-1.3465651919060468 -1.3460742202072924 -1.3703428741468116 -1.3523146572831437 -1.3682763744292363 -1.3774868405579213 -1.3567159998792382 -1.2864471793810508 -1.3577082694355274 -1.3563334449518807 -1.3798317318773732 -1.3387420154350482 -1.3578098926518085 -1.3617029428332217 -1.3623724021260384 -1.3469070494884006 -1.350606109234618 -1.3649733407156481 -1.3654899303174135 -1.3533368613842056 -1.3626371976586142 -1.3615277389548888 -1.2894053408697348 -1.3511515136693393 -1.3573598922829135 -1.3662445670113268 -1.3577403114377808 -1.3291806783833473 -1.3457322500445719 -1.3318720654319216 -1.3794691405393138
leaf_weight=866.01486736536026 962.71556943655014 5420.6751542687416 1788.9629883170128 1396.1521482467651 3310.9977073073387 1303.456800699234 30.612352430820465 5178.9233990907669 2332.2607197761536 344.1743922829628 589.07321172952652 2433.2528731226921 1108.6249127984047 199.40943592786789 91.550960540771484 234.02714288234711 1141.5260392427444 1054.5526267290115 1557.5107161998749 5725.0820980668068 987.60598683357239 18.882385611534119 82.109767735004425 809.65380728244781 143.62056934833527 535.28702241182327 124.73818373680115 3878.6136626601219 115.01089417934418 1003.9135016798973
leaf_count=3027 3365 18947 6253 4880 11573 4556 107 18102 8152 1203 2059 8505 3875 697 320 818 3990 3686 5444 20011 3452 66 287 2830 502 1871 436 13557 402 3509
internal_value=-1.3604 -1.3653 -1.3552 -1.36812 -1.36998 -1.36691 -1.35807 -1.35859 -1.35029 -1.35708 -1.35582 -1.36162 -1.3742 -1.36948 -1.3729 -1.33971 -1.35849 -1.35596 -1.35943 -1.3603 -1.36899 -1.36321 -1.3395 -1.35123 -1.34802 -1.34592 -1.35233 -1.34781 -1.32224 -1.37664
internal_weight=44769 23062 21707 17164.1 13334.7 7711.74 13707.2 13327.5 7999.84 5897.88 5462.16 3829.41 5622.95 2311.95 435.725 379.65 4069.44 2927.91 12461.5 10904 6408.28 1155.54 100.992 1772.37 1392.72 1249.1 660.025 5667.58 145.623 1203.32
internal_count=156482 80609 75873 59994 46609 26955 47911 46584 27962 20615 19092 13385 19654 8081 1523 1327 14224 10234 43557 38113 22399 4039 353 6195 4868 4366 2307 19810 509 4206
is_linear=0
shrinkage=1


Tree=3
num_leaves=31
num_cat=0
split_feature=6 6 6 21 6 21 6 7 21 6 21 21 6 7 5 23 6 25 6 21 6 21 21 6 6 7 21 24 7 23
split_gain=1144.24 294.909 221.541 105.909 109.424 94.9505 65.3666 61.1115 50.3006 46.2876 58.6269 35.2857 32.8235 48.0835 26.6818 25.7121 24.7142 24.1054 23.0641 21.4471 20.4166 20.2928 19.7559 21.1517 19.0751 18.9578 18.8427 18.0622 17.9049 17.7699
threshold=0.24060734361410144 0.36626994609832769 0.19652511179447177 0.029336495324969295 0.5786951780319215 0.019631890580058101 0.14139621704816821 0.22196253389120105 0.015909871086478237 0.27717548608779913 0.024613848887383941 0.018600091338157657 0.4388850629329682 0.44416454434394842 0.16957086324691775 0.88246694207191478 0.45857052505016332 -0.0037031625397503372 0.31153038144111639 0.030328994616866115 0.16027076542377475 0.023087779060006145 0.043354356661438949 0.71475398540496837 0.30036287009716039 0.27286477386951452 0.025552707724273208 0.052297133952379234 0.35179385542869573 -2.274376273155212
decision_type=2 2 2 2 2 2 2 2 2 2 2 2 2 2 2 2 2 2 2 2 2 2 2 2 2 2 2 2 2 2
left_child=2 5 6 16 12 24 -1 11 20 15 18 -4 28 -14 -10 19 26 29 -11 -7 -8 -9 -6 -24 -2 -19 -3 -16 -5 -12
right_child=1 3 7 4 22 9 8 21 14 10 17 -13 13 -15 27 -17 -18 25 -20 -21 -22 -23 23 -25 -26 -27 -28 -29 -30 -31
leaf_value=0.022027390271947604 -0.012402520975383404 -0.028205383995652103 -0.0077549224538815192 -0.010287477055700309 -0.029668132810947784 -0.0010007814831275326 0.011740882298871796 0.0047027494107557532 0.018925721252681479 -0.0062374357813371178 -0.014495515630879578 0.0037957401837977254 -0.018747518210263752 -0.0049089620888906208 0.03214537445843179 0.0077499005007223929 -0.035040723385343198 -0.01253793626741617 -0.015654368039773645 0.021798764706198924 0.0036575551715634855 0.012614843174741819 -0.011646423531418095 -0.02490642869841915 -0.027845428546947871 -0.0018692264071443151 -0.01687803063232524 0.010702794717092734 -0.00053341033027561892 0.0048930904941664856
leaf_weight=2148.7984227836132 1284.7966304123402 650.59295305609703 1598.537162810564 664.31036475300789 593.23781558871269 2970.9781728386879 1418.0557809472084 3871.2930856049061 2551.1957360506058 1740.7086197435856 126.21657776832581 1126.7999907433987 1227.2541259527206 1287.5266796052456 102.71439945697784 1513.7586098015308 461.65107271075249 479.54438963532448 1040.8632453382015 106.75217950344086 1744.9695228040218 1026.5823846459389 584.81884562969208 624.22889730334282 237.71795201301575 3174.6010038256645 853.35047656297684 2342.4696914255619 1616.0821544229984 1811.5847421884537
leaf_count=8031 4961 2550 6145 2558 2339 11339 5347 14719 9580 6679 481 4286 4764 4945 388 5776 1828 1835 4028 403 6637 3864 2255 2442 931 12117 3329 8835 6177 6913
internal_value=1.36315e-05 -0.00735505 0.00948624 -0.0147114 -0.0116745 -0.00300657 0.0142657 0.00302267 0.0122207 -0.00161896 -0.00383145 -0.00297746 -0.00772489 -0.0116649 0.0153452 0.00241487 -0.024901 -0.000879691 -0.00976348 -0.000207664 0.00728333 0.00636235 -0.0221791 -0.0184982 -0.0148187 -0.00327099 -0.021783 0.0116069 -0.00337743 0.00362697
internal_weight=40982 23050.6 17931.4 8563.05 6597.46 14487.5 10308.2 7623.21 8159.41 12965 8373.52 2725.34 4795.17 2514.78 4996.38 4591.49 1965.59 5591.95 2781.57 3077.73 3163.03 4897.88 1802.29 1209.05 1522.51 3654.15 1503.94 2445.18 2280.39 1937.8
internal_count=156482 88650 67832 33187 25480 55463 38818 29014 30787 49571 32053 10431 18444 9709 18803 17518 7707 21346 10707 11742 11984 18583 7036 4697 5892 13952 5879 9223 8735 7394
is_linear=0
shrinkage=0.05


Tree=4
num_leaves=31
num_cat=0
split_feature=6 6 21 21 6 6 21 6 21 21 21 6 21 6 6 6 21 21 6 6 6 6 21 6 21 21 22 6 21 7
split_gain=2798.96 793.592 513.514 463.422 455.02 379.436 274.076 290.723 185.613 172.275 163.587 139.226 99.8576 133.138 97.1292 82.0338 77.2192 67.4214 65.2896 61.5452 59.4282 49.8298 63.4467 45.2241 54.4575 44.5153 43.5365 41.9664 36.5413 34.6038
threshold=0.24550494551658633 0.35744395852088934 0.024520882405340675 0.028577120974659923 0.15906839072704318 0.54467478394508373 0.020027485676109794 0.20393287390470508 0.03414557687938214 0.043354356661438949 0.020489319227635864 0.2883052676916123 0.028429212048649791 0.29215840995311743 0.39243914186954504 0.20300877839326861 0.016648628748953346 0.023496712557971481 0.30036287009716039 0.71475398540496837 0.40462657809257513 0.42614053189754492 0.039512300863862045 0.1199379898607731 0.015828571282327179 0.023913882672786716 0.45847243070602423 0.18037056177854541 0.053690096363425262 0.20946463942527774
decision_type=2 2 2 2 2 2 2 2 2 2 2 2 2 2 2 2 2 2 2 2 2 2 2 2 2 2 2 2 2 2
left_child=4 2 10 20 23 8 7 16 14 -7 18 -12 13 -4 -5 -8 -6 -17 -2 28 25 -10 -23 -1 -25 -3 29 -18 -11 -9
right_child=1 3 12 5 6 9 15 26 21 19 11 -13 -14 -15 -16 17 27 -19 -20 -21 -22 22 -24 24 -26 -27 -28 -29 -30 -31
leaf_value=-0.034275831987931084 0.018182250898738331 0.042247676910017191 -0.0095841893324510458 0.0059236483182524341 -0.004906185630916049 0.043521947836400156 -0.026954884735147129 0.014020333350526904 -0.0067530632274930523 0.018708680623636391 0.001508929419817155 0.016414296249554969 -0.011467332231487742 0.0058786506432658044 0.02403658145104047 -0.010187046306994322 -0.020252966622325425 -0.022818760000180533 0.038305495035667006 0.029340603297878423 0.044976964524996624 0.013628760763999529 -0.0020701165861368559 -0.018858825578600365 -0.030119755515954246 0.024765680178513803 -0.0029674864802278649 -0.010553941668936192 0.00011408249407026705 0.0041197948763768795
leaf_weight=926.42917311191559 2268.5477517843246 546.64149343967438 2470.3995331823826 1209.6090819239616 4054.1595784723759 1199.3726206421852 1525.6588639616966 1397.32526704669 1422.6548018157482 722.24430432915688 4054.9379492998123 2553.8536730408669 3662.7040272951126 3188.7753863930702 1910.6696689724922 3733.3674418330193 1827.447704821825 1475.0038344562054 491.03445306420326 912.40023553371429 1271.7127342224121 1154.6345638036728 1452.903614372015 3569.8390526473522 1539.6485860645771 1101.9821669459343 1257.5308127105236 2873.0258686244488 417.44180843234062 2401.6282472014427
leaf_count=2471 6064 1464 6595 3232 10821 3213 4070 3733 3798 1931 10828 6825 9776 8518 5109 9964 4875 3935 1314 2442 3407 3086 3880 9523 4107 2948 3358 7667 1115 6413
internal_value=-3.77777e-05 0.00992007 0.00327326 0.0192446 -0.0120305 0.0143024 -0.00848428 -0.00445124 0.00786175 0.0284643 0.0115406 0.00726977 -0.00503477 -0.000870509 0.0170169 -0.0167549 -0.00996455 -0.0137657 0.021766 0.0196595 0.0368454 0.000772093 0.00487979 -0.0241002 -0.0222536 0.0305675 0.00509336 -0.0143261 0.0119029 0.00776299
internal_weight=58593.6 32012.5 18690.3 13322.3 26581.1 10401.9 20545.1 13811.1 7150.47 3251.46 9368.37 6608.79 9321.88 5659.17 3120.28 6734.03 8754.63 5208.37 2759.58 2052.09 2920.34 4030.19 2607.54 6035.92 5109.49 1648.62 5056.48 4700.47 1139.69 3798.95
internal_count=156482 85545 49920 35625 70937 27806 54836 36867 19105 8701 25031 17653 24889 15113 8341 17969 23363 13899 7378 5488 7819 10764 6966 16101 13630 4412 13504 12542 3046 10146
is_linear=0
shrinkage=0.05


Tree=5
num_leaves=31
num_cat=0
split_feature=6 21 6 21 6 21 6 21 21 6 21 11 6 6 21 22 13 6 6 21 6 22 21 16 6 21 18 21 6 21
split_gain=851.781 262.522 233.09 327.111 213.681 113.102 110.229 110.034 101.883 140.809 90.1523 69.9219 59.321 58.3122 54.7023 54.362 50.6318 48.5839 46.1677 47.1596 34.6493 31.5723 31.1972 28.1482 27.5124 32.571 27.2852 25.7915 24.3707 23.5441
threshold=0.32113374769687658 0.027631905861198906 0.22721430659294131 0.023744776844978336 0.54467478394508373 0.035685854032635696 0.39243914186954504 0.0461298804730177 0.020158480852842334 0.15419053286314013 0.020027485676109794 1.1785822510719302 0.42215783894062048 0.35744395852088934 0.041909005492925651 0.085531052201986327 0.98952418565750133 0.2552631944417954 0.26161035895347601 0.032607011497020728 0.27151979506015783 -0.7621246576309203 0.025262943468987945 0.24740581214427951 0.89027243852615368 0.071962319314479842 637.69244384765636 0.023578066378831867 0.20393287390470508 0.03309579752385617
decision_type=2 2 2 2 2 2 2 2 2 2 2 2 2 2 2 2 2 2 2 2 2 2 2 2 2 2 2 2 2 2
left_child=2 13 8 10 5 6 -3 -6 9 16 20 18 -7 27 -14 28 -1 -12 23 -20 -4 -18 -10 -5 25 -9 -15 -2 -11 -8
right_child=1 4 3 11 7 12 29 24 22 15 17 -13 14 26 -16 -17 21 -19 19 -21 -22 -23 -24 -25 -26 -27 -28 -29 -30 -31
leaf_value=0.008721485913014344 -0.024039289349841026 -7.4804114714122137e-05 -0.011029613421046648 0.020994615231874549 -0.030308785548393304 0.016437182066948365 -0.01937480466486044 -0.0078012033268604819 0.015464848327774092 0.0026389578437177974 0.0027726641529639416 0.022718718278105423 -0.0069891407902084512 -0.029769786977115239 0.010611310951350903 0.0083041624904498148 0.0083650299731673986 -0.006890929851280524 0.0027003810229803867 0.028775019251831947 -0.024655097914395168 0.023412984640890498 0.035181155777041034 0.0063499532684198074 -0.023047729163021294 0.027980195177139969 -0.00058928321226420829 -0.011059590467490998 -0.0043997393343613968 -0.0081699388486106469
leaf_weight=1812.7145698964596 585.41186273097992 2697.0362749397755 2266.2427788376808 755.79747924208641 1154.8352200090885 914.17373672127724 1335.8764465749264 982.73554638028145 2773.8795893788338 4605.2168786227703 2241.0818965137005 769.351990878582 999.6508275270462 1738.2512014508247 790.37974381446838 3851.5938566029072 445.52671405673027 3097.4364533424377 3804.9465940594673 181.65514880418777 588.79303523898125 1623.1676707863808 216.76739847660065 582.14152356982231 283.40868026018143 67.853965163230896 84.3503757417202 1113.8826326429844 1677.4078420698643 725.56357300281525
leaf_count=6284 2064 9438 7945 2629 4101 3184 4716 3464 9634 16044 7819 2672 3506 6165 2760 13380 1544 10861 13297 632 2077 5614 751 2028 1001 237 299 3911 5874 2551
internal_value=3.68547e-05 -0.010474 0.00456244 -0.000145157 -0.00632117 -0.00208916 -0.00672988 -0.0190081 0.0085177 0.00672933 -0.00667004 0.00862703 0.00607502 -0.0222063 0.000779623 0.00362706 0.0148277 -0.00283329 0.00658957 0.00389045 -0.0138421 0.0201751 0.0168967 0.0146274 -0.00921984 -0.005483 -0.0284222 -0.0155352 0.000758849 -0.015434
internal_weight=44767.1 13473.4 31293.7 14287.4 9951.51 7462.68 4758.48 2488.83 17006.3 14015.6 8193.55 6093.89 2704.2 3521.9 1790.03 10134.2 3881.41 5338.52 5324.54 3986.6 2855.04 2068.69 2990.65 1337.94 1334 1050.59 1822.6 1699.29 6282.62 2061.44
internal_count=156482 47397 109085 49960 34958 26155 16705 8803 59125 48740 28702 21258 9450 12439 6266 35298 13442 18680 18586 13929 10022 7158 10385 4657 4702 3701 6464 5975 21918 7267
is_linear=0
shrinkage=0.05


Tree=6
num_leaves=31
num_cat=0
split_feature=6 6 6 21 6 21 21 5 6 21 6 21 6 6 21 6 6 23 6 21 10 6 11 5 21 19 23 21 6 21
split_gain=1023.9 269.354 194.72 99.2452 102.217 86.9274 50.5788 42.2734 42.2484 52.4715 33.2273 32.9046 36.8012 26.7185 42.1196 26.4131 24.1281 23.9093 23.0161 22.8972 30.7362 22.6859 21.1173 20.4843 19.6809 19.3781 21.0258 18.1751 17.8303 17.4598
threshold=0.24060734361410144 0.36626994609832769 0.18324467539787295 0.029336495324969295 0.50866442918777477 0.019631890580058101 0.018600091338157657 0.16113930940628055 0.27717548608779913 0.025454570539295677 0.20846711099147799 0.040646599605679519 0.71475398540496837 0.16027076542377475 0.015013334807008507 0.20031728595495227 0.45857052505016332 0.88246694207191478 0.31153038144111639 0.033598409965634353 1.1159512996673586 0.39243914186954504 0.81232959032058727 0.69644683599472057 0.030328994616866115 737.22351074218761 -2.274376273155212 0.025552707724273208 0.30036287009716039 0.023496712557971481
decision_type=2 2 2 2 2 2 2 2 2 2 2 2 2 2 2 2 2 2 2 2 2 2 2 2 2 2 2 2 2 2
left_child=2 5 7 16 19 28 10 13 17 18 -4 -6 -13 -1 -15 -8 27 24 -10 21 23 -5 -9 -21 -7 26 -11 -3 -2 -17
right_child=1 3 6 4 11 8 15 22 9 25 -12 12 -14 14 -16 29 -18 -19 -20 20 -22 -23 -24 -25 -26 -27 -28 -29 -30 -31
leaf_value=0.02004176490181378 -0.011912888778256785 -0.027404784863233972 0.0035569024624117237 -0.0019220112467787803 -0.026768236235714199 -0.0009910952208356332 0.013893345864287971 0.031726678607406925 -0.0051447075011833406 -0.014557134779931728 -0.005721070648321989 -0.0097063485355188984 -0.024427814820694144 -0.00029436054826175839 0.016998228237081456 0.0040303794804287651 -0.034297911053125393 0.0074350179938634771 -0.013561056316264412 0.0016477421663938922 -0.013109828227707869 -0.015450109201156796 0.0090820834379006267 -0.019018907873631391 0.020712495729542247 0.02533252823973994 4.5274478312578591e-05 -0.016154772626450722 -0.027025239501392531 0.011836030731724588
leaf_weight=3334.0203284323215 1271.5865284800529 633.64061023294926 2445.6220311224461 464.66539061069489 845.92022673785686 2970.4459150135517 1168.7612439095974 106.90038028359413 2095.7651455104351 260.36755540966988 1593.7726126015186 1213.9290696978569 654.55279995501041 474.75239241123199 1356.9574277997017 3833.2117087244987 446.79361559450626 1520.7053561508656 1329.7410887777805 1716.2190449237823 566.53939279913902 935.95371416211128 2880.0622155666351 128.79997423291206 108.15504977107048 72.235958635807037 4589.8490351140499 838.83018723130226 231.46157804131508 882.4085431098938
leaf_count=12299 4961 2550 9266 1796 3386 11339 4358 398 8081 996 6133 4727 2623 1799 5043 14512 1828 5776 5199 6607 2185 3656 10742 500 403 275 17502 3329 931 3282
internal_value=1.31729e-05 -0.00700977 0.00890889 -0.0141035 -0.0111626 -0.00286325 0.00420451 0.0146345 -0.00154145 -0.0036617 -0.000102603 -0.0185787 -0.0148672 0.0173737 0.0125137 0.00716197 -0.0241006 0.00230581 -0.00841359 -0.00588033 -0.00292414 -0.0109661 0.00989522 0.00020135 -0.000226349 -0.00035376 -0.00073786 -0.0210009 -0.0142451 0.00549229
internal_weight=40972.6 22896.2 18076.5 8445.84 6526.58 14450.3 9923.78 8152.69 12947.3 8347.96 4039.39 2714.4 1868.48 5165.73 1831.71 5884.38 1919.26 4599.31 3425.51 3812.18 2411.56 1400.62 2986.96 1845.02 3078.6 4922.45 4850.22 1472.47 1503.05 4715.62
internal_count=156482 88650 67832 33187 25480 55463 37551 30281 49571 32053 15399 10736 7350 19141 6842 22152 7707 17518 13280 14744 9292 5452 11140 7107 11742 18773 18498 5879 5892 17794
is_linear=0
shrinkage=0.05


Tree=7
num_leaves=31
num_cat=0
split_feature=6 6 21 21 6 6 21 21 21 21 6 6 6 6 21 6 21 6 6 21 21 6 6 21 21 7 21 21 21 21
split_gain=2497.79 711.632 464.71 417.81 411.033 340.072 316.558 167.927 157.604 137.186 170.306 123.569 120.035 102.218 106.613 89.1744 79.3512 56.3687 55.9365 52.0841 49.6329 48.3209 44.2802 54.2158 43.131 40.369 38.5782 37.0644 36.3321 32.1256
threshold=0.24550494551658633 0.35744395852088934 0.023087779060006145 0.028577120974659923 0.18037056177854541 0.54467478394508373 0.020027485676109794 0.03414557687938214 0.042579282075166709 0.028429212048649791 0.30589969456195837 0.20393287390470508 0.2883052676916123 0.13975262641906741 0.017409257590770725 0.43030619621276861 0.020489319227635864 0.71475398540496837 0.43461982905864721 0.023659004829823974 0.023744776844978336 0.22527172416448596 0.43030619621276861 0.039512300863862045 0.01969657372683287 0.20467095822095874 0.017877582460641864 0.016648628748953346 0.053690096363425262 0.071962319314479842
decision_type=2 2 2 2 2 2 2 2 2 2 2 2 2 2 2 2 2 2 2 2 2 2 2 2 2 2 2 2 2 2
left_child=4 2 12 18 13 7 11 15 -7 10 -4 27 16 -1 25 -5 -2 28 20 21 -3 -8 -9 -24 -14 -15 -13 -6 -10 -19
right_child=1 3 9 5 6 8 19 22 17 -11 -12 26 24 14 -16 -17 -18 29 -20 -21 -22 -23 23 -25 -26 -27 -28 -29 -30 -31
leaf_value=-0.02721774282555094 0.016492449874315578 0.042086881392096015 -0.0048679444467949161 0.010418094151785465 -0.00048019633877734278 0.042176598329937448 -0.016555199172538771 -0.0060175632559223459 0.018162446600590552 -0.010948196656413035 0.010058698746386541 0.0099341606314479573 0.036649936461254772 -0.0096273108982884471 -0.025688811053449528 0.028639912626571506 0.0034323764546381691 0.033117869188936118 0.046317751473100986 -0.02297347066174291 0.025535325198855409 -0.0064472655881349919 0.013175623058609923 -0.0016621548281175289 0.019522000258577768 -0.018561346332862941 0.0010951310040382526 -0.0099536893302562563 -0.0001189565833589023 0.010553242004281833
leaf_weight=2777.4110833704472 2042.6232885420322 661.4123153090477 5127.3334992825985 2134.7007169425488 1613.0441505014896 1116.9569803476334 2854.6147811710835 1525.2583201825619 776.33615511655807 3664.0843728780746 3046.0578761398792 2146.8910861909389 476.89086613059044 3888.1044861674309 2105.1686122119427 980.58889484405518 2703.8414615094662 726.33719578385353 793.37434521317482 1519.4718595147133 1451.2086703777313 2022.1585823893547 1088.9229289293289 1415.101909995079 1620.7838672995567 1877.5444718003273 2907.8650827109814 2874.1413825750351 417.30103892087936 202.54841542243958
leaf_count=7407 5468 1782 13687 5710 4305 3011 7614 4071 2080 9776 8144 5737 1282 10371 5614 2631 7222 1952 2141 4052 3896 5395 2914 3779 4341 5008 7767 7667 1115 543
internal_value=-3.76364e-05 0.00937903 0.00308693 0.0182233 -0.0113619 0.0135324 -0.00627979 0.00743837 0.0269704 -0.00290903 0.000694357 -0.00050993 0.013458 -0.0189681 -0.0160561 0.0161561 0.00905401 0.0189643 0.0349825 -0.0148864 0.0307213 -0.0123652 0.000696715 0.00478861 0.0234199 -0.0125378 0.00485042 -0.00654938 0.0117675 0.0282046
internal_weight=58558.1 31971.7 18681.6 13290 26586.4 10384.1 15938.2 7144.57 3239.48 11837.5 8173.39 9541.94 6844.14 10648.2 7870.82 3115.29 4746.46 2122.52 2906 6396.25 2112.62 4876.77 4029.28 2504.02 2097.67 5765.65 5054.76 4487.19 1193.64 928.886
internal_count=156482 85545 49920 35625 70937 27806 42537 19105 8701 31607 21831 25476 18313 28400 20993 8341 12690 5690 7819 17061 5678 13009 10764 6693 5623 15379 13504 11972 3195 2495
is_linear=0
shrinkage=0.05


Tree=8
num_leaves=31
num_cat=0
split_feature=6 21 6 6 21 21 21 6 21 6 21 6 11 21 22 13 6 6 21 6 21 6 22 21 6 21 16 2 10 6
split_gain=763.546 244.066 207.488 205 295.301 104.341 90.4153 127.377 84.4327 95.4643 82.8252 67.3824 63.5492 55.0495 45.8139 45.7232 43.2902 41.8977 43.8854 36.1085 36.8645 32.5131 30.1925 29.4762 28.6548 34.654 26.2903 26.143 22.2562 22.0929
threshold=0.32113374769687658 0.028723476454615596 0.5165555775165559 0.22721430659294131 0.023744776844978336 0.042579282075166709 0.019831066019833091 0.15419053286314013 0.036791216582059867 0.37609323859214788 0.020027485676109794 0.40462657809257513 1.1890033483505251 0.023578066378831867 -0.10593892261385916 0.98952418565750133 0.2552631944417954 0.26161035895347601 0.028158626519143585 0.42215783894062048 0.041909005492925651 0.27151979506015783 -0.7621246576309203 0.025262943468987945 0.89027243852615368 0.064043004065752043 0.24740581214427951 0.14659799635410312 0.94568800926208507 0.19180409610271457
decision_type=2 2 2 2 2 2 2 2 2 2 2 2 2 2 2 2 2 2 2 2 2 2 2 2 2 2 2 2 2 2
left_child=3 11 8 6 10 -4 7 15 9 28 21 13 17 -2 29 -1 -12 26 -19 -10 -21 -5 -17 -8 25 -7 -6 -11 -3 -9
right_child=1 2 5 4 12 24 23 14 19 27 16 -13 -14 -15 -16 22 -18 18 -20 20 -22 -23 -24 -25 -26 -27 -28 -29 -30 -31
leaf_value=0.007976889793827437 -0.026727751074448775 -0.0066540253683525985 -0.028889917541059164 -0.010557753787059115 0.01991338774890657 -0.0092516641120265076 0.01397438760421648 0.0027322141683186699 0.017413606118346851 -0.012757084648726214 0.0025851929753967907 -0.031550428855102883 0.022244415736386941 -0.012348261737939674 0.0068480807418185331 0.0072511752401163629 -0.0065408228902441483 0.00057869941632434307 0.012256294873959619 -0.0044993498347102095 0.01262174479528879 -0.023866371972024077 0.021946279079467751 0.032834911525787734 -0.023242903131218715 0.013472309880897771 0.0058850492922871075 0.0020473374402489928 0.0071260850671321478 -0.0037880874346373342
leaf_weight=1824.8023029267788 935.43726435303688 365.09402430057526 1069.2462922334671 2247.4927894771099 779.62506946921349 1308.8720650970936 3260.2224478125572 3050.2067353725433 699.62176561355591 2109.1073516905308 2246.9338209331036 963.28045961260796 708.80160993337631 2317.7729684412479 4412.8207086324692 445.46976274251938 3079.6886951029301 2948.2426251173019 1106.9351047575474 693.27979066967964 574.77137354016304 577.90046003460884 1644.2027189135551 221.67549496889114 301.33801329135895 192.18842878937721 586.58907416462898 346.61587256193161 1476.7242192924023 2262.8236612081528
leaf_count=6269 3379 1274 3883 7945 2674 4649 11204 10589 2411 7482 7819 3512 2429 8241 15264 1530 10861 10291 3834 2440 1992 2077 5596 751 1085 674 2030 1236 5139 7922
internal_value=3.70704e-05 -0.00997784 -0.00538494 0.00429564 -0.000127187 -0.0165141 0.00798515 0.00614873 -0.000282943 -0.00421127 -0.00636211 -0.0199288 0.00816325 -0.0164852 0.00308268 0.013765 -0.00269027 0.00632096 0.00376777 0.00829405 0.00325759 -0.0132824 0.0188165 0.0151775 -0.00916833 -0.00633816 0.0138948 -0.0106655 0.0043916 -4.38652e-05
internal_weight=44757.8 13353.3 9136.86 31404.4 14282.2 2871.64 17122.2 13640.3 6265.21 4297.54 8152.02 4216.49 6130.19 3253.21 9725.85 3914.47 5326.62 5421.39 4055.18 1967.67 1268.05 2825.39 2089.67 3481.9 1802.4 1501.06 1366.21 2455.72 1841.82 5313.03
internal_count=156482 47397 32265 109085 49960 10291 59125 47170 21974 15131 28702 15132 21258 11620 33775 13395 18680 18829 14125 6843 4432 10022 7126 11955 6408 5323 4704 8718 6413 18511
is_linear=0
shrinkage=0.05


Tree=9
num_leaves=31
num_cat=0
split_feature=6 6 6 21 6 21 6 21 7 6 7 21 7 7 6 5 21 24 24 25 19 2 6 6 7 19 21 18 7 14
split_gain=916.24 247.779 172.338 95.2875 76.5097 76.3363 62.3723 83.9767 51.8779 50.3435 43.1071 30.0546 29.0964 22.3022 20.5107 20.3627 21.9923 19.964 19.2699 22.3573 19.1728 19.1256 18.2853 18.244 36.0861 17.6847 16.9061 16.7293 16.6485 16.5058
threshold=0.24060734361410144 0.39829942584037786 0.19652511179447177 0.031091229990124706 0.5786951780319215 0.019897072575986389 0.31153038144111639 0.026485448703169826 0.22196253389120105 0.14139621704816821 0.17783416807651523 0.018600091338157657 0.25387205183506018 0.43246769905090338 0.30036287009716039 0.16113930940628055 0.018075596541166309 0.10181004554033281 0.12797021865844729 -0.0016587591380812226 50.967283248901374 0.055757476016879089 0.16146966069936755 0.4388850629329682 0.44416454434394842 37.590744018554695 0.027508430182933811 485.44543457031256 0.34985177218914038 31.741675376892093
decision_type=2 2 2 2 2 2 2 2 2 2 2 2 2 2 2 2 2 2 2 2 2 2 2 2 2 2 2 2 2 2
left_child=2 5 9 -3 23 14 12 17 11 20 21 -4 -7 -14 -2 16 22 -8 19 -9 -1 -11 28 -5 -25 -23 -15 -22 -12 -17
right_child=1 3 8 4 -6 6 7 18 -10 10 15 -13 13 26 -16 29 -18 -19 -20 -21 27 25 -24 24 -26 -27 -28 -29 -30 -31
leaf_value=0.032360146143721381 -0.010742561305490658 -0.026196121147342041 -0.0073255450228200906 -0.0017443875258764622 -0.020339308518017962 -0.0044290209443129521 -0.0006085241273245418 0.012644198528970849 0.0057177103242089739 0.0066759972686384148 0.019960194719815021 0.0033303509687865047 0.0032996328989203533 -0.015975570021481849 -0.024926116742338439 -0.0083679117666868759 0.022169395926658095 -0.015808118403123819 -0.0037922935780068038 -0.0022097590087987408 0.016370178455821633 0.035764206806175702 0.0094070168166222913 -0.016636638124564378 -0.004031255993221329 -0.0093320630927676718 0.00185367618235976 0.035521192078417446 -0.027536456660535804 0.010691737521642772
leaf_weight=247.24854949116707 1426.8359512984753 1459.4697363525629 1585.4126333892345 1032.3697030544281 1689.9845327138901 2105.4309258908033 244.92788547277451 439.38023360073566 4944.4614336788654 1806.3587009310722 801.71998423337936 1134.8755832910538 5644.6287713497877 276.45090621709824 311.32950310409069 117.77619424462318 926.76204112172127 1876.3919033110142 3093.2762670665979 596.95948877930641 1852.5583258271217 23.205155819654465 1364.3031216263771 1040.7828112095594 1252.273083165288 317.31981837749481 255.17305690050125 122.05244395136833 18.713118642568588 2948.6605331599712
leaf_count=887 5614 5993 6145 3981 6861 8091 967 1683 18583 6715 2935 4286 21515 1061 1284 435 3379 7445 11880 2295 6707 86 5069 4144 4870 1179 966 437 68 10921
internal_value=1.49024e-05 -0.00667661 0.00837271 -0.0149493 -0.0116751 -0.00338413 -0.00219926 -0.00596963 0.00266629 0.0125193 0.010733 -0.00287822 0.000646024 0.00237692 -0.0132872 0.0128545 0.0157072 -0.0140556 -0.00181453 0.00408371 0.019209 0.00462566 0.0129627 -0.00726996 -0.0097553 -0.00623469 -0.00740961 0.0175582 0.0188675 0.00995781
internal_weight=40957.1 22745.7 18211.4 6474.88 5015.41 16270.8 14532.6 6250.94 7664.75 10546.7 8324.82 2720.29 8281.68 6176.25 1738.17 6177.93 3111.5 2121.32 4129.62 1036.34 2221.86 2146.88 2184.74 3325.43 2293.06 340.525 531.624 1974.61 820.433 3066.44
internal_count=156482 88650 67832 25849 19856 62801 55903 24270 29014 38818 30787 10431 31633 23542 6898 22807 11451 8412 15858 3978 8031 7980 8072 12995 9014 1265 2027 7144 3003 11356
is_linear=0
shrinkage=0.05


Tree=10
num_leaves=31
num_cat=0
split_feature=6 6 21 6 21 21 6 6 21 6 6 21 6 21 6 6 21 6 7 21 21 21 7 21 6 7 10 21 22 6
split_gain=2239.39 694.868 334.667 489.328 328.318 190.571 188.776 177.64 162.592 264.323 144.512 141.971 139.495 123.478 78.0824 77.5957 75.0848 60.4842 51.9304 50.7242 50.1514 49.5555 39.6275 38.8611 38.0661 35.7653 35.2591 31.9264 31.3064 29.1815
threshold=0.29894462227821356 0.1946780011057854 0.025755337439477447 0.50109741091728222 0.020427249372005466 0.040646599605679519 0.36840897798538214 0.23782438784837726 0.032855825498700149 0.39243914186954504 0.24550494551658633 0.024613848887383941 0.15024759620428088 0.016285524703562263 0.62219664454460155 0.38403372466564184 0.019897072575986389 0.34054112434387213 0.21676640957593921 0.038074420765042312 0.023659004829823974 0.019963557831943039 0.19642511755228045 0.05621620640158654 0.89027243852615368 0.4947356134653092 0.97700235247612011 0.028024271130561832 0.36701619625091558 0.1691899970173836
decision_type=2 2 2 2 2 2 2 2 2 2 2 2 2 2 2 2 2 2 2 2 2 2 2 2 2 2 2 2 2 2
left_child=1 12 6 8 7 -5 16 18 9 17 20 -12 -1 -14 25 -10 -2 27 26 -17 28 29 -9 -16 -25 -7 -3 -4 -6 -15
right_child=2 4 3 5 10 14 -8 22 15 -11 11 -13 13 21 23 19 -18 -19 -20 -21 -22 -23 -24 24 -26 -27 -28 -29 -30 -31
leaf_value=-0.023527738707955725 0.038778815051592662 0.012172723336873241 0.0041766655139406821 0.037839623599752736 -0.0074150571941028589 0.017048021723911795 0.041439033948060422 0.031221244548340049 -0.012517557891048126 0.025172415704515311 0.0025293872258306312 -0.01039906242216411 -0.0061616136865552222 -0.021413575919910669 0.030951173850722283 0.0073637363577035604 0.016072045659940578 0.0089521988802149961 -0.0035374690532311995 -0.0051549307519391822 -0.021524019644797054 -0.027293819595475673 0.013165891109030971 0.0067624607002563803 0.03002457408065606 -0.00029404394825946717 0.0010542888689274563 -0.0065156777860834823 -0.017368157281863552 -0.012680674795558542
leaf_weight=4407.054024964571 412.90586850047112 1163.3163933753967 1277.0066495537758 1568.1598163247108 2507.1677611470222 496.34878161549568 1239.7006715834141 345.06117036938667 1451.191487878561 1879.7660086154938 4889.3611515164375 3753.0460520982742 4070.2918883264065 1373.9956287145615 825.90066057443619 1696.1979960799217 3103.3568015098572 2559.8007163405418 3612.4298721253872 1546.8071173727512 1459.7330160737038 1069.0681119263172 2580.1778109669685 482.62723478674889 277.36028006672859 739.76585045456886 1844.9849815666676 1539.2038546800613 1155.9554690420628 3173.5949809551239
leaf_count=11760 1118 3109 3414 4249 6687 1331 3366 925 3872 5064 13063 10013 10857 3665 2227 4541 8323 6853 9644 4131 3894 2852 6916 1296 748 1981 4929 4107 3083 8464
internal_value=-4.04501e-05 -0.00738714 0.0129856 0.00958745 -0.00208793 0.0238628 0.0246592 0.00503726 0.00434242 0.00903364 -0.00702949 -0.00308439 -0.0161515 -0.012795 0.0160932 -0.00290773 0.0187409 0.00338929 0.000502654 0.00139123 -0.0136838 -0.017601 0.0152984 0.023437 0.0152615 0.00666625 0.00535573 -0.0016655 -0.0105577 -0.0153207
internal_weight=58501.3 37405.2 21096.1 16340.1 23311.2 4390.16 4755.96 9545.97 11950 7255.78 13765.3 8642.41 14094 9686.95 2822 4694.2 3516.26 5376.01 6620.73 3243.01 5122.86 5616.66 2925.24 1585.89 759.988 1236.11 3008.3 2816.21 3663.12 4547.59
internal_count=156482 99861 56621 43814 62263 11832 12807 25523 31982 19438 36740 23076 37598 25838 7583 12544 9441 14374 17682 8672 13664 14981 7841 4271 2044 3312 8038 7521 9770 12129
is_linear=0
shrinkage=0.05


Tree=11
num_leaves=31
num_cat=0
split_feature=6 21 6 21 6 21 21 6 21 6 21 11 6 21 6 21 22 14 6 6 21 6 21 22 6 21 16 7 2 7
split_gain=684.068 230.967 185.798 264.722 183.642 94.199 79.7844 112.846 78.3893 82.9758 75.9358 60.0308 57.3984 48.69 47.2673 45.6286 42.3881 40.6927 40.5825 38.7458 42.9251 30.7991 26.2941 25.7959 24.3974 28.6154 23.2164 22.5801 22.3573 22.1229
threshold=0.32430380582809454 0.028723476454615596 0.22721430659294131 0.023744776844978336 0.54467478394508373 0.0461298804730177 0.019831066019833091 0.15419053286314013 0.035685854032635696 0.37609323859214788 0.020027485676109794 1.1785822510719302 0.40462657809257513 0.023496712557971481 0.42215783894062048 0.041909005492925651 -0.10593892261385916 54.876224517822273 0.2552631944417954 0.26161035895347601 0.028158626519143585 0.27151979506015783 0.025262943468987945 -0.7621246576309203 0.89027243852615368 0.064043004065752043 0.24740581214427951 0.50705507397651683 0.12977173179388049 0.21676640957593921
decision_type=2 2 2 2 2 2 2 2 2 2 2 2 2 2 2 2 2 2 2 2 2 2 2 2 2 2 2 2 2 2
left_child=2 12 6 10 8 -6 7 17 9 -3 21 19 13 -2 -10 27 -9 23 -12 26 -21 -4 -8 -1 25 -7 -5 -16 -11 -18
right_child=1 4 3 11 5 24 22 16 14 28 18 -13 -14 -15 15 -17 29 -19 -20 20 -22 -23 -24 -25 -26 -27 -28 -29 -30 -31
leaf_value=0.0068488096917975558 -0.026815827308888623 0.0030227057586569035 -0.010120548598404087 0.018564842706244273 -0.028215723344013566 -0.0086347023926015287 0.013067758543455278 -0.00013374304590673701 0.014750327823049645 -0.014040394857792585 0.0024629227871758204 0.019984030614908374 -0.030643634916439639 -0.012466396029154551 -0.010462857199714452 0.009690640167986396 0.0034845875232915077 0.0077791312053423559 -0.0063406362325046754 6.188281545444163e-05 0.011263446155974811 -0.023054689214012603 0.030708632793683646 0.020861087754393076 -0.021489422033953584 0.012796021209202597 0.0053886820095224528 0.0075595830601325022 -0.00091290416764218418 0.010647998140466431
leaf_weight=416.72767448425293 817.83937573432922 1641.9922030568123 2230.1403250396252 776.36715748906136 1067.3809186518192 846.33635467290878 3295.3088048994541 5319.7301842570305 920.94795078039169 1861.4367432594299 2250.7322136163712 827.71481537818909 936.36139145493507 2144.3093813359737 764.97520527243614 799.57894131541252 2577.3718976080418 1964.8813297450542 3126.6919766068459 3056.9572302699089 1187.8661052584648 581.21445226669312 226.19321390986443 1573.326255351305 273.37699624896049 190.6460092663765 589.58565181493759 224.4715333878994 393.7864862382412 1856.309348076582
leaf_count=1421 3024 5703 7945 2629 3986 3035 11204 18511 3147 6685 7819 2806 3512 7712 2711 2760 8874 6693 11093 10673 4081 2131 751 5281 1001 666 2028 795 1415 6390
internal_value=3.91373e-05 -0.00968272 0.00397096 -0.000172966 -0.00527203 -0.0171877 0.00748921 0.00576404 -0.000982971 -0.00552502 -0.00613765 0.00741241 -0.0198464 -0.0164307 0.00554707 0.000806089 0.00287455 0.0128884 -0.00265498 0.0055566 0.00319788 -0.012797 0.0142031 0.0179298 -0.00819926 -0.00468905 0.0128821 -0.00636878 -0.0117506 0.00648509
internal_weight=44740.6 12883.4 31857.1 14627.3 8984.93 2377.74 17229.8 13708.3 6607.19 3897.22 8188.78 6438.49 3898.51 2962.15 2709.97 1789.03 9753.41 3954.94 5377.42 5610.78 4244.82 2811.35 3521.5 1990.05 1310.36 1036.98 1365.95 989.447 2255.22 4433.68
internal_count=156482 46152 110330 51205 31904 8688 59125 47170 23216 13803 28988 22217 14248 10736 9413 6266 33775 13395 18912 19411 14754 10076 11955 6702 4702 3701 4657 3506 8100 15264
is_linear=0
shrinkage=0.05


Tree=12
num_leaves=31
num_cat=0
split_feature=6 6 6 21 21 6 21 21 6 6 21 6 7 5 7 6 21 6 25 7 24 7 11 21 7 14 21 5 18 20
split_gain=821.327 211.548 174.737 67.2963 64.3013 64.4422 75.0159 52.3941 46.2849 44.5759 40.7916 35.0981 26.4424 24.8138 24.5347 23.6544 22.5383 30.9143 22.8859 20.3789 19.3748 17.7603 17.2951 21.2391 17.1125 16.9163 18.2655 17.7307 17.8375 16.7004
threshold=0.24835267663002017 0.4388850629329682 0.1974752098321915 0.03335204720497132 0.0211641313508153 0.31153038144111639 0.026485448703169826 0.018600091338157657 0.15906839072704318 0.5786951780319215 0.015828571282327179 0.31018199026584631 0.44416454434394842 0.16113930940628055 0.22856371849775317 0.35744395852088934 0.032140363007783897 0.38956347107887274 -0.0073564548511058083 0.24867437779903415 0.17435429990291598 0.43246769905090338 0.79853567481040966 0.047187330201268203 0.28053753077983862 39.894931793212898 0.021027430891990665 0.24226553738117221 375.08491516113287 0.26561897993087774
decision_type=2 2 2 2 2 2 2 2 2 2 2 2 2 2 2 2 2 2 2 2 2 2 2 2 2 2 2 2 2 2
left_child=2 4 8 -3 11 19 15 14 13 12 -10 24 -5 -1 -4 -7 17 18 -8 -6 -18 -21 -22 -24 -2 27 -27 28 29 -9
right_child=1 3 7 9 5 6 16 25 10 -11 -12 -13 -14 -15 -16 -17 20 -19 -20 21 22 -23 23 -25 -26 26 -28 -29 -30 -31
leaf_value=0.017732600755418836 -0.010951008855933449 -0.027097460206273884 -0.0069424817327998715 -0.014828477053349909 -0.0054130240637426923 -0.010223088365831594 0.0057607921771096957 7.9025090901975071e-05 0.0025289872266858957 -0.019129551573784764 0.011428579445170901 -0.023598015142891726 -0.0031376685113433615 0.0091863260218394902 0.0030551455584120319 -0.021479778681626427 0.0053959405901901781 -0.014794993939742859 -0.0056118219996313459 0.0029819273382249096 0.01329853701039207 -0.0070735435634188774 -0.0069492396472634992 0.038435188044228741 0.00067382755634388101 0.002948589965988695 0.0090467952452652056 0.0069714501232528833 -0.028083368420731659 -0.02596268478584637
leaf_weight=3331.7346627116203 1577.0954996347427 1083.7842095047235 1816.4766697138548 818.19727353751659 1088.7477342039347 1399.8170856684446 573.62324231863022 547.11392204463482 1799.0459069311619 1590.2173882424831 4543.2799138426781 488.66187006235123 1186.4289742857218 1144.2533874809742 925.8268740773201 702.81310746073723 1165.0088033676147 714.99055363237858 1927.8226031213999 4921.58302038908 133.08008559048176 481.79491063952446 1031.6450090110302 26.311482548713684 395.06644707918167 2428.0845119804144 2491.0517507195473 455.32482516765594 78.972157180309296 69.216773271560669
leaf_count=11943 6245 4593 7085 3286 4192 5549 2202 2047 6740 6572 16585 2045 4629 4158 3520 2925 4456 2884 7441 18729 509 1845 3956 101 1549 9180 9258 1703 296 259
internal_value=1.84367e-05 -0.00677934 0.00739696 -0.016172 -0.00413614 -0.00283977 -0.00594126 0.00216938 0.0116546 -0.0128762 0.00890501 -0.011597 -0.00791232 0.0155492 -0.00356538 -0.0139889 -0.0029036 -0.00562525 -0.00300177 0.000826132 0.000809901 0.00208429 -0.0036718 -0.00581227 -0.00861985 0.00476116 0.00603786 -0.000692646 -0.00571901 -0.0028412
internal_weight=40937.1 21306.7 19630.4 4678.63 16628.1 14167.2 7675.11 8812.07 10818.3 3594.84 6342.33 2460.82 2004.63 4475.99 2742.3 2102.63 5572.48 3216.44 2501.45 6492.13 2356.05 5403.38 1191.04 1057.96 1972.16 6069.76 4919.14 1150.63 695.303 616.331
internal_count=156482 83708 72774 19080 64628 54789 30023 33348 39426 14487 23325 9839 7915 16101 10605 8474 21549 12527 9643 24766 9022 20574 4566 4057 7794 22743 18438 4305 2602 2306
is_linear=0
shrinkage=0.05


Tree=13
num_leaves=31
num_cat=0
split_feature=6 6 6 22 6 11 22 11 6 22 6 11 25 6 3 14 25 11 14 22 14 6 11 25 0 8 6 3 13 25
split_gain=2004.01 617.432 306.723 122.418 122.032 111.365 97.0195 94.7447 67.7475 62.1139 52.9925 45.7531 40.5746 37.6042 37.4888 41.5836 33.5533 33.1613 40.742 28.8344 28.7842 28.6563 28.5151 27.264 26.9159 26.6512 23.6956 23.3655 20.1877 19.5422
threshold=0.29758785665035253 0.19369860738515857 0.50109741091728222 0.39616957306861883 0.15024759620428088 1.0862604975700381 0.83058625459671032 1.0952248573303225 0.35744395852088934 0.76565268635749828 0.23099558055400851 0.66929623484611522 -0.012417169753462074 0.23782438784837726 0.72326448559761058 64.207588195800795 -0.0063205743208527556 0.74781903624534618 66.966148376464858 0.6086949110031129 64.207588195800795 0.11564504727721216 0.78620976209640514 0.016126490198075775 -0.016282358206808564 1.031650245189667 0.34869545698165899 0.38604898750782018 0.99181461334228527 -0.010180748533457516
decision_type=2 2 2 2 2 2 2 2 2 2 2 2 2 2 2 2 2 2 2 2 2 2 2 2 2 2 2 2 2 2
left_child=1 4 5 7 21 6 8 10 17 11 -3 -4 -13 -5 15 22 -7 -2 -19 -6 -15 -1 -10 26 -12 -25 -18 -8 -23 -26
right_child=2 3 9 13 19 16 27 -9 14 -11 24 12 -14 20 -16 -17 23 18 -20 -21 -22 28 -24 25 29 -27 -28 -29 -30 -31
leaf_value=-0.031652207961622061 -0.010616902038592949 -0.0019412944597522797 0.0097135822452525875 -0.011825565423703728 -0.010652410291020915 -0.0031625834802201619 0.0028453854846365086 -0.009127953250801674 0.0021729751407961934 0.010453130531332993 -0.0045341112400989819 0.015542752293611498 0.030470881351812043 -0.0063725768816746443 -0.033807560181114284 0.027826852516112294 0.0019507307904236158 0.0089237530595514519 0.02421692763031992 -0.017122554126275721 0.005522777026487625 -0.016840279402572014 0.017479524045087465 -0.002537647195158494 -0.0057916587895759757 -0.04631915506787488 0.010652138259297516 -0.02348760029926459 -0.02423417041152609 0.0057246130993039461
leaf_weight=690.63354706764221 192.67985773086548 5840.4379172623158 376.05283707380295 3119.8026792705059 7193.5231201350689 1556.1266511380672 1870.454991877079 2338.6401709616184 334.65918239951134 740.70804387331009 791.31171980500221 542.60571631789207 2885.5610251128674 2877.4293692708015 34.370903313159943 952.5027981698513 1322.0258926153183 4135.5944101512432 487.27768504619598 2269.4266530871391 617.2054186463356 1855.0874950885773 3439.7515405416489 348.85575610399246 387.37377989292145 38.552682995796204 1922.5354577302933 88.086283832788467 1855.5032609701157 7324.5442166924477
leaf_count=1847 516 15595 1017 8326 19191 4164 5019 6243 898 2000 2114 1466 7835 7687 92 2583 3535 11087 1311 6055 1651 4954 9277 933 1035 103 5161 236 4959 19592
internal_value=-4.53707e-05 -0.00705078 0.0121945 -0.00207863 -0.0154053 0.00906366 0.0118001 0.000203338 0.0138738 0.023713 0.00172515 0.0262932 0.0281101 -0.00783466 0.0181044 0.0184836 0.00297824 0.00968965 0.0105373 -0.0122048 -0.00427015 -0.0222851 0.0161238 0.00561069 0.00424402 -0.00691827 0.00710838 0.00165736 -0.0205395 0.00514543
internal_weight=58429.3 37160.9 21268.4 23296.7 13864.2 16723.5 11535.4 16682.3 9576.84 4544.93 14343.7 3804.22 3428.17 6614.44 4761.28 4726.91 5188.1 4815.55 4622.87 9462.95 3494.63 4401.22 3774.41 3631.97 8503.23 387.408 3244.56 1958.54 3710.59 7711.92
internal_count=156482 99249 57233 62243 37006 44915 31019 44579 25764 12318 38336 10318 9301 17664 12850 12758 13896 12914 12398 25246 9338 11760 10175 9732 22741 1036 8696 5255 9913 20627
is_linear=0
shrinkage=0.05


Tree=14
num_leaves=31
num_cat=0
split_feature=6 21 6 6 21 21 21 6 21 6 21 11 6 6 21 6 21 12 6 6 7 18 19 16 7 11 7 6 6 24
split_gain=612.418 212.704 163.974 159.172 239.256 93.3298 84.8087 83.1788 71.2126 100.43 69.8867 53.0658 49.1234 42.9591 41.7361 34.912 33.1517 30.402 29.1251 28.4424 27.765 27.5673 25.5653 24.5656 24.4103 24.1443 24.5322 22.5831 22.5753 21.9131
threshold=0.32113374769687658 0.027631905861198906 0.54467478394508373 0.22721430659294131 0.023744776844978336 0.0461298804730177 0.035685854032635696 0.39243914186954504 0.019831066019833091 0.16611105203628543 0.020027485676109794 1.1785822510719302 0.35744395852088934 0.42215783894062048 0.041909005492925651 0.25420199334621435 0.027279512956738475 0.9885375201702119 0.26920406520366674 0.27151979506015783 0.35179385542869573 637.69244384765636 109.1437339782715 0.20379624515771869 0.36199197173118597 1.1604881286621096 0.2884033471345902 0.13783485442399981 1.0035248994827273 0.08806821703910829
decision_type=2 2 2 2 2 2 2 2 2 2 2 2 2 2 2 2 2 2 2 2 2 2 2 2 2 2 2 2 2 2
left_child=3 12 6 8 10 -4 7 -3 9 17 19 16 24 -8 -15 -12 18 -1 23 -5 -11 -14 -22 -6 -2 26 -10 -19 -7 -17
right_child=1 2 5 4 11 28 13 -9 25 20 15 -13 21 14 -16 29 -18 27 -20 -21 22 -23 -24 -25 -26 -27 -28 -29 -30 -31
leaf_value=0.0046692539523535683 -0.0160750646439352 -1.5092783803374573e-05 -0.027698659580447073 -0.0096643189655639221 0.01441730642820325 -0.00541987762384364 0.014001558725999654 -0.013506028276355648 0.0091859132923632295 0.0013550854222939164 0.0024695061983547183 0.019326779894224849 -0.027305166189164773 -0.0060975532976366145 0.0092541074862629025 0.0047341353413014112 0.011108027476519969 0.017756396393063877 -0.00085924891479890119 -0.022322168384803887 0.041359319402418396 0.0026900685004055441 0.0044582247581093012 0.001290889732889004 0.0022306632560998916 0.027381429346509219 0.018510733960001611 0.0099961137679356465 -0.026412279680234903 -0.0074428005889534566
leaf_weight=1615.1940152943134 1432.8550772964954 2693.9354276359081 1070.2753856778145 2212.0679601430893 765.93074628710747 1155.732696980238 940.46578100323677 1984.8033101856709 2241.8529742062092 7877.3123177587986 2167.3882262706757 798.04561144113541 1620.182570785284 984.95172208547592 803.95441618561745 427.23161378502846 1775.6803257167339 1464.4151819944382 2189.9762404859066 556.41716057062149 83.636806339025497 80.066185474395752 107.65242454409599 668.32219260931015 208.06227681040764 282.4198332130909 1032.3293811678886 2623.6286031603813 144.16924327611923 2708.1811715662479
leaf_count=5490 5224 9438 4101 7945 2583 4164 3184 7267 7550 27265 7510 2672 6165 3506 2760 1514 6069 4885 7642 2077 288 299 371 2292 751 942 3463 8871 538 9656
internal_value=4.22933e-05 -0.00903841 -0.00531611 0.0038128 -9.75625e-05 -0.016763 -0.0016529 -0.00573942 0.00703309 0.00540353 -0.00577141 0.00729037 -0.0199302 0.00535041 0.000798991 -0.0024084 0.00551028 0.0104823 0.00276607 -0.0122108 0.00181296 -0.0258896 0.0206317 0.00830476 -0.0137509 0.0133413 0.012128 0.0127776 -0.0077538 -0.00578188
internal_weight=44717.1 13119.5 9778.29 31597.7 14269.2 2370.18 7408.11 4678.74 17328.4 13771.8 8071.29 6197.96 3341.17 2729.37 1788.91 5302.8 5399.91 5703.24 3624.23 2768.49 8068.6 1700.25 191.289 1434.25 1640.92 3556.6 3274.18 4088.04 1299.9 3135.41
internal_count=156482 47397 34958 109085 49960 8803 26155 16705 59125 47170 28702 21258 12439 9450 6266 18680 18586 19246 12517 10022 27924 6464 659 4875 5975 11955 11013 13756 4702 11170
is_linear=0
shrinkage=0.05


Tree=15
num_leaves=31
num_cat=0
split_feature=6 6 6 21 6 21 21 6 7 6 5 25 21 21 6 6 7 10 6 6 7 11 24 24 10 6 21 6 21 24
split_gain=763.552 210.528 119.84 74.1918 80.3586 70.3313 58.605 48.3655 47.8715 41.0373 36.2674 25.6509 27.8307 25.0868 33.1912 27.9661 24.22 24.2105 22.6359 22.4313 21.9987 20.674 19.4056 18.7184 18.0656 19.5588 26.7654 17.6323 17.0889 17.5898
threshold=0.23782438784837726 0.44330653548240667 0.1974752098321915 0.021377226337790493 0.31153038144111639 0.03335204720497132 0.025552707724273208 0.5786951780319215 0.20946463942527774 0.29623942077159887 0.16652682423591617 -0.0066004546824842683 0.031488932669162757 0.017740029841661457 0.1199379898607731 0.1732861325144768 0.19642511755228045 0.97577539086341869 0.38956347107887274 0.36840897798538214 0.39741151034832006 0.77602544426918041 0.083603184670209899 0.15850285440683368 0.88892671465873729 0.16027076542377475 0.01455300208181143 0.27717548608779913 0.023087779060006145 0.10619501769542695
decision_type=2 2 2 2 2 2 2 2 2 2 2 2 2 2 2 2 2 2 2 2 2 2 2 2 2 2 2 2 2 2
left_child=2 3 10 9 27 -3 19 20 17 16 13 23 18 14 -1 -15 -2 -4 -13 -6 -7 -10 -12 -8 -16 -26 -27 -5 29 -23
right_child=1 5 8 4 6 7 11 -9 21 -11 22 12 -14 15 24 -17 -18 -19 -20 -21 -22 28 -24 -25 25 26 -28 -29 -30 -31
leaf_value=0.022124715605642817 -0.022484679255313878 -0.027364394987352575 -0.01250342942148909 0.0040911627436523478 -0.010942468574042602 -0.017597064694543928 0.0072847981667721537 -0.018854740826584351 0.022578188783847927 -0.020627038257123309 0.010092930809089585 -0.006324338474450162 -0.00079495574433035036 0.027837994665754248 0.045800972903264653 0.01337823257491126 -0.0059798389146433735 -0.00020260052144611626 -0.017577689185420017 -0.025014132271342734 -0.0041922376539026479 0.0053909691756384073 0.003124912293486127 -0.0032390006824270096 0.012791558505479451 -0.0042273711777486055 0.0094023642189530535 -0.00087323854247582297 0.010689880096957559 -0.001480926893143671
leaf_weight=671.15748071670532 243.35496959090233 1012.5131295472383 613.75173532962799 3714.2200565934181 1158.070046171546 385.62391902506351 805.2498494386673 1566.6768326312304 162.65476083755493 739.78250101208687 2531.92177054286 2071.2988529205322 1878.7601373046637 564.79671511054039 35.416923046112061 825.99016386270523 2593.9742932617664 1150.7566464245319 570.90616023540497 376.23331481218338 1491.6764953434467 2822.0135164558887 1654.8619655370712 888.12706734240055 2651.7499199807644 467.31571105122566 1564.1540783047676 3447.2463905662298 908.21212464570999 1388.2740772068501
leaf_count=2346 976 4393 2386 14038 4665 1572 3107 6594 607 3106 9234 8081 7245 1990 127 2965 10143 4427 2350 1618 5919 10634 6026 3449 9430 1749 5724 13209 3320 5215
internal_value=2.82517e-05 -0.00602068 0.00773321 -0.00366873 -0.00211683 -0.015776 -0.0056458 -0.0123669 0.00264398 -0.0101358 0.0110021 -0.00348398 -0.00545022 0.0132624 0.0117147 0.0192555 -0.00739795 -0.00448452 -0.00875834 -0.0143977 -0.00694923 0.0050267 0.0073401 0.00176255 0.0102326 0.00996153 0.00626449 0.00170082 0.00446755 0.0031239
internal_weight=40956.7 22943.7 18013 18487.2 14910.1 4456.49 7748.65 3443.98 7045.66 3577.11 10967.4 6214.34 4520.97 6780.58 5389.79 1390.79 2837.33 1764.51 2642.21 1534.3 1877.3 5281.15 4186.78 1693.38 4718.64 4683.22 2031.47 7161.47 5118.5 4210.29
internal_count=156645 90465 66180 71987 57762 18478 30515 14085 26589 14225 39591 24232 17676 24331 19376 4955 11119 6813 10431 6283 7491 19776 15260 6556 17030 16903 7473 27247 19169 15849
is_linear=0
shrinkage=0.05


Tree=16
num_leaves=31
num_cat=0
split_feature=6 6 21 21 6 6 21 21 21 6 6 21 6 21 6 21 6 21 6 21 7 6 21 6 7 7 21 6 21 21
split_gain=1818.94 555.642 395.014 297.97 244.139 230.703 229.226 163.491 147.306 99.1983 96.3864 135.379 92.2153 84.3619 77.652 61.0177 85.9635 53.2458 49.6624 49.569 38.4573 36.6507 35.2389 33.773 32.6324 32.3914 30.5506 29.6225 29.4275 28.0062
threshold=0.23782438784837726 0.35744395852088934 0.022853964008390907 0.027631905861198906 0.17743299156427386 0.53522902727127086 0.019831066019833091 0.036791216582059867 0.039014324545860297 0.2883052676916123 0.29080584645271307 0.028024271130561832 0.19940516352653506 0.019963557831943039 0.42614053189754492 0.017409257590770725 0.13975262641906741 0.023409382440149788 1.0035248994827273 0.048399522900581367 0.20946463942527774 0.20393287390470508 0.032607011497020728 0.40462657809257513 0.20273219794034961 0.19642511755228045 0.028577120974659923 0.44822232425212866 0.051581624895334251 0.03335204720497132
decision_type=2 2 2 2 2 2 2 2 2 2 2 2 2 2 2 2 2 2 2 2 2 2 2 2 2 2 2 2 2 2
left_child=4 2 9 23 15 7 12 14 -7 13 26 -12 -6 25 -5 16 -1 21 19 -10 -14 -8 -13 -3 -18 -2 -4 -9 -29 -16
right_child=1 3 10 5 6 8 17 27 18 -11 11 22 20 -15 29 -17 24 -19 -20 -21 -22 -23 -24 -25 -26 -27 -28 28 -30 -31
leaf_value=-0.021757997320630565 0.030507712308836261 0.026454241695739001 -0.0066021411981118348 0.0078921932766271661 -0.0067302242082437139 0.04079937980127879 -0.018584444928704365 -0.008756324294424073 0.023089978191290664 0.021305541117946806 0.0066632169221200344 -0.003665663546743594 0.0088244173442752691 0.0032946511346279776 0.026869205027268323 -0.024292132953357182 -0.0079709734461175553 -0.023190534282145084 0.039882478966754661 0.0084550275191354225 -0.00020195725992158556 -0.0085666984076436126 -0.01524199079921265 0.038522032114591431 -0.016220125918130667 0.013253573466895568 -0.017775318505669567 0.0038659641431538615 -0.023338050388090077 0.013837278997297364
leaf_weight=2649.0330907404423 317.03832197189331 1362.1924279332161 4623.3975825607777 3046.5522235035896 4209.1478908956051 853.16172796487808 1292.7715786099434 1178.3324786126614 1014.0598019659519 1901.9714016616344 4190.4983758628368 2324.9609092473984 1940.67421028018 3518.6200973987579 961.59559759497643 1929.8766418099403 3566.1280514597893 1251.8963303267956 214.30917808413506 1351.3228245377541 3007.7383421957493 3122.3724413216114 917.49973320960999 1017.9047192037106 1809.8620997071266 1941.8673952817917 705.92525219917297 1363.8779723346233 107.09503251314163 726.17323011159897
leaf_count=7097 854 3722 12338 8179 11227 2360 3453 3146 2766 5145 11228 6204 5190 9405 2617 5159 9518 3345 586 3650 8031 8328 2447 2821 4832 5220 1883 3652 286 1956
internal_value=3.06285e-05 0.00760314 0.0024396 0.0156011 -0.0102489 0.0120758 -0.00618134 0.00709561 0.0227856 0.0113998 -0.00295171 0.000727013 -0.00128968 0.00813762 0.0126614 -0.0163056 -0.0143841 -0.0140849 0.0168248 0.014732 0.00333711 -0.0115014 -0.00694326 0.0316188 -0.0107493 0.0156787 -0.00808339 -0.0028487 0.00188051 0.0212663
internal_weight=58417.9 33638.4 20441.8 13196.6 24779.5 10816.5 14824.6 7383.63 3432.85 7679.5 12762.3 7432.96 9157.56 5777.53 4734.32 9954.9 8025.02 5667.04 2579.69 2365.38 4948.41 4415.14 3242.46 2380.1 5375.99 2258.91 5329.32 2649.31 1470.97 1687.77
internal_count=156645 90465 54724 35741 66180 29198 39574 19836 9362 20624 34100 19879 24448 15479 12752 26606 21447 15126 7002 6416 13221 11781 8651 6543 14350 6074 14221 7084 3938 4573
is_linear=0
shrinkage=0.05


Tree=17
num_leaves=31
num_cat=0
split_feature=24 14 22 22 7 24 24 0 25 5 24 7 11 5 5 22 13 24 14 11 3 10 21 1 25 18 2 11 10 24
split_gain=251.907 108.866 96.3798 66.5911 55.2731 39.5531 37.5498 33.7116 46.7948 31.7777 31.4165 47.0247 35.5574 30.5053 29.7924 27.9094 26.871 25.4653 24.5941 20.9783 20.6949 20.5833 19.955 19.453 17.2277 17.0817 15.9612 15.3908 18.8489 14.5454
threshold=0.11455952748656274 39.510581970214851 -0.12343027815222739 0.44204153120517736 0.41651193797588354 0.053358219563961036 0.21037127077579501 -0.0068541569635272017 0.016126490198075775 0.69644683599472057 0.1626386567950249 0.44416454434394842 1.0906175374984743 0.30583111941814428 0.56512278318405162 1.1672569513320925 0.99069300293922435 0.23825576156377795 28.637845039367679 1.0841557979583742 0.38604898750782018 1.0999416112899782 0.022245686501264576 0.083153348416090025 -0.0054432186298072329 97.691036224365249 -0.035725742578506463 0.63061410188674938 0.8936825990676881 0.088530547916889205
decision_type=2 2 2 2 2 2 2 2 2 2 2 2 2 2 2 2 2 2 2 2 2 2 2 2 2 2 2 2 2 2
left_child=2 6 4 10 5 -1 14 8 -8 20 12 -12 -3 15 21 16 -4 -13 -10 29 23 -2 -15 -5 -24 -6 -23 28 -19 -7
right_child=1 3 13 9 25 19 7 -9 18 -11 11 17 -14 22 -16 -17 -18 27 -20 -21 -22 26 24 -25 -26 -27 -28 -29 -30 -31
leaf_value=0.010302534351357029 0.0035377578602780648 -0.0071284528520126405 0.0028180906790000299 0.0017239860091627223 0.03501064015686451 0.00011631541126368074 0.00062461584144812431 -0.010511495272274397 0.096741675852301409 -0.014810746376895018 -0.014678497227888988 -7.1915405570361927e-05 0.00222768257886575 -0.005371588340226407 -0.011978075297753805 0.012671695804726813 0.0093292635889788127 -0.0037742646274229437 0.019938342843736828 0.0051450165306390662 0.018058035903058937 0.012898745363548389 -0.0049699542072853594 -0.010527654934672621 0.0097754551115470569 0.011708448773908163 -0.018278598850167187 -0.013340951313395438 0.044206509185539165 -0.0037640743742354808
leaf_weight=865.4813916683197 2070.398800522089 6118.703571125865 2825.8186003267765 2946.5570921003819 127.4227420091629 5489.8168368339539 908.07652282714844 887.29202230274677 18.854535400867462 337.23220413923264 3043.2244540452957 1179.9726036936045 1216.5976627469063 723.88756832480431 231.97079862654209 2533.9153592586517 3615.4834133684635 129.10264843702316 23.76748976111412 1310.8171173632145 174.11853447556496 1151.3736484050751 276.07791814208031 363.88843566179276 697.42496711015701 208.23248580098152 42.35389232635498 886.10033491253853 24.199527442455292 4308.2562680542469
leaf_count=2905 7157 21864 9692 10371 431 18911 3214 3178 64 1245 11208 4243 4262 2537 841 8580 12271 477 83 4504 612 3947 960 1312 2428 713 144 3307 87 15097
internal_value=-6.59719e-05 -0.00392256 0.0035842 -0.00593867 0.00056887 7.4292e-06 0.00228259 -0.00350145 0.00303622 -0.000156217 -0.00769247 -0.0106414 -0.005576 0.00706163 0.00532485 0.00822419 0.00647366 -0.00510304 0.0541775 -0.000794287 0.00126098 0.00655637 0.000911386 0.000375482 0.00558855 0.0205772 0.0117869 -0.0108092 0.00379103 -0.00158942
internal_weight=44736.4 21753.8 22982.6 16419.7 12310 11974.4 5334.09 1837.99 950.699 3821.8 12597.9 5262.6 7335.3 10672.6 3496.1 8975.22 6441.3 2219.38 42.622 11108.9 3484.56 3264.13 1697.39 3310.45 973.503 335.655 1193.73 1039.4 153.302 9798.07
internal_count=156645 77616 79029 58988 42561 41417 18628 6539 3361 13540 45448 19322 26126 36468 12089 30543 21963 8114 147 38512 12295 11248 5925 11683 3388 1144 4091 3871 564 34008
is_linear=0
shrinkage=0.05


Tree=18
num_leaves=31
num_cat=0
split_feature=24 24 24 22 5 5 22 25 0 22 25 5 10 5 5 2 19 10 13 5 10 3 9 7 7 2 3 25 19 0
split_gain=504.491 101.883 84.422 31.0169 27.9811 26.5365 24.3025 27.7663 22.3296 21.3319 23.27 21.3268 17.4262 16.2611 16.2352 13.9957 15.1473 16.4182 13.3741 13.2365 12.8114 12.7744 13.1718 12.9264 16.6305 12.5975 12.1898 14.2826 12.0464 11.6799
threshold=0.1203061453998089 0.19004284590482715 0.084014590829610838 1.0805668830871584 0.32024984061717993 0.64764532446861278 0.76565268635749828 -0.00674388906918466 0.0015109230880625548 0.35174761712551122 -0.0066004546824842683 0.94556981325149547 1.1437556147575381 0.14405428618192676 0.17488013207912448 -0.06516306102275847 455.09497070312506 1.0226388573646548 1.0639199614524844 0.38511012494564062 0.93726032972335827 0.30356854200363165 1.0102724432945254 0.2640348225831986 0.24591466784477237 0.045644231140613563 -0.17150596529245374 -0.0085932631045579893 737.22351074218761 0.0048354789614677438
decision_type=2 2 2 2 2 2 2 2 2 2 2 2 2 2 2 2 2 2 2 2 2 2 2 2 2 2 2 2 2 2
left_child=2 5 4 26 13 6 7 8 -2 10 18 -5 -7 -1 -12 16 17 -8 -4 20 25 -9 23 24 -23 -11 28 -28 -3 -27
right_child=1 3 9 11 -6 12 15 21 -10 19 14 -13 -14 -15 -16 -17 -18 -19 -20 -21 -22 22 -24 -25 -26 29 27 -29 -30 -31
leaf_value=0.011135326040820348 -0.0016954289585680762 -0.018496823569774334 0.0066479628504658916 0.000553505659807232 -0.0030067546280675775 -0.01839707536019311 0.042095500909432433 -0.0061731750191427234 0.011872793905834931 0.033020139252504931 0.0024726202864265093 -0.022366486841042348 0.037468755785296778 0.0070682012390599711 -0.0022177651942779683 -0.0011082285387504444 0.036717952987712736 0.0036880855139240902 0.054453065172198473 -0.0025466827080953183 0.0050515746118152466 0.0071352478216298344 0.032062454466407354 -0.0037764986287841425 0.071634504690500769 0.019958462908343497 -0.0059444618209221972 -0.013635710316138392 0.023127873719372 0.0038535014616600666
leaf_weight=4224.4126696288586 1456.0830087661743 1153.5927885919809 1185.7478846907616 687.87150581181049 530.63582506775856 387.25410363078117 29.208506405353546 7422.3311266005039 382.78676497936249 71.981921002268791 3179.6260505467653 118.88497689366341 14.333503738045691 5908.9827166646719 4394.2559543848038 1609.2108079344034 41.823964074254036 565.65515296161175 14.748038604855536 462.67961476743221 2612.4848054945469 43.409316062927246 35.243780866265297 318.51268544793129 12.983554780483244 192.20155163109303 772.28121235966682 2810.3518741130829 17.460386350750923 274.07478906214237
leaf_count=15182 5662 4739 4484 2727 2027 1608 111 29066 1485 272 11899 508 58 21788 16785 6205 159 2152 56 1800 9796 163 136 1247 50 710 3133 11545 70 1022
internal_value=2.79065e-05 -0.00627496 0.00491671 -0.0118932 0.00817808 -0.00373851 -0.0033119 -0.00440009 0.00112676 0.00210871 0.000776525 -0.00282018 -0.0163818 0.00876429 -0.000248006 0.00137186 0.00764725 0.0055891 0.0072439 0.00534211 0.0065022 -0.00569829 0.00288276 0.000118514 0.0221742 0.0135314 -0.0134319 -0.0119794 -0.01787 0.0105056
internal_weight=40931.1 17879.3 23051.8 5560.44 10664 12318.8 11917.2 9671.35 1838.87 12387.8 8774.38 806.756 401.588 10133.4 7573.88 2245.9 636.688 594.864 1200.5 3613.42 3150.74 7832.48 410.149 374.906 56.3929 538.258 4753.69 3582.63 1171.05 466.276
internal_count=156645 70824 85821 22722 38997 48102 46436 37809 7147 46824 33224 3235 1666 36970 28684 8627 2422 2263 4540 13600 11800 30662 1596 1460 213 2004 19487 14678 4809 1732
is_linear=0
shrinkage=0.05


Tree=19
num_leaves=31
num_cat=0
split_feature=6 6 21 21 6 21 6 21 21 6 21 6 21 6 6 21 6 21 6 21 21 7 21 6 6 21 7 21 6 6
split_gain=1640.95 499.127 363.146 277.833 225.688 216.031 212.289 151.296 139.685 96.0647 90.8409 87.6651 106.456 83.1914 70.7178 56.4996 79.2223 49.9424 46.8358 46.7547 44.719 38.6191 32.3304 32.1684 31.8703 30.7734 30.4884 29.5463 27.2437 27.0612
threshold=0.23875519633293155 0.35744395852088934 0.023087779060006145 0.027631905861198906 0.17743299156427386 0.020158480852842334 0.53522902727127086 0.036791216582059867 0.039014324545860297 0.27953064441680914 0.01956972107291222 0.30589969456195837 0.028294346295297149 0.20031728595495227 0.44822232425212866 0.017409257590770725 0.13783485442399981 0.028577120974659923 1.0035248994827273 0.048399522900581367 0.023496712557971481 0.20946463942527774 0.021027430891990665 0.20393287390470508 0.42215783894062048 0.016211665235459808 0.20273219794034961 0.032607011497020728 0.28698079288005834 0.44822232425212866
decision_type=2 2 2 2 2 2 2 2 2 2 2 2 2 2 2 2 2 2 2 2 2 2 2 2 2 2 2 2 2 2
left_child=4 2 9 24 15 13 7 14 -8 10 -2 17 -13 25 -5 16 -1 28 19 -10 23 -15 -11 -7 -3 -6 -18 -14 -4 -9
right_child=1 3 11 6 5 20 8 29 18 22 -12 12 27 21 -16 -17 26 -19 -20 -21 -22 -23 -24 -25 -26 -27 -28 -29 -30 -31
leaf_value=-0.021201029482156825 0.016395002344953405 0.026356352775029582 -0.007198527292106076 0.0086399884028726601 -0.00011558169302292067 -0.018748783420358878 0.039426960764022356 -0.0085201939873938929 0.022084952544630013 0.024488664082092829 0.0022818383540995748 0.0080531862875800071 -0.0021595851367553656 0.0083422339983338558 0.02303076083260221 -0.023204199975097355 -0.0077671478735192243 -0.016335425856083177 0.038470093209995358 0.0078436128802592316 -0.022285093496070642 -0.00048120363476533435 0.013430142600736335 -0.0086354563316402254 0.038788368197440817 -0.0091019960843672001 -0.015609405991845522 -0.013685077192609163 0.00044751547627818746 0.0016470495565661766
leaf_weight=2429.3565092980862 1667.3645051717758 1592.8213158845901 3913.2852202951908 3603.9236248731613 1359.8201655447483 1088.8424092829227 843.79684937000275 1178.477804005146 1008.7856523692608 1196.6550488770008 3609.158047825098 2965.9167111814022 1721.7441691756248 1971.9609469175339 1119.6930128633976 1926.1073443591595 3725.0173341333866 1158.6376928985119 212.38922825455666 1348.3336910009384 1254.4935078024864 3338.6720625162125 1484.98287114501 2845.1437764465809 767.70256817340851 3190.565031349659 1861.3438495099545 822.22306668758392 1657.1363610327244 1470.1930100917816
leaf_count=6525 4493 4386 10441 9699 3627 2912 2360 3146 2766 3258 9653 7961 4594 5277 3053 5159 9948 3091 586 3650 3357 8914 4000 7589 2157 8512 4974 2193 4426 3938
internal_value=2.17505e-05 0.00728198 0.00234622 0.0148646 -0.00966458 -0.00580207 0.0114631 0.00668892 0.0217728 0.0106607 0.00674273 -0.00305976 0.00161595 -0.00145611 0.0120527 -0.0155108 -0.0136613 -0.00688904 0.0159722 0.0139413 -0.0140607 0.0027943 0.0183675 -0.0114363 0.0304032 -0.00641769 -0.0103813 -0.00588704 -0.00492305 -0.00287494
internal_weight=58334.5 33343.2 20197.1 13146.1 24991.3 15049.5 10785.6 7372.29 3413.31 7958.16 5276.52 12238.9 5509.88 9861.02 4723.62 9941.83 8015.72 6729.06 2569.51 2357.12 5188.48 5310.63 2681.64 3933.99 2360.52 4550.39 5586.36 2543.97 5570.42 2648.67
internal_count=156645 89851 54110 35741 66794 40188 29198 19836 9362 21404 14146 32706 14748 26330 12752 26606 21447 17958 7002 6416 13858 14191 7258 10501 6543 12139 14922 6787 14867 7084
is_linear=0
shrinkage=0.05


Tree=20
num_leaves=31
num_cat=0
split_feature=6 21 6 21 21 6 21 21 21 22 6 6 6 6 7 6 14 13 21 6 6 21 21 19 6 21 16 7 7 7
split_gain=506.252 176.616 146.966 224.844 108.777 107.676 86.4205 81.4452 77.6489 64.888 58.0767 37.6822 35.3183 34.0242 30.519 30.4563 29.6932 28.8994 27.6875 27.3707 26.8125 31.4615 26.7444 26.188 24.9115 28.5162 21.1024 20.671 20.5183 20.1614
threshold=0.34054112434387213 0.028024271130561832 0.22721430659294131 0.026271332986652855 0.020489319227635864 0.52587044239044201 0.042579282075166709 0.036404447630047805 0.022539361380040649 -0.1422731131315231 0.28313682973384863 0.39243914186954504 0.15666928142309192 0.26920406520366674 0.39484621584415441 0.42215783894062048 38.937433242797859 0.98802074790000927 0.024000931531190876 0.14880707859992984 1.0035248994827273 0.059425573796033866 0.018917633220553402 737.22351074218761 0.42215783894062048 0.041909005492925651 0.27899199724197393 0.22109718620777133 0.35179385542869573 0.34812897443771368
decision_type=2 2 2 2 2 2 2 2 2 2 2 2 2 2 2 2 2 2 2 2 2 2 2 2 2 2 2 2 2 2
left_child=2 15 8 4 13 7 -7 11 9 19 26 -3 17 27 16 18 -5 -11 -2 29 21 -8 -21 -20 -9 -26 -6 -4 -14 -1
right_child=1 5 3 14 10 6 20 24 -10 12 -12 -13 28 -15 -16 -17 -18 -19 23 22 -22 -23 -24 -25 25 -27 -28 -29 -30 -31
leaf_value=0.0073973814450746791 -0.026352642765723022 -0.001529709205340843 -0.014022520454193655 0.014278530724394979 0.0051440582858203483 -0.026660279999043714 -0.0099860482148099207 0.013094949293564237 0.019437537254055323 0.0072968116262587274 -0.0064292845723851666 -0.011434853039401567 0.0059571904673333381 -0.02001982090401656 0.017125206942091423 -0.031290128758864805 0.0038994715808856428 0.018968663323895303 -0.014580231287441009 -0.0010727938941103806 -0.028057565365399346 0.0063001560263257726 0.0057889084913546086 0.041511245625674147 -0.004755197369026248 0.0094341287533747341 -0.0011146584593777155 -0.0048268237692511828 0.022090921160877124 0.059250995911969188
leaf_weight=1696.0364876389503 659.58855439722538 1862.8739163577557 1033.7863547205925 995.88274165987968 2842.7392294406891 932.40980866551399 1123.498404443264 720.16561868786812 1036.04388910532 922.86287811398506 3074.3519360125065 1984.3869862109423 5523.4919351637363 875.64597433805466 991.02871644496918 574.75707609951496 2243.7726853489876 1253.0698297917843 1186.3467797338963 4898.4765995144844 146.94258445501328 402.38516014814377 1999.3149455785751 21.04163458943367 779.52316331863403 648.33994659781456 2557.1544661521912 1501.0637241005898 204.54474198818207 18.887983798980713
leaf_count=5625 2578 6568 3735 3355 9781 3710 4153 2421 3408 3083 11025 7362 18705 3304 3355 2313 7743 4090 4454 16920 571 1447 6787 78 2787 2217 8924 5401 682 63
internal_value=-5.40376e-05 -0.0093444 0.00299282 -0.000454513 -0.00397852 -0.00597413 -0.0144612 -0.0022851 0.00615815 0.00532475 -0.00094323 -0.00664017 0.0085964 -0.0115188 0.00944373 -0.0212127 0.00709192 0.0140212 -0.0181062 0.00232169 -0.00765739 -0.00568787 0.000915391 -0.0135952 0.00551273 0.00168436 0.00217931 -0.00857948 0.00653456 0.00797483
internal_weight=44710.4 11042.3 33668.2 16115.4 11884.7 8600.53 2605.24 5995.29 17552.7 16516.7 8474.25 3847.26 7903.97 3410.5 4230.68 2441.73 3239.66 2175.93 1866.98 8612.72 1672.83 1525.88 6897.79 1207.39 2148.03 1427.86 5399.89 2534.85 5728.04 1714.92
internal_count=156645 40659 115986 56623 42170 31236 9881 21355 59363 55955 29730 13930 26560 12440 14453 9423 11098 7173 7110 29395 6171 5600 23707 4532 7425 5004 18705 9136 19387 5688
is_linear=0
shrinkage=0.05


Tree=21
num_leaves=31
num_cat=0
split_feature=24 24 24 22 25 22 22 25 11 11 11 3 3 8 3 24 18 7 24 15 24 23 19 2 10 16 23 2 19 4
split_gain=455.665 93.7789 75.4992 29.1864 22.3413 24.178 19.7959 21.6214 19.7267 18.4802 17.6823 44.762 17.5428 15.7157 15.485 15.9582 16.6504 14.3854 16.7748 14.9845 14.8604 14.3283 14.3813 13.995 14.8434 13.8494 13.7831 13.6377 15.6151 13.5927
threshold=0.1203061453998089 0.19004284590482715 0.084014590829610838 1.0805668830871584 -0.00674388906918466 0.76565268635749828 0.35174761712551122 -0.0066004546824842683 0.94947585463523876 0.81837642192840587 1.1308135390281679 -0.0038635825039818879 -0.018781200051307675 0.98114246129989635 0.26890133321285253 0.096208665519952788 477.78790283203131 0.34635408222675329 0.068384032696485533 6.3760468959808358 0.071244165301322951 -1.5712337493896482 480.00407409667974 -0.035725742578506463 0.88892671465873729 0.5347278118133546 0.9672771990299226 -0.060239132493734353 455.09497070312506 0.001109819393604994
decision_type=2 2 2 2 2 2 2 2 2 2 2 2 2 2 2 2 2 2 2 2 2 2 2 2 2 2 2 2 2 2
left_child=2 4 9 -3 10 -6 7 8 -4 25 29 -12 -10 -11 15 16 -9 20 -19 -20 -15 -8 -23 -17 -25 -1 -18 28 -7 -2
right_child=1 3 6 -5 5 27 21 14 12 13 11 -13 -14 17 -16 23 26 18 19 -21 -22 22 -24 24 -26 -27 -28 -29 -30 -31
leaf_value=-0.017805310205449502 -0.0037347255158895754 -0.012918254768557989 -0.0013842931041132154 -0.0025957283592021145 -0.005810211973262148 0.0055960077204052104 -0.0038071821297440845 0.0011962157983847884 0.0050914819317700996 -0.00058446273705385036 0.0030806599440317377 0.045741012190742503 0.020428893305727346 0.0098612494248633432 0.011481137978949944 0.0023383689242184062 0.0057758760951750433 -0.016115252750528091 0.0085154818453485794 -0.043212588878122016 0.0058028265362473908 0.0053550956439753139 0.019156677138678815 0.025495490621155033 -0.004412017715107951 0.022024482628214784 0.031892248466600402 -0.0019540908928230029 0.04248783141382198 0.0063510765919099809
leaf_weight=23.241733565926552 1567.6781636476517 4695.9269343167543 446.92202241718769 803.21267116069794 7983.4979429543018 428.37314268946648 399.80403466522694 2462.6137935072184 424.93610507249832 586.51211611926556 484.9422128200531 70.382606863975525 333.81077955663204 5620.3223121464252 270.22333014011383 1134.4275708794594 134.19315493106842 130.97540073096752 255.83319318294525 14.687808290123938 3782.53752425313 3023.7773981839418 201.60752175748348 41.847352832555771 3450.0817820876837 313.97902725636959 81.571126267313957 1284.9916490763426 30.714533880352974 424.16629956662655
leaf_count=85 6112 19487 1685 3235 31463 1629 1487 9218 1598 2185 1873 271 1257 20197 1014 4278 506 476 949 54 13899 11351 762 156 13205 1152 307 4998 115 1641
internal_value=3.52032e-05 -0.00598502 0.00466079 -0.0114115 -0.00355345 -0.00464506 0.002004 0.000719955 0.00693888 0.00773256 0.000613411 0.00850375 0.0118476 0.00735779 -0.000269299 -0.000704818 0.00236562 0.00783342 -0.00142416 0.00567352 0.00822926 0.00511261 0.0062199 -0.00248351 -0.00405145 0.0192601 0.0156827 0.000685592 0.0080838 -0.00158422
internal_weight=40907.8 17773.9 23133.9 5499.14 12274.7 9727.58 12405.8 8780.63 1205.67 10728.1 2547.17 555.325 758.747 10390.9 7574.96 7304.73 2678.38 9804.36 401.496 270.521 9402.86 3625.19 3225.38 4626.36 3491.93 337.221 215.764 1744.08 459.088 1991.84
internal_count=156645 70824 85821 22722 48102 38205 46824 33224 4540 38997 9897 2144 2855 37760 28684 27670 10031 35575 1479 1003 34096 13600 12113 17639 13361 1237 813 6742 1744 7753
is_linear=0
shrinkage=0.05


Tree=22
num_leaves=31
num_cat=0
split_feature=6 6 21 21 6 21 6 21 21 6 21 6 21 6 6 21 6 21 6 6 21 21 7 21 6 7 21 6 21 7
split_gain=1478.04 449.648 333.348 258.107 206.59 199.965 199.717 135.125 122.558 87.5286 83.4953 80.3855 96.8666 79.8862 60.2055 53.5662 72.8745 47.0322 46.6384 45.5716 45.542 42.5029 41.5519 35.5919 33.3304 32.611 29.672 29.3386 28.7981 28.7017
threshold=0.23875519633293155 0.35744395852088934 0.023087779060006145 0.028429212048649791 0.17743299156427386 0.019831066019833091 0.50866442918777477 0.040646599605679519 0.036791216582059867 0.27953064441680914 0.019963557831943039 0.30589969456195837 0.028294346295297149 0.19940516352653506 0.64012962579727184 0.017409257590770725 0.13975262641906741 0.023496712557971481 0.46393030881881719 0.42614053189754492 0.028577120974659923 0.05621620640158654 0.43246769905090338 0.024084962904453281 0.20393287390470508 0.22196253389120105 0.021027430891990665 0.89027243852615368 0.051581624895334251 0.20273219794034961
decision_type=2 2 2 2 2 2 2 2 2 2 2 2 2 2 2 2 2 2 2 2 2 2 2 2 2 2 2 2 2 2
left_child=4 2 9 18 15 13 8 -8 19 10 -2 20 -13 -6 22 16 -1 24 23 -5 -4 -16 -9 -3 -7 -15 -11 -23 -10 -18
right_child=1 3 11 6 5 17 7 14 28 26 -12 12 -14 25 21 -17 29 -19 -20 -21 -22 27 -24 -25 -26 -27 -28 -29 -30 -31
leaf_value=-0.019791337107086651 0.014526102153630841 0.033269893726742383 -0.0047366062774528636 0.0063673191033309824 -0.0059934221177238177 -0.017165721886976883 0.032811452030546494 0.027005951452236828 -0.0033192299909995844 0.023461372308008571 0.0015523882882188134 0.0076770391113957469 -0.0056237586342052469 0.0071551104792513635 0.028722737406793084 -0.022280752874278453 -0.0070293529195112744 -0.021338746486277101 0.04132836557047298 0.017444138070228918 -0.015636596268791977 0.0033118719467542831 0.0012725041499404271 0.020007383022539016 -0.007690955492070408 -0.0009144624216852799 0.01284710343376004 0.024118127924051293 -0.034459498201838967 -0.014771590709290371
leaf_weight=2635.2725411653519 1996.7935092151165 776.5550836622715 5570.3946369886398 2740.7712260484695 4208.1561990082264 1299.7994524538517 1265.7014316618443 183.61013829708099 2161.2147854268551 1190.5055423378944 3275.2435745894909 2962.9271384477615 2543.8556786775589 2651.8204289376736 708.1696349978447 1922.000786960125 3562.9554799795151 1252.0315240621567 513.95242011547089 1406.2716402113438 1158.1710911989212 436.12188628315926 1077.2667843699455 1465.2531778812408 3261.699917703867 2369.8182384371758 1482.1631058454514 277.715506285429 76.835261791944504 1806.6000338196754
leaf_count=7097 5390 2183 14867 7367 11227 3480 3553 500 5778 3258 8756 7961 6787 7096 1953 5159 9518 3357 1470 3834 3091 1181 2912 4037 8702 6326 4000 768 205 4832
internal_value=1.17921e-05 0.00691254 0.00223074 0.01413 -0.00918234 -0.00548733 0.0105033 0.0193428 0.00503585 0.0102058 0.00646734 -0.00294725 0.00153184 -0.000911633 0.0129858 -0.0147812 -0.0129797 -0.0127509 0.0277271 0.010125 -0.00661374 0.0200397 0.00502564 0.024605 -0.0103922 0.00334597 0.0175777 0.0114157 -0.00439204 -0.00963541
internal_weight=58239.6 33269.5 20180.1 13089.4 24970.2 15043.3 10333.7 3948.59 6385.09 7944.71 5272.04 12235.3 5506.78 9229.79 2682.88 9926.83 8004.83 5813.53 2755.76 4147.04 6728.57 1422.01 1260.88 2241.81 4561.5 5021.64 2672.67 713.837 2238.05 5369.56
internal_count=156645 89851 54110 35741 66794 40188 28051 10867 17184 21404 14146 32706 14748 24649 7314 26606 21447 15539 7690 11201 17958 3902 3412 6220 12182 13422 7258 1949 5983 14350
is_linear=0
shrinkage=0.05


Tree=23
num_leaves=31
num_cat=0
split_feature=6 21 6 21 6 21 21 21 21 22 21 6 6 6 6 21 6 7 14 9 6 21 6 21 6 19 25 6 7 21
split_gain=451.36 165.266 124.887 199.962 101.988 80.7445 72.1357 68.5714 63.6412 60.0949 49.1361 43.9074 36.3385 33.8893 31.4972 31.1795 31.1547 27.4805 30.4231 26.7932 24.6735 29.1141 24.2001 24.0276 23.5595 22.8631 22.8615 21.5672 18.5574 18.4774
threshold=0.33675792813301092 0.028024271130561832 0.22721430659294131 0.023913882672786716 0.52587044239044201 0.042579282075166709 0.033861780539155013 0.022539361380040649 0.020027485676109794 -0.1422731131315231 0.028577120974659923 0.26484580338001257 0.25743339955806738 0.39243914186954504 0.42215783894062048 0.021659862250089649 0.15666928142309192 0.54983973503112804 28.637845039367679 0.99284708499908458 1.0035248994827273 0.059425573796033866 0.14880707859992984 0.018917633220553402 0.37881053984165197 737.22351074218761 0.01547639397904277 0.30036287009716039 0.35179385542869573 0.019763124175369743
decision_type=2 2 2 2 2 2 2 2 2 2 2 2 2 2 2 2 2 2 2 2 2 2 2 2 2 2 2 2 2 2
left_child=2 14 7 8 6 -6 13 9 27 22 11 -5 -10 -3 15 -2 19 18 26 -11 21 -7 -1 -24 -20 -17 -8 -4 29 -18
right_child=1 4 3 10 5 20 17 -9 12 16 -12 -13 -14 -15 -16 25 28 -19 24 -21 -22 -23 23 -25 -26 -27 -28 -29 -30 -31
leaf_value=0.007385133213073213 -0.031235566005048537 -0.0026409730997215344 -0.010518849920104986 0.010584847367544272 -0.025786484287779687 -0.0095189342564781614 0.014536302417894288 0.018157140911861012 0.0020188053541503295 0.007100877728184166 0.012414021450033013 0.00034721474889740989 -0.0060018405760073204 -0.013347614005931249 -0.03040274773938377 -0.014999672732089958 0.0040989300192665629 0.014633721521725136 0.010262011942699847 0.018208756703684992 -0.027114121742654991 0.00615458586467764 -0.001119851740547854 0.0053712806028325842 -0.0022612573054871751 0.028674824528630447 0.068579346068575978 -0.027602432949755687 0.020881256108561022 0.011078641225229334
leaf_weight=1727.0437236130238 320.68948996067047 1633.5422669351101 2585.9668030440807 1452.7008215785027 906.40650080144405 1113.5772906392813 155.01879632472992 1049.8291725516319 2485.767530888319 993.76115673780441 2006.6883735954762 3756.3840567171574 3267.3841287791729 1351.9740498363972 555.17593494057655 1659.6417003273964 4330.2840383350849 460.43060636520386 458.75092115998268 1202.1604591012001 142.53524920344353 403.19878178834915 4901.5594940781593 2009.8850057721138 2068.5990732610226 30.350015610456467 22.410567820072174 199.38131438195705 207.10621187090874 1215.955535620451
leaf_count=5688 1292 5782 9530 4849 3710 4153 531 3408 8598 3290 6703 13121 11799 5119 2313 6360 14685 1583 1549 3883 571 1447 16920 6787 7297 113 73 789 682 4020
internal_value=-4.772e-05 -0.00869398 0.00287351 -0.000361599 -0.00540977 -0.0137839 -0.00191561 0.00576344 -0.00554026 0.00497865 0.00576566 0.00320338 -0.00253551 -0.00749137 -0.0198481 -0.01693 0.0081161 0.00334209 0.00141762 0.0131847 -0.00722323 -0.00534908 0.00209088 0.000767131 1.02367e-05 -0.0142107 0.0214253 -0.0117445 0.00618045 0.00563023
internal_weight=44674.2 11282.3 33391.9 15754.3 8716.44 2565.72 6150.73 17637.6 8538.5 16587.8 7215.77 5209.08 5753.15 2985.52 2565.86 2010.68 7949.27 3165.21 2704.78 2195.92 1659.31 1516.78 8638.49 6911.44 2527.35 1689.99 177.429 2785.35 5753.35 5546.24
internal_count=156645 41893 114752 55389 31815 9881 21934 59363 30716 55955 24673 17970 20397 10901 10078 7765 26560 11033 9450 7173 6171 5600 29395 23707 8846 6473 604 10319 19387 18705
is_linear=0
shrinkage=0.05


Tree=24
num_leaves=31
num_cat=0
split_feature=6 6 6 21 21 21 6 6 6 5 6 21 23 21 6 21 25 6 23 3 11 3 3 9 21 8 22 24 3 2
split_gain=573.37 163.8 114.463 72.2078 62.9064 62.5758 41.5742 40.8544 31.3029 30.2024 29.3218 34.1956 24.4066 22.0756 22.7041 32.2605 21.2608 20.3519 20.255 19.6688 18.062 19.0278 17.4134 16.8729 17.2834 16.5216 16.2579 15.9483 15.6027 19.0643
threshold=0.27717548608779913 0.1974752098321915 0.4752222746610642 0.024705307558178905 0.036791216582059867 0.020224548876285556 0.36401475965976721 0.62219664454460155 0.23782438784837726 0.16652682423591617 0.34253390133380895 0.03335204720497132 -2.274376273155212 0.020158480852842334 0.16027076542377475 0.01455300208181143 -0.0066004546824842683 0.38956347107887274 0.92555394768714916 0.22961056977510455 1.012986481189728 0.026024508289992813 -0.034248009324073785 1.03485643863678 0.045109620317816741 0.98272430896759044 1.1672569513320925 0.083603184670209899 0.26212564110755926 0.027694410644471649
decision_type=2 2 2 2 2 2 2 2 2 2 2 2 2 2 2 2 2 2 2 2 2 2 2 2 2 2 2 2 2 2
left_child=1 9 3 6 -4 8 -2 -6 28 13 12 16 -5 14 -1 19 20 26 -7 -16 -12 -22 25 -13 -25 -17 -18 -11 29 -3
right_child=2 5 4 10 7 18 -8 -9 -10 27 11 23 -14 -15 15 22 17 -19 -20 -21 21 -23 -24 24 -26 -27 -28 -29 -30 -31
leaf_value=0.01333643853316264 -0.0088940336566450829 0.0017732911344942486 -0.026004442426258535 -0.016430116725142808 -0.0051513757859347475 0.0023708266200272343 -0.024426421352604918 -0.018245204509287023 -0.0089950040483538565 0.0085075929221380461 -0.0091307638615201765 0.0032636315043463194 0.001339340775174258 0.023190705783213264 -0.0064924420156453402 -0.030052552515262149 -0.0089812356752646382 -0.016265182949444873 0.0079707155575869295 0.047446718400132204 0.0016387815013101936 0.032721782745291632 0.0072550449513905275 -0.007943509783044804 0.013361662519779525 0.018394741690341609 0.0071756465920356366 0.0022416419219394852 0.014648797060779654 -0.0052811185478359463
leaf_weight=3664.5269154906273 3115.1910256147385 2258.2381252199411 982.40529349446297 203.24661111831665 1338.2785116732121 5239.6851133406162 500.53445586562157 1075.8035477399826 1520.1537202298641 2586.048489511013 373.34513582289219 1298.1378162503242 3882.4081202745438 375.89019867777824 457.87048304080963 17.963499218225479 1215.3870856165886 1002.022382542491 2336.8308678120375 17.432540863752365 335.29630452394485 57.70132614672184 1804.491673707962 837.22692716121674 107.15517817437649 602.13823208212852 178.15131297707558 1676.39800542593 161.22365395724773 1662.1186960339546
leaf_count=12646 12612 8609 4510 788 5512 19572 2288 4754 6107 9234 1519 5068 14904 1304 1693 64 4887 4283 8687 64 1341 228 6425 3287 421 2135 705 6026 607 6365
internal_value=4.34042e-05 0.004915 -0.00715373 -0.00503319 -0.0153342 0.00113591 -0.0110462 -0.0109891 -0.00287052 0.00935999 -0.0027416 -0.00515814 0.00045377 0.0113954 0.0107189 0.007409 -0.0085076 -0.0108267 0.00409875 -0.00449405 -0.00125102 0.00622238 0.00974455 -0.000433082 -0.00551965 0.0169786 -0.00691177 0.00604451 -0.000588112 -0.00121636
internal_weight=40883.3 24381 16502.3 13105.8 3396.49 13178.3 3615.73 2414.08 5601.73 11202.8 9490.08 5404.42 4085.65 6940.31 6564.42 2899.9 3161.9 2395.56 7576.52 475.303 766.343 392.998 2424.59 2242.52 944.382 620.102 1393.54 4262.45 4081.58 3920.36
internal_count=156645 89538 67107 52331 14776 49947 14900 10266 21688 39591 37431 21739 15692 24331 23027 10381 12963 9875 28259 1757 3088 1569 8624 8776 3708 2199 5592 15260 15581 14974
is_linear=0
shrinkage=0.05


Tree=25
num_leaves=31
num_cat=0
split_feature=6 6 21 21 6 21 6 21 21 6 6 21 7 6 6 21 6 21 21 6 6 21 21 7 21 7 21 6 6 21
split_gain=1333.17 410.77 305.98 234.328 185.905 181.917 175.503 117.982 115.105 85.8398 82.4616 97.5398 73.2827 71.3623 51.7691 51.0294 64.6591 44.1598 41.5151 41.3864 40.87 40.3605 36.5296 34.0304 32.0936 30.9145 30.084 28.8741 28.6274 27.6978
threshold=0.23782438784837726 0.36188076436519628 0.022853964008390907 0.028429212048649791 0.17743299156427386 0.019831066019833091 0.53522902727127086 0.039014324545860297 0.036791216582059867 0.30303835868835455 0.30589969456195837 0.028024271130561832 0.23957125842571261 0.19940516352653506 0.42614053189754492 0.018145113252103332 0.13975262641906741 0.028577120974659923 0.023409382440149788 1.0035248994827273 0.46393030881881719 0.048399522900581367 0.018281264230608944 0.20273219794034961 0.024705307558178905 0.20946463942527774 0.032607011497020728 0.20393287390470508 0.27717548608779913 0.014358363114297392
decision_type=2 2 2 2 2 2 2 2 2 2 2 2 2 2 2 2 2 2 2 2 2 2 2 2 2 2 2 2 2 2
left_child=4 2 9 20 15 13 8 -8 14 12 17 -12 22 -6 -5 16 -1 28 27 21 24 -9 -2 -18 -3 29 -13 -7 -4 -15
right_child=1 3 10 6 5 18 7 19 -10 -11 11 26 -14 25 -16 -17 23 -19 -20 -21 -22 -23 -24 -25 -26 -27 -28 -29 -30 -31
leaf_value=-0.01918497050771412 0.023328259538295457 0.031616326040922904 -0.0074399793332578226 0.0063336759655469033 -0.0056849224035779404 -0.016329654487556303 0.036471499942059053 0.020072284747790995 -0.0026414454515517084 0.022421046810541967 0.0081847468929279934 -0.0011508464834864421 0.0031901909052167855 0.033773865965890368 0.01788599538166381 -0.023375125442409557 -0.0069239441726528439 -0.014975493823297768 -0.020374213504184127 0.035744738356456814 0.039971908168795936 0.0067792061498344229 0.010469675582621719 -0.014768283339118206 0.018807018050361154 0 -0.012011523357949772 -0.007424353370173959 -0.00048793509807556237 0.0067018572137200472
leaf_weight=2666.3695989847183 755.36422494053841 831.0588171184063 3300.8351131379604 2518.8358401358128 4207.5306196510792 1287.6923819184303 790.27269968390465 996.00801858305931 2612.7623883187771 1199.6970843076706 3041.8260241746902 2032.9658675789833 3662.1173978149891 99.632221132516861 1579.1287832260132 1291.8036797344685 3761.6685680747032 1161.5542916953564 1244.6544407010078 207.742954403162 505.40232136845589 1342.2857102751732 2067.3615941405296 2190.3323672413826 1198.5335597395897 3007.8232243061066 929.722950309515 3120.7669142484665 2688.5043881237507 1838.3315165638924
leaf_count=7203 2051 2359 8808 6780 11227 3453 2269 2766 6992 3299 8194 5428 9838 267 4329 3477 10057 3102 3345 586 1470 3650 5561 5869 3322 8031 2481 8328 7180 4923
internal_value=1.97345e-06 0.00651322 0.00220586 0.0136471 -0.00880237 -0.00525415 0.0102187 0.0195914 0.00555795 0.010133 -0.00242431 0.00189505 0.00785859 -0.000898054 0.0107868 -0.014103 -0.0127124 -0.0060519 -0.0123064 0.0143487 0.0272324 0.0124442 0.0139131 -0.0098117 0.0240558 0.0031733 -0.00456102 -0.010027 -0.00432023 0.0080979
internal_weight=58138.6 33422 20839.9 12582 24716.6 14806.4 10047 3336.31 6710.73 7684.54 13155.4 6004.51 6484.84 9153.32 4097.96 9910.17 8618.37 7150.89 5653.11 2546.04 2534.99 2338.29 2822.73 5952 2029.59 4945.79 2962.69 4408.46 5989.34 1937.96
internal_count=156645 90465 55942 34523 66180 39574 27372 9271 18101 20749 35193 16103 17450 24448 11109 26606 23129 19090 15126 7002 7151 6416 7612 15926 5681 13221 7909 11781 15988 5190
is_linear=0
shrinkage=0.05


Tree=26
num_leaves=31
num_cat=0
split_feature=24 20 22 22 7 24 11 24 5 25 0 22 7 11 18 16 14 8 8 22 21 19 8 3 21 16 2 10 18 22
split_gain=185.162 106.405 65.6346 61.8417 42.7612 33.0191 48.5631 29.9784 29.7078 34.609 57.8222 30.8512 27.1895 27.1272 24.1458 23.8175 23.2669 21.9753 21.0001 20.0043 19.2071 23.8462 18.7514 18.2243 17.8881 21.9375 17.5824 17.023 16.7146 16.6948
threshold=0.10619501769542695 0.24870623648166659 0.11963639035820962 0.3080469816923142 0.41330771148204809 0.17435429990291598 1.0952248573303225 0.052297133952379234 0.29420767724514013 0.014878575224429371 0.0048354789614677438 0.6086949110031129 0.45776820182800299 0.66929623484611522 96.900012969970717 -0.83110347390174855 28.637845039367679 0.94623592495918285 1.0352623462677004 1.767531752586365 0.021729072555899624 112.6142044067383 0.9793413281440736 -0.11038003489375113 0.032855825498700149 -0.49996913969516749 -0.021022429689764973 0.92874723672866832 16.343595504760746 1.8196445703506472
decision_type=2 2 2 2 2 2 2 2 2 2 2 2 2 2 2 2 2 2 2 2 2 2 2 2 2 2 2 2 2 2
left_child=2 8 4 5 7 6 12 -1 11 15 16 -2 -3 27 -6 -10 -11 -5 19 -4 -16 -22 -8 -9 -15 -26 -24 -7 -27 -19
right_child=1 3 18 17 14 13 22 23 9 10 -12 -13 -14 24 20 -17 -18 29 -20 -21 21 -23 26 -25 25 28 -28 -29 -30 -31
leaf_value=0.0095332288573977495 0.0032684062450730718 -0.0073004687762332435 0.0062686693276534505 -0.012261047776481258 0.037529086908034963 5.2293034069042044e-05 -0.0098899750040055464 0.0071915624651483351 0.0020098021447092665 0.077702984555683141 -0.0039059987919635736 0.014960356651521423 0.0063682027896209336 -0.015106678792922781 -0.019120027335042797 -0.0067485727051580183 0.028467289197496207 -0.00065312044833108047 -0.012121145787690548 0.012813761494371171 -0.036918041729623229 0.024468808532773358 -0.00053470814233982369 -0.00043996081596553742 -0.012954932541917655 0.020339500765432353 0.011180237533788107 0.03919712315298389 -0.0045072886881039271 0.0069558394188022196
leaf_weight=915.3067279458046 2267.8155300468206 7274.8395393192768 5957.6791118681431 341.42575623095036 116.43943673372269 266.81619708240032 231.89712549746037 845.01257009804249 1644.9605788886547 34.354776307940483 148.79926611483097 751.80355270206928 382.50833854079247 1819.6759606003761 46.756717681884766 1468.6527695059776 81.767545357346535 3524.3428620249033 137.8685682117939 1454.7734749764204 17.734103128314018 137.05165702104568 615.15238893032074 10520.188317328691 1119.3424320667982 73.507197961211205 666.30315753817558 30.93381966650486 835.19672137498856 905.91870354115963
leaf_count=3017 7819 26349 20051 1305 384 999 816 2867 5765 112 523 2526 1354 6999 157 5199 281 12530 478 4876 60 462 2163 36297 4226 267 2330 110 3146 3177
internal_value=-4.24386e-05 -0.00296384 0.00350756 -0.00492424 0.00129786 -0.00667434 -0.00499922 0.000828619 0.00257753 -0.000642139 0.0167012 0.00618144 -0.00661695 -0.0103787 0.0193983 -0.00211989 0.043131 -3.92366e-05 0.00719396 0.00755404 0.00888521 0.017384 0.00318287 0.000127068 -0.0115041 -0.00826868 0.00555307 0.00414771 -0.00248985 0.000901785
internal_weight=44634.8 24486 20148.8 18087.9 12598.5 13316.2 9170.7 12280.5 6398.15 3378.53 264.922 3019.62 7657.35 4145.47 317.982 3113.61 116.122 4771.69 7550.32 7412.45 201.542 154.786 1513.35 11365.2 3847.72 2028.05 1281.46 297.75 908.704 4430.26
internal_count=156645 87996 68649 65771 43244 48759 33012 42181 22225 11880 916 10345 27703 15747 1063 10964 393 17012 25405 24927 679 522 5309 39164 14638 7639 4493 1109 3413 15707
is_linear=0
shrinkage=0.05


Tree=27
num_leaves=31
num_cat=0
split_feature=6 6 6 21 7 21 6 6 5 21 25 3 7 6 21 11 3 21 21 6 6 10 6 7 3 6 9 22 9 6
split_gain=511.864 143.94 104.829 65.2274 59.5802 58.87 38.3196 38.3194 31.7191 30.4569 26.7678 23.0435 22.2484 21.9552 33.404 21.4414 20.0407 18.7646 18.4421 25.932 21.7465 20.5932 18.3539 17.2406 16.4768 22.1656 20.2685 16.255 16.0005 15.8163
threshold=0.27717548608779913 0.19940516352653506 0.4752222746610642 0.024705307558178905 0.23707836866378787 0.036791216582059867 0.62219664454460155 0.36401475965976721 0.16652682423591617 0.017877582460641864 -0.0066004546824842683 0.012887058313935997 0.44416454434394842 0.34253390133380895 0.03309579752385617 1.1101348400115969 0.12538708001375201 0.023008985444903377 0.017137952148914341 0.1199379898607731 0.1732861325144768 0.88892671465873729 0.38956347107887274 0.51410296559333812 -0.017402283847331997 0.16146966069936755 1.0018331408500674 1.1672569513320925 1.0462556481361391 0.21406979858875277
decision_type=2 2 2 2 2 2 2 2 2 2 2 2 2 2 2 2 2 2 2 2 2 2 2 2 2 2 2 2 2 2
left_child=1 8 3 7 9 -4 12 -2 18 29 -5 -6 -7 16 22 23 -12 -17 19 -1 -20 -21 27 28 -23 26 -26 -15 -13 -3
right_child=2 4 5 10 11 6 -8 -9 -10 -11 13 15 -14 14 -16 17 -18 -19 20 21 -22 24 -24 -25 25 -27 -28 -29 -30 -31
