tree
version=v4
num_class=3
num_tree_per_iteration=3
label_index=0
max_feature_idx=25
objective=multiclass num_class:3
feature_names=ret_1d ret_5d ret_21d ret_63d log_ret_1d vol_5d vol_21d vol_63d sma_5 sma_20 sma_50 sma_200 ema_12 ema_26 rsi_14 macd macd_signal macd_hist bb_upper bb_lower bb_pctb atr_14 volume_z_21 obv high_low_range_21 gap_overnight
feature_infos=[-0.57464790344238281:0.34886279702186584] [-0.57328909635543823:0.5013774037361145] [-0.6046372652053833:1.0877785682678223] [-0.71429795026779175:1.5720720291137695] [-0.85483795404434204:0.29926186800003052] [0.0093440702185034752:6.337364673614502] [0.053808994591236115:3.0251493453979492] [0.076342448592185974:1.7469046115875244] [0.7922828197479248:2.083904504776001] [0.70129269361495972:2.2254176139831543] [0.61170625686645508:2.7058303356170654] [0.3858715295791626:3.2801449298858643] [0.76052314043045044:2.1221306324005127] [0.69622683525085449:2.1960587501525879] [10.07640552520752:94.203353881835938] [-123.67174530029297:102.85893249511719] [-107.94163513183594:93.24798583984375] [-72.968902587890625:53.351356506347656] [7.1358327865600586:4359.1767578125] [5.725062370300293:4094.530029296875] [-0.54258710145950317:1.5260215997695923] [0.0075877392664551735:0.20946849882602692] [-2.8506078720092773:4.3494596481323242] [-6.7426247596740723:6.2963757514953613] [0.021235162392258644:1.7802934646606445] [-0.58738517761230469:0.37534162402153015]
tree_sizes=3417 3481 3401 3558 3535 3543 3542 3532 3541 3520 3544 3534 3534 3546 3549 3550 3536 3539 3569 3528 3531 3560 3540 3540 3548 3543 3531 3549 3555 3541 3550 3555 3540 3559 3538 3544 3537 3563 3560 3545 3552 3541 3547 3528 3544 3541 3542 3558 3545 3545 3550 3565 3556 3532 3534 3535 3543 3559 3553 3543 3545 3557 3566 3546 3555 3545 3537 3552 3544 3514 3563 3527 3539 3568 3561 3555 3569 3533 3520 3559 3544 3553 3557 3543 3540 3580 3564 3547 3546 3551 3532 3555 3535 3551 3540 3537 3535 3550 3561 3527 3539 3545 3551 3552 3531 3512 3537 3523 3531 3571 3548 3525 3549 3580 3529 3565 3549 3566 3527 3526 3549 3569 3557 3550 3578 3543 3539 3566 3542 3541 3539 3557 3519 3563 3527 3549 3562 3512 3519 3554 3592 3531 3536 3541 3566 3580 3526 3556 3560 3545 3545 3543 3526 3540 3568 3513 3547 3533 3545 3517 3558 3545 3541 3536 3535 3539 3567 3482 3496 3551 3539 3510 3575 3538 3531 3549 3550 3523 3565 3562 3529 3557 3538 3512 3559 3546 3499 3538 3530 3524 3556 3494 3501 3567 3551 3530 3558 3548 3460 3546 3494 3507 3553 3557 3529 3570 3526 3503 3572 3552 3520 3550 3532 3491 3552 3506 3475 3538 3516 3517 3544 3484 3518 3536 3507 3508 3561 3559 3471 3545 3535 3461 3555 3510 3465 3557 3541 3461 3573 3529 3513 3504 3531 3503 3530 3551 3486 3519 3507 3482 3550 3514 3478 3534 3531 3516 3520 3513 3499 3545 3491 3486 3554 3461 3538 3501 3483 3456 3522 3459 3478 3550 3471 3513 3541 3521 3515 3527 3487 3458 3535 3446 3488 3538 3493 3471 3533 3489 3459 3523 3486 3464 3532 3504 3449 3491 3461 3458 3501 3496 3507 3511 3506 3477 3513 3509 3452 3526 3480 3515 3503 3486 3458 3531 3451 3449 3538 3552 3514 3529 3540

Tree=0
num_leaves=31
num_cat=0
split_feature=6 6 21 6 21 21 6 21 6 21 21 6 6 21 10 6 6 20 21 19 7 7 21 23 6 7 2 17 6 23
split_gain=1140.53 286.447 146.261 123.151 89.909 83.977 83.8924 91.1587 76.7596 63.4128 41.6141 40.9757 38.6186 37.7512 36.3464 34.0608 29.8761 40.5889 31.9246 30.3437 29.3135 26.9667 26.3824 24.7771 23.1701 23.0897 24.1817 22.7178 22.6992 22.2716
threshold=0.20648887008428576 0.36525842547416693 0.027576601132750515 0.15920056402683261 0.018543112091720108 0.01684387028217316 0.28603538870811468 0.025972823612391952 0.53474846482276928 0.036882840096950538 0.046195566654205329 0.43476098775863653 0.71440255641937267 0.02143382374197245 1.1040489673614504 0.24996405094861987 0.13903782516717914 0.37602519989013677 0.016070180572569374 52.313106536865241 0.20014008134603503 0.24087198078632358 0.031416809186339385 -0.9254775047302245 0.24322644621133807 0.25123339891433721 0.076364785432815566 0.087227564305067076 0.19517472386360171 -0.77913397550582875
decision_type=2 2 2 2 2 2 2 2 2 2 2 2 2 2 2 2 2 2 2 2 2 2 2 2 2 2 2 2 2 2
left_child=3 4 -3 16 24 28 13 25 9 11 -10 -4 -12 15 -11 -6 17 -1 27 21 23 -19 -9 -7 -2 -8 -27 -18 -5 -17
right_child=1 2 8 5 6 20 7 22 10 14 12 -13 -14 -15 -16 29 18 19 -20 -21 -22 -23 -24 -25 -26 26 -28 -29 -30 -31
leaf_value=-1.4443236246790956 -1.4661274345743216 -1.4875507377222064 -1.4657904825697221 -1.4533839992098794 -1.4568409051604776 -1.4398994644937311 -1.4776109236121122 -1.4607622663453883 -1.4838911113335755 -1.4537431962121805 -1.4628102687682176 -1.4781538730254475 -1.480955022806927 -1.4537467336181991 -1.467609054050413 -1.4811927688567295 -1.4412206233440359 -1.3985413949463108 -1.4336504613806613 -1.4312903759755469 -1.4421793625223642 -1.4656407693162066 -1.4524181710802544 -1.456385084862224 -1.4770796243880162 -1.4638253610566276 -1.4742286024615585 -1.4537554751541077 -1.4658065330830083 -1.4636584261721746
leaf_weight=606.3169527053833 1660.408616065979 1147.5565999746323 2183.1695222854614 2640.0496995449066 2803.9480984210968 322.70844876766205 662.55659937858582 3235.6543385982513 980.44450700283051 1405.7233589887619 735.93594789505005 968.66096198558807 488.48150253295898 6680.1987934112549 711.83324217796326 221.47708475589752 910.81446826457977 123.1916069984436 764.32357907295227 1214.7763681411743 3487.6615172624588 16.871894001960754 1339.3070143461227 778.24958682060242 682.90999531745911 1759.2297095060349 820.29541790485382 601.49641156196594 426.88569903373718 1000.5300951004028
leaf_count=2264 6200 4285 8152 9858 10470 1205 2474 12082 3661 5249 2748 3617 1824 24944 2658 827 3401 460 2854 4536 13023 63 5001 2906 2550 6569 3063 2246 1594 3736
internal_value=-1.45799 -1.46326 -1.47093 -1.44492 -1.46009 -1.44871 -1.45893 -1.46286 -1.46838 -1.4651 -1.47621 -1.46959 -1.47005 -1.45605 -1.4584 -1.45988 -1.43808 -1.43355 -1.44199 -1.42874 -1.44443 -1.40666 -1.45832 -1.45155 -1.46932 -1.46928 -1.46714 -1.4462 -1.45511 -1.46684
internal_weight=41381.7 29488.3 8621.81 11893.3 20866.5 7655.55 18523.2 7817.04 7474.25 5269.39 2204.86 3151.83 1224.42 10706.2 2117.56 4025.96 4237.79 1961.16 2276.63 1354.84 4588.62 140.064 4574.96 1100.96 2343.32 3242.08 2579.53 1512.31 3066.94 1222.01
internal_count=154520 110110 32194 44410 77916 28586 69166 29189 27909 19676 8233 11769 4572 39977 7907 15033 15824 7323 8501 5059 17134 523 17083 4111 8750 12106 9632 5647 11452 4563
is_linear=0
shrinkage=1


Tree=1
num_leaves=31
num_cat=0
split_feature=6 6 21 21 6 21 6 6 6 21 21 21 6 21 21 21 6 6 21 6 21 6 21 6 6 6 21 21 6 21
split_gain=2414.13 726.289 529.918 447.833 349.444 307.455 299.393 232.93 221.825 206.01 181.641 162.733 240.444 124.199 93.4961 92.4979 82.9662 71.5529 70.5937 68.4364 79.4869 60.0449 58.7887 71.1295 54.9408 50.9597 47.6797 46.8321 45.5986 51.3549
threshold=0.23841619491577151 0.36970490217208868 0.024564838968217376 0.031820069998502738 0.15920056402683261 0.019840338267385963 0.53474846482276928 0.30281865596771246 0.19992493838071826 0.020047177560627464 0.046195566654205329 0.029204507358372215 0.29898834228515631 0.036882840096950538 0.025668350979685787 0.01661607809364796 0.39873518049716955 0.71440255641937267 0.01777701918035746 0.20269446074962619 0.023551008664071563 0.42658264935016638 0.017069033347070221 0.13903782516717914 0.27991785109043127 0.33875438570976263 0.05365626513957978 0.019770417362451557 0.42260882258415228 0.042820710688829429
decision_type=2 2 2 2 2 2 2 2 2 2 2 2 2 2 2 2 2 2 2 2 2 2 2 2 2 2 2 2 2 2
left_child=4 2 7 14 22 8 13 9 15 -2 -8 12 -4 21 -3 -6 -16 26 -10 -7 -21 -5 23 -1 -11 -13 -12 -9 -15 -30
right_child=1 3 11 6 5 19 10 27 18 24 17 25 -14 28 16 -17 -18 -19 -20 20 -22 -23 -24 -25 -26 -27 -28 -29 29 -31
leaf_value=-0.69719277449053363 -0.64994508827477038 -0.62272574950233117 -0.67975327667304453 -0.66404393548938845 -0.67421587755522794 -0.69654704248309085 -0.63069520429253267 -0.62504272564341623 -0.65889133418879353 -0.670492557222369 -0.65418055678154108 -0.68765796428816373 -0.66156303117640369 -0.68305597302135046 -0.65265727803110707 -0.68528779168246656 -0.63422781289143748 -0.64345672275538479 -0.67145554478260161 -0.68111172928079111 -0.69612579494659033 -0.64796445701160232 -0.70600419557855354 -0.68541561810880436 -0.65974787356025522 -0.67632728884205895 -0.67572511182190576 -0.64734971169927413 -0.66206974566665511 -0.67761682159613557
leaf_weight=2600.4248206019402 2201.6280478835106 878.17747977375984 3561.0602796971798 1314.0803431868553 3637.8961240649223 1798.3335672020912 1211.3826780319214 270.98690477013588 1980.1159307062626 4639.3857638239861 544.9722815155983 2386.4088833630085 3708.360215485096 743.24624088406563 1026.2270335555077 3921.2517257332802 1514.6031565368176 683.65161037445068 2565.942392885685 3383.0260061621666 1193.3918461799622 1041.969011425972 794.96988245844841 2535.5828641355038 1600.4344168305397 1701.6328459978104 485.00284200906754 1820.8221070170403 1243.9910607635975 926.52784037590027
leaf_count=6938 5874 2343 9501 3506 9706 4798 3232 723 5283 12378 1454 6367 9894 1983 2738 10462 4041 1824 6846 9026 3184 2780 2121 6765 4270 4540 1294 4858 3319 2472
internal_value=-0.670822 -0.662108 -0.667471 -0.652001 -0.682781 -0.679392 -0.658345 -0.659393 -0.674711 -0.663095 -0.645517 -0.674962 -0.670475 -0.665466 -0.6368 -0.67996 -0.641668 -0.655999 -0.665984 -0.688279 -0.685029 -0.65693 -0.693342 -0.69138 -0.667736 -0.682943 -0.66433 -0.644455 -0.672367 -0.668709
internal_weight=57915.5 33504.6 21890.7 11613.8 24410.9 18480 8194.82 10533.3 12105.2 8441.45 2925.01 11357.5 7269.42 5269.81 3419.01 7559.15 2540.83 1713.63 4546.06 6374.75 4576.42 2356.05 5930.98 5136.01 6239.82 4088.04 1029.98 2091.81 2913.77 2170.52
internal_count=154520 89391 58405 30986 65129 49305 21864 28103 32297 22522 7804 30302 19395 14060 9122 20168 6779 4572 12129 17008 12210 6286 15824 13703 16648 10907 2748 5581 7774 5791
is_linear=0
shrinkage=1


Tree=2
num_leaves=31
num_cat=0
split_feature=24 20 22 22 16 11 8 5 11 24 5 20 21 24 14 7 1 11 25 24 7 21 21 8 5 11 1 25 15 7
split_gain=283.156 202.595 113.585 80.7623 71.3942 61.0077 49.5364 38.4811 37.2823 31.0091 30.4947 30.0555 29.9704 29.1531 30.6534 28.0744 25.3387 24.8809 22.9619 21.9438 50.5066 21.8626 21.1137 21.2608 20.8556 19.8918 19.3644 18.5549 18.3932 18.0497
threshold=0.12974819540977481 0.23177868127822879 0.47048442065715795 0.43994787335395819 0.072811387479305281 1.089563846588135 0.99683114886283886 0.58198097348213207 1.1578739881515505 0.1601110324263573 0.44968335330486303 0.25742770731449133 0.051626808941364295 0.060002002865076072 37.442617416381843 0.35132545232772833 0.088599603623151793 0.68583127856254589 0.00840958906337619 0.24693326652050021 0.55962610244750988 0.017991577275097374 0.019698625430464748 0.96722897887229931 0.41647148132324224 1.1852032542228701 0.012074881698936226 0.015079265460371973 3.0951845645904545 0.34267356991767889
decision_type=2 2 2 2 2 2 2 2 2 2 2 2 2 2 2 2 2 2 2 2 2 2 2 2 2 2 2 2 2 2
left_child=2 4 5 9 7 6 15 8 18 25 11 -4 -9 -8 -15 -1 -5 -11 -2 20 -19 28 -7 -24 -16 -3 -27 -6 -17 -13
right_child=1 3 10 16 27 22 13 12 -10 17 -12 29 -14 14 24 21 -18 19 -20 -21 -22 -23 23 -25 -26 26 -28 -29 -30 -31
leaf_value=-1.3660870293516429 -1.3602413811748393 -1.3707107503126872 -1.3477853920860554 -1.3612511629394484 -1.3736542443865669 -1.3621630939018434 -1.3528506096920976 -1.375896638298141 -1.3469190786006995 -1.3618982432753197 -1.3675184419193642 -1.3562555915140526 -1.3520542600085401 -1.3511083043886924 -1.361392653040373 -1.2917826999005806 -1.3743304967105126 -1.3761640880063266 -1.3444834091339275 -1.3823333206885726 -1.3558792345578357 -1.3577741558407312 -1.3877392724075412 -1.3504405263665127 -1.3754770404416736 -1.3462010304052336 -1.3711440182720198 -1.340354512333489 -1.3621906689584429 -1.3459524070146034
leaf_weight=7421.108268648386 1612.9117228090763 3684.1246685385704 1888.921062797308 2308.3638279139996 784.88370284438133 582.30541914701462 1280.6147637963295 375.15555217862129 1282.3291075229645 319.72510501742363 389.15602594614029 4316.4317797124386 202.86400765180588 720.59581309556961 7260.8171302080154 23.715088218450546 440.87206169962883 3872.1310305595398 270.00913694500923 1160.8964268863201 332.86840692162514 660.02233475446701 38.858457803726196 1802.9181525111198 272.5806525349617 170.29147684574127 142.8619772195816 44.001488983631134 15.429093539714811 472.30169668793678
leaf_count=25973 5645 12894 6611 8079 2747 2038 4482 1313 4488 1119 1362 15107 710 2522 25412 83 1543 13552 945 4063 1165 2310 136 6310 954 596 500 154 54 1653
internal_value=-1.36254 -1.3676 -1.35937 -1.37091 -1.3586 -1.36129 -1.36231 -1.35566 -1.3535 -1.37306 -1.35392 -1.35313 -1.36752 -1.35987 -1.36096 -1.36518 -1.36335 -1.37543 -1.35798 -1.37624 -1.37456 -1.35561 -1.35386 -1.35123 -1.3619 -1.36968 -1.3576 -1.37188 -1.31934 -1.35524
internal_weight=44150.1 17004.3 27145.8 12432.1 4572.15 20079 17654.9 3743.27 3165.25 9682.9 7066.81 6677.65 578.02 9534.61 8253.99 8120.27 2749.24 5685.62 1882.92 5365.9 4205 699.167 2424.08 1841.78 7533.4 3997.28 313.153 828.885 39.1442 4788.73
internal_count=154520 59513 95007 43511 16002 70274 61790 13101 11078 33889 24733 23371 2023 33370 28888 28420 9622 19899 6590 18780 14717 2447 8484 6446 26366 13990 1096 2901 137 16760
is_linear=0
shrinkage=1


Tree=3
num_leaves=31
num_cat=0
split_feature=6 6 21 6 21 21 6 21 6 21 21 21 6 6 24 7 6 7 3 11 7 21 3 7 23 3 7 2 23 6
split_gain=1009.89 251.427 134.104 111.282 83.3343 71.6939 69.1971 85.8087 68.1186 58.596 42.5958 38.3845 35.6914 34.5537 32.7013 38.9411 28.6104 26.9398 25.9335 25.5531 25.4525 24.631 26.1863 23.8998 23.7818 23.5937 22.7719 23.3033 22.6525 21.766
threshold=0.20828703790903094 0.36737592518329626 0.027576601132750515 0.15920056402683261 0.017849867232143882 0.01684387028217316 0.28603538870811468 0.025972823612391952 0.53474846482276928 0.034920161589980132 0.02143382374197245 0.046195566654205329 0.71440255641937267 0.40797561407089239 0.079186931252479567 0.1908618360757828 0.24996405094861987 0.20014008134603503 -0.022912119515240189 1.1229366064071657 0.39453677833080297 0.031416809186339385 0.28985513746738439 0.23995941877365115 -0.77913397550582875 -0.19709581136703488 0.25123339891433721 0.077657099813222899 -0.9071030020713805 0.19517472386360171
decision_type=2 2 2 2 2 2 2 2 2 2 2 2 2 2 2 2 2 2 2 2 2 2 2 2 2 2 2 2 2 2
left_child=3 4 -3 14 23 29 10 26 9 13 16 -10 -13 -4 19 -16 -6 28 -12 -1 -11 25 -23 -2 -18 -9 -8 -28 -7 -5
right_child=1 2 8 5 6 17 7 21 11 20 18 12 -14 -15 15 -17 24 -19 -20 -21 -22 22 -24 -25 -26 -27 27 -29 -30 -31
leaf_value=0.02070561754252738 -0.016801660927004022 -0.02889952445706186 -0.0065459933743478695 0.0044730686540482983 0.00022917701622416462 0.016420832973030569 -0.018957885734420827 -0.022075840059831941 -0.02482900749854251 -0.01049788841867586 0.00028780574146182957 -0.0044642491000378044 -0.022033372253429755 -0.018510071203578282 0.0030707606010620288 0.021034159673311154 -0.022595218019697674 0.014426896664070278 0.0066144427236303378 0.057614803031777129 0.00097020466360568213 0.0033963853227944106 0.031376525015242671 -0.0012744930725163092 -0.0053251102843299026 -0.0017995564498901489 -0.0055293015014665058 -0.015707581665983537 0.0011212856064140239 -0.0070418900666997094
leaf_weight=3054.5256042480469 1160.0852862298489 1063.5067085027695 1234.6559677124023 2649.7346644997597 3201.0959606170654 345.07904946804047 691.17786079645157 150.29507380723953 954.69007337093353 630.25940752029419 2808.2743381261826 732.82669565081596 478.35758575797081 1184.0882923603058 638.18991732597351 573.45698717236519 243.71452993154526 3753.4847574830055 3832.7792706787586 47.720116943120956 2078.842795342207 1314.8098844587803 89.279187709093094 316.071986079216 1102.016848385334 3147.9628166854382 1786.4929666817188 822.52197852730751 811.65297719836235 485.21598610281944
leaf_count=11206 4382 4088 4650 9858 11953 1272 2625 562 3661 2365 10439 2748 1824 4496 2343 2100 925 13836 14245 175 7769 4878 331 1195 4145 11771 6726 3113 3016 1823
internal_value=0.000104225 -0.00499263 -0.0123108 0.0120739 -0.00203297 0.00859838 -0.00115206 -0.0047022 -0.00989098 -0.00674881 0.00138687 -0.0173273 -0.0114086 -0.0124056 0.0185541 0.0115778 -0.00234099 0.0123701 0.00393992 0.0212768 -0.00169623 -0.000363612 0.00518117 -0.0134807 -0.00845792 -0.00272566 -0.0108824 -0.00874052 0.00569083 0.00268906
internal_weight=41382.9 29023.8 8357.23 12359.1 20666.6 8045.17 19190.4 8002.54 7293.72 5127.85 11187.9 2165.87 1211.18 2418.74 4313.89 1211.65 4546.83 4910.22 6641.05 3102.25 2709.1 4702.35 1404.09 1476.16 1345.73 3298.26 3300.19 2609.01 1156.73 3134.95
internal_count=154520 108891 31601 45629 77290 29805 71713 30006 27513 19280 41707 8233 4572 9146 15824 4443 17023 18124 24684 11381 10134 17542 5209 5577 5070 12333 12464 9839 4288 11681
is_linear=0
shrinkage=0.05


Tree=4
num_leaves=31
num_cat=0
split_feature=6 6 21 21 6 6 21 6 21 6 21 6 21 21 6 21 21 6 21 6 21 6 21 21 6 21 6 21 6 7
split_gain=2184.89 636.151 501.863 413.507 327.888 292.329 286.312 243.131 231.131 219.909 147.164 111.964 123.645 103.441 148.779 84.1056 72.1073 69.2945 80.8977 69.1578 69.1401 65.746 59.9224 54.2848 65.9448 47.4475 41.8419 36.3758 35.2609 34.9016
threshold=0.24125710874795916 0.36970490217208868 0.025972823612391952 0.033374316990375526 0.15920056402683261 0.53474846482276928 0.019840338267385963 0.29898834228515631 0.020181281492114071 0.19992493838071826 0.046195566654205329 0.45288452506065374 0.027006204240024093 0.029971953481435779 0.31108723580837255 0.01661607809364796 0.042820710688829429 0.20269446074962619 0.023551008664071563 0.42260882258415228 0.01777701918035746 0.75637283921241771 0.019698625430464748 0.017069033347070221 0.12812801450490954 0.022240974009037021 0.33325779438018804 0.05365626513957978 0.3424182534217835 0.23995941877365115
decision_type=2 2 2 2 2 2 2 2 2 2 2 2 2 2 2 2 2 2 2 2 2 2 2 2 2 2 2 2 2 2
left_child=4 2 7 11 23 16 9 8 29 15 -7 12 -3 14 -4 -6 19 -8 -19 -5 -11 27 -9 24 -1 -10 -24 -12 -15 -2
right_child=1 3 13 5 6 10 17 22 25 20 21 -13 -14 28 -16 -17 -18 18 -20 -21 -22 -23 26 -25 -26 -27 -28 -29 -30 -31
leaf_value=-0.028062279355163967 0.025265967778186051 0.04056511285534458 -0.009382483121870025 -0.0022666258133972332 -0.0031758824470629939 0.037363433072731426 -0.024538370555076558 0.042576385375298904 0.0066139800737049659 0.012009485976143524 0.016419239494000551 0.044373901507111541 0.01914907236846447 -0.017009767956680823 0.0073780675831121873 -0.01373238569766648 -0.008581068254042137 -0.0092758792505517607 -0.023566458384752603 0.012164071147586207 -0.00017071878828713125 0.028695478592217057 0.015154120259980603 -0.033533180631172985 -0.015737523654370682 -0.0019818035568364535 0.0275784122513698 -0.0011179907338295654 -0.006482845861398078 0.011901394585341354
leaf_weight=1561.1049744188786 1268.8557218313217 967.09259340167046 2848.1590638756752 1394.5409973859787 3638.3662274181843 1123.5120033919811 1799.195951551199 293.66010561585426 2493.333944439888 2045.6617120504379 580.93161049485207 1062.750247746706 2230.6020169854164 2005.872823625803 2473.9335154294968 3922.6832157671452 1061.9498265683651 3699.1011135280132 1353.6206956207752 2049.7325493693352 2704.623910009861 530.35338777303696 2218.4389834403992 795.36849161982536 3577.154243350029 4506.398385733366 978.60765606164932 601.05331563949585 1321.7307368814945 797.77294781804085
leaf_count=4163 3388 2586 7598 3721 9706 3004 4798 785 6653 5460 1551 2841 5957 5350 6602 10462 2833 9867 3610 5472 7216 1417 5923 2121 9540 12023 2613 1604 3526 2130
internal_value=7.6327e-06 0.00850214 0.00335201 0.0179149 -0.0110971 0.0107232 -0.00791643 0.00973597 0.00541807 -0.00335645 0.0232996 0.0303067 0.0256286 -0.00591523 -0.00159054 -0.00865338 0.00280709 -0.0161088 -0.0131057 0.00631992 0.00507365 0.0140674 0.0209489 -0.0213681 -0.0194835 0.00107939 0.0189595 0.00749778 -0.0128303 0.0201101
internal_weight=57906.2 32809.3 21206.8 11602.5 25096.9 7342.07 19163.3 12557.1 9066.36 12311.3 2835.85 4260.44 3197.69 8649.7 5322.09 7561.05 4506.22 6851.92 5052.72 3444.27 4750.29 1712.34 3490.71 5933.63 5138.26 6999.73 3197.05 1181.98 3327.6 2066.63
internal_count=154520 87577 56591 30986 66943 19602 51119 33515 24194 32844 7576 11384 8543 23076 14200 20168 12026 18275 13477 9193 12676 4572 9321 15824 13703 18676 8536 3155 8876 5518
is_linear=0
shrinkage=0.05


Tree=5
num_leaves=31
num_cat=0
split_feature=6 21 21 6 21 6 21 21 6 21 6 6 11 21 11 8 7 21 21 21 6 11 7 6 6 22 8 6 21 11
split_gain=693.177 201.661 184.303 308.077 170.106 142.764 129.621 119.461 103.991 76.1326 75.1048 73.1913 68.3271 48.8763 43.1996 43.0969 44.5287 37.2227 36.4704 36.1577 35.5922 35.4896 34.5612 34.3002 31.6414 28.9077 28.1928 27.3168 26.7594 26.6997
threshold=0.34051708877086645 0.029646463692188266 0.028480806387960914 0.23841619491577151 0.019980214536190036 0.50783231854438793 0.020388661883771423 0.041550476104021079 0.19325329363346103 0.035839289426803596 0.28858143091201788 0.3874217569828034 1.089563846588135 0.024931470863521103 1.2509248256683352 0.99933913350105297 0.3442500531673432 0.036173418164253242 0.027006204240024093 0.025198860093951229 0.40174874663352972 1.1954414844512942 0.37363868951797491 0.15002463757991794 0.41139276325702673 0.35180103778839117 0.98327037692070018 0.27757848799228674 0.018334978260099891 0.65416079759597789
decision_type=2 2 2 2 2 2 2 2 2 2 2 2 2 2 2 2 2 2 2 2 2 2 2 2 2 2 2 2 2 2
left_child=2 13 3 6 -5 9 8 -7 15 11 12 -3 18 -2 24 16 25 21 -6 -8 -15 27 -12 -17 -11 -1 -23 -4 -10 -9
right_child=1 5 17 4 10 7 19 29 28 14 22 -13 -14 20 -16 23 -18 -19 -20 -21 -22 26 -24 -25 -26 -27 -28 -29 -30 -31
leaf_value=0.00092096737754144566 -0.031167422634039446 0.0011228905532561131 0.024494517702802369 -0.017997811144930109 -0.0013893480827600968 -0.031863001399381051 0.012849083976478718 0.0090877173759222642 -0.0050605591049586217 0.010072350895726521 -0.0081790445349576944 -0.014525462329062136 0.013535244064322941 -0.013175604563255819 0.016801532404420765 0.016648159921202908 0.036268984263319939 0.038493984250539383 0.015912545887207176 0.028545848348738086 -0.02735329912662704 -0.011032990015173574 0.0071715341742808955 0.0076591634235150478 -0.0037267752287522813 0.0095305150861425703 0.032209694047989477 0.0090116611735638306 0.002305335710921036 -0.011069256638742808
leaf_weight=3446.6581593453884 959.52447301149368 1378.5476876497269 352.69535151124001 1791.7818914949894 4678.4838959574699 831.6392066180706 3619.5097379386425 181.16427278518677 2610.0827043652534 625.52909153699875 3585.9777254760265 1630.1544979214668 1093.1017086207867 1448.876352339983 555.23050993680954 1622.759709328413 104.96777740120888 182.03004366159439 325.67244529724121 408.98762366175652 639.43225327134132 41.548810213804245 408.01086369156837 3078.8246815502644 1235.9027588069439 1360.3571958243847 385.04874354600906 1495.0559823215008 2335.8117797970772 1730.6105228066444
leaf_count=12042 3401 4828 1227 6313 16377 2950 12593 637 9140 2187 12594 5752 3808 5097 1938 5633 363 633 1137 1418 2269 145 1430 10722 4343 4735 1335 5213 8160 6100
internal_value=-0.000107832 -0.0108429 0.00354892 0.00248661 -0.00380105 -0.00674677 0.00650649 -0.0160422 0.00430965 -0.00204526 -0.00127966 -0.00735413 0.00221087 -0.0218192 0.00456216 0.00734065 0.00406363 0.0167241 -0.000262039 0.0144446 -0.0175203 0.0149779 -0.00660949 0.0107631 0.000907989 0.00335861 0.0279847 0.0119709 -0.00158086 -0.00915614
internal_weight=44144 11216.6 32927.4 30471 11883 8168.78 18588 2743.41 14559.5 5425.36 10091.2 3008.7 6097.26 3047.83 2416.66 9613.57 4911.98 2456.38 5004.16 4028.5 2088.31 2274.35 3993.99 4701.58 1861.43 4807.02 426.598 1847.75 4945.89 1911.77
internal_count=154520 39502 115018 106465 41659 28735 64806 9687 50795 19048 35346 10580 21322 10767 8468 33495 17140 8553 17514 14011 7366 7920 14024 16355 6530 16777 1480 6440 17300 6737
is_linear=0
shrinkage=0.05


Tree=6
num_leaves=31
num_cat=0
split_feature=6 6 21 6 21 6 6 21 21 21 21 6 21 10 5 9 6 6 19 6 2 13 6 23 19 21 2 11 6 2
split_gain=901.367 227.919 128.573 98.2416 76.1925 65.101 61.6109 75.2801 57.6196 48.9375 44.0861 39.6099 38.1301 37.7396 37.0391 34.6211 34.0361 32.7424 31.8194 30.4365 29.7469 26.5082 25.6522 22.6791 22.1648 21.0108 18.6981 18.4351 17.1852 16.3322
threshold=0.20828703790903094 0.36525842547416693 0.027576601132750515 0.14246501028537753 0.017849867232143882 0.5553024709224702 0.28603538870811468 0.025972823612391952 0.01684387028217316 0.036882840096950538 0.045238189399242408 0.46349050104618078 0.02143382374197245 1.1040489673614504 0.16638854146003726 1.0041508674621584 0.17563696205616 0.71440255641937267 52.313106536865241 0.19517472386360171 0.026123771443963054 0.96872335672378551 0.24996405094861987 -0.77913397550582875 67.483081817626967 0.031416809186339385 0.10347623378038408 1.1290179491043093 0.24029130488634112 0.081472646445035948
decision_type=2 2 2 2 2 2 2 2 2 2 2 2 2 2 2 2 2 2 2 2 2 2 2 2 2 2 2 2 2 2
left_child=3 4 -3 15 24 9 12 29 19 11 -7 26 22 -11 16 18 -10 -12 -1 20 -5 -20 -6 -24 -2 -9 -4 -27 -26 -8
right_child=1 2 5 8 6 10 7 25 14 13 17 -13 -14 -15 -16 -17 -18 -19 21 -21 -22 -23 23 -25 28 27 -28 -29 -30 -31
leaf_value=0.045897589200203946 -0.0013009188965927448 -0.027724665738634052 -0.0059866230924901908 0.01014376590997974 0.00021180954313606014 -0.027528730217187172 -0.008152346023560535 -0.0025350267675237231 0.025689564346498796 0.0033930210342063812 -0.0042998622990772428 -0.022491562211082193 0.0037281278720860708 -0.010024175046340338 0.0091135379561697576 0.011865325511133286 0.013002000502346751 -0.021436926773296949 0.010262049308724396 -0.0067832413863054657 0.001614480517567813 0.026222123987230617 -0.021968632974353749 -0.0049807809432642555 -0.011972309695336318 0.0094583789985736369 -0.017068231081966364 -0.0025434085269766793 -0.025189195493971212 -0.016189870223099864
leaf_weight=160.36619633436203 321.24598750472069 1086.9886881709099 2111.010187536478 2374.750575453043 3201.9583072662354 682.89356371760368 2369.4277253746986 3228.8309660255909 815.10162365436554 1560.3188280761242 667.68483293056488 576.99792751669884 6662.1167286634445 788.91511207818985 3132.5239336192608 779.52679714560509 1513.7426889240742 479.59169664978981 344.50212833285332 482.92091941833496 1797.6488274037838 1079.8106773793697 239.7523675262928 1095.3026582598686 774.71551349759102 838.89662012457848 465.33540469408035 516.253910779953 362.53412944078445 865.1158963739872
leaf_count=570 1227 4285 8030 8746 11953 2683 9015 12082 2953 5835 2520 2236 24684 2968 11433 2822 5530 1865 1242 1823 6627 3883 925 4145 2949 3091 1772 1910 1398 3318
internal_value=9.98317e-05 -0.00475011 -0.0116751 0.0113288 -0.00190227 -0.00929496 -0.0010573 -0.00446346 0.00918329 -0.00657627 -0.0174654 -0.0106463 0.00132024 -0.00111082 0.0126677 0.0205068 0.0174457 -0.0114692 0.0247535 0.00509426 0.00647031 0.0223663 -0.0022144 -0.00803666 -0.0129157 -0.000341001 -0.00799069 0.00488268 -0.0161918 -0.0103041
internal_weight=41376.8 28895.9 8419.74 12480.9 20476.2 7332.75 19017.7 7818.53 10116.7 5502.58 1830.17 3153.34 11199.1 2349.23 5461.37 2364.21 2328.84 1147.28 1584.68 4655.32 4172.4 1424.31 4537.01 1335.06 1458.5 4583.98 2576.35 1355.15 1137.25 3234.54
internal_count=154520 108891 32194 45629 76697 27909 71123 29416 37112 20841 7068 12038 41707 8803 19916 8517 8483 4385 5695 17196 15373 5125 17023 5070 5574 17083 9802 5001 4347 12333
is_linear=0
shrinkage=0.05


Tree=7
num_leaves=31
num_cat=0
split_feature=6 6 21 21 6 21 6 6 21 6 21 21 6 21 21 6 6 21 7 21 6 21 21 6 6 21 6 6 6 21
split_gain=1953.69 548.129 473.812 403.284 310.013 267.513 261.578 247.057 241.68 225.023 129.948 86.0158 90.1772 76.6413 76.5779 71.4036 70.6201 80.2352 63.814 63.3145 60.344 59.299 57.949 55.4411 54.4862 50.5944 61.2732 39.2871 38.1245 34.1507
threshold=0.24510763585567477 0.37977582216262823 0.028086245059967044 0.033607436344027526 0.15920056402683261 0.019840338267385963 0.31108723580837255 0.53474846482276928 0.022240974009037021 0.20359476655721667 0.046195566654205329 0.025668350979685787 0.46349050104618078 0.01661607809364796 0.02438690792769194 0.33875438570976263 0.20269446074962619 0.023551008664071563 0.25630083680152899 0.042820710688829429 0.75637283921241771 0.032681152224540717 0.01777701918035746 0.46349050104618078 0.29091058671474462 0.017069033347070221 0.12812801450490954 0.17563696205616 0.26747262477874761 0.05365626513957978
decision_type=2 2 2 2 2 2 2 2 2 2 2 2 2 2 2 2 2 2 2 2 2 2 2 2 2 2 2 2 2 2
left_child=4 2 6 11 25 9 8 19 18 13 -9 -3 -13 -6 -8 -4 -7 -18 28 23 29 -17 -11 -5 -10 26 -1 -15 -2 -12
right_child=1 3 15 7 5 16 14 10 24 22 20 12 -14 27 -16 21 17 -19 -20 -21 -22 -23 -24 -25 -26 -27 -28 -29 -30 -31
leaf_value=-0.026656942949609925 0.013266169804665865 0.046583416388124133 -0.013232798058657156 0.0017993194953688767 -0.002467710865623599 -0.023300635323154198 0.027658849706557204 0.035304785350825645 -0.0043213034157520243 0.013259312775231073 0.015636796019480002 0.021951574848911918 0.041604711400543413 -0.01970907019304903 0.013597978969963759 0.0042909710949718526 -0.0082390879038046604 -0.021437558254889022 0.0060880932253523984 -0.0079364254787614406 0.027313505814616945 -0.010984388371266432 0.0015950574701192911 0.016174306594379014 0.0055120946816412343 -0.031953446966066647 -0.014775259860257267 -0.0091777083668744992 0.025428228131940511 -0.0013607668048927261
leaf_weight=1560.5432930886745 1513.4950684905052 706.23279348015785 3313.2676036655903 2148.1526482105255 3809.9132032990456 1798.9015204012394 1612.593389570713 1101.827068567276 4876.0416896045208 1804.7943681180477 580.36663842201233 2202.46937251091 795.6748109459877 1240.4756675958633 2430.6113736927509 1502.6998401582241 4114.6844581365585 1600.3087487816811 1725.6678256392479 1042.608378469944 529.09437587857246 1100.2934163808823 2599.6928234994411 975.8254588842392 1980.6136136949062 794.83288368582726 3577.2489098608494 3109.6016132235527 1126.4168858528137 600.91420176625252
leaf_count=4163 4044 1899 8837 5735 10163 4798 4317 2958 13007 4821 1551 5894 2136 3308 6494 4011 10974 4268 4608 2781 1417 2935 6937 2607 5288 2121 9540 8293 3011 1604
internal_value=5.40545e-06 0.00830535 0.00364782 0.0175393 -0.0101623 -0.00719466 0.00830342 0.0104603 0.00437415 -0.00273102 0.0219113 0.0308738 0.0271702 -0.00764729 0.0192078 -0.00836389 -0.0146578 -0.0119361 0.0135698 0.00272997 0.0132787 -0.00216422 0.00637596 0.00629156 -0.00148006 -0.0202047 -0.0183856 -0.0121824 0.0184582 0.00698657
internal_weight=57875.9 31864.9 21181.7 10683.2 26011 20078.4 15265.4 6978.79 11222.2 12564.5 2812.2 3704.38 2998.14 8159.99 4043.2 5916.26 7513.89 5714.99 4365.58 4166.59 1710.38 2602.99 4404.49 3123.98 6856.66 5932.63 5137.79 4350.08 2639.91 1181.28
internal_count=154520 85134 56552 28582 69386 53562 40769 18653 29958 33522 7530 9929 8030 21764 10811 15783 20040 15242 11663 11123 4572 6946 11758 8342 18295 15824 13703 11601 7055 3155
is_linear=0
shrinkage=0.05


Tree=8
num_leaves=31
num_cat=0
split_feature=6 21 21 6 21 6 21 21 6 21 6 6 11 21 11 8 21 6 11 6 14 8 6 6 21 22 11 10 12 22
split_gain=621.111 187.111 165.49 283.573 146.668 130.967 113.11 106.005 91.8564 69.9958 68.2419 67.1557 64.033 47.332 39.5954 39.5431 36.8119 41.2555 37.6778 33.6172 31.9017 31.2243 30.313 28.5639 28.5603 25.7311 25.2149 29.0178 24.7937 24.2063
threshold=0.34051708877086645 0.029646463692188266 0.02783121727406979 0.23841619491577151 0.019980214536190036 0.50783231854438793 0.041550476104021079 0.020388661883771423 0.19325329363346103 0.035839289426803596 0.29091058671474462 0.3874217569828034 1.0918223261833193 0.023794499225914482 1.2509248256683352 0.99933913350105297 0.036173418164253242 0.27757848799228674 1.1954414844512942 0.40174874663352972 36.567207336425788 0.98541381955146801 0.15002463757991794 0.41139276325702673 0.025772202759981159 0.32269304990768438 0.65416079759597789 0.92159730195999157 1.0144477486610415 0.76335260272026073
decision_type=2 2 2 2 2 2 2 2 2 2 2 2 2 2 2 2 2 2 2 2 2 2 2 2 2 2 2 2 2 2
left_child=2 13 3 7 -5 9 -7 8 15 11 12 -3 24 -2 23 25 17 -4 -19 -15 -9 -20 28 -11 -6 -1 27 -8 -17 -10
right_child=1 5 16 4 10 6 26 20 29 14 -12 -13 -14 19 -16 22 -18 18 21 -21 -22 -23 -24 -25 -26 -27 -28 -29 -30 -31
leaf_value=0.0014044585634970948 -0.033047043529909774 0.0010867730351437046 0.024565929589666625 -0.01726320173925195 -0.0023138220055708412 -0.030995878742853502 0.0011256997069161085 0.023311803975437157 -0.00319409558146291 0.0095815679660348606 -0.0072445116244742999 -0.01393889426943274 0.012811223742894806 -0.013791729838288963 0.016083015559577939 0.012264805826148967 0.036021012801503022 0.0069118957638012943 -0.012779940082738032 -0.026848670307502556 0.011225785405613911 0.029468514795954515 0.0072056002543416211 -0.0035096987973742434 0.0081675516285085077 0.0093485945204777269 -0.010552624998214714 0.059800290598339682 0.026922139557598052 0.0057968834307987171
leaf_weight=3494.6775647103786 642.57159999012947 1379.2352572977543 612.10774940252304 1765.1937085688114 4344.0263421833515 810.82269805669785 156.99887558817863 652.50450798869133 4021.8337995409966 629.4458931684494 3417.0644486546516 1612.035448372364 1049.9814293384552 1644.3037904202938 559.90266141295433 1267.5020551979542 186.26133531332016 1842.4390452206135 49.961065411567688 706.42159223556519 3380.7754755318165 339.58107313513756 3097.0708617568016 1231.6909201443195 764.08116510510445 1440.1412551105022 1714.6884035468102 24.274340897798538 374.84696486592293 919.43386405706406
leaf_count=12165 2338 4828 2096 6313 15231 2950 552 2235 14092 2187 12066 5752 3632 5863 1938 4350 633 6390 174 2566 11638 1158 10722 4343 2657 4975 6100 85 1283 3208
internal_value=-0.000100802 -0.0103258 0.00334018 0.00221475 -0.00401991 -0.00638528 -0.015365 0.00600632 0.00402547 -0.00189324 -0.00157781 -0.00700928 0.00156585 -0.0210118 0.00442575 0.00685843 0.0144757 0.0130617 0.00990356 -0.0177186 0.0131828 0.0240352 0.0101209 0.000915424 -0.000744889 0.00372397 -0.00867645 0.00903903 0.0156147 -0.00152003
internal_weight=44131.9 11112.4 33019.5 29989.1 11340.3 8119.09 2706.78 18648.8 14615.5 5412.31 9575.15 2991.27 6158.09 2993.3 2421.04 9674.24 3030.35 2844.09 2231.98 2350.73 4033.28 389.542 4739.42 1861.14 5108.11 4934.82 1895.96 181.273 1642.35 4941.27
internal_count=154520 39502 115018 104567 39899 28735 9687 64668 50795 19048 33586 10580 21520 10767 8468 33495 10451 9818 7722 8429 13873 1332 16355 6530 17888 17140 6737 637 5633 17300
is_linear=0
shrinkage=0.05


Tree=9
num_leaves=31
num_cat=0
split_feature=6 6 21 6 21 7 6 6 21 21 21 10 6 9 9 6 21 13 24 7 2 19 7 6 20 22 6 7 21 6
split_gain=804.62 206.848 121.175 86.1265 69.6826 60.609 60.2491 56.9404 65.7276 45.0252 41.554 39.0871 35.9841 35.6976 30.6121 30.4795 30.3719 28.3275 25.7088 21.3989 21.5973 20.699 28.3024 20.2002 20.0394 19.567 19.3909 19.3302 18.9659 17.0465
threshold=0.20828703790903094 0.36525842547416693 0.027576601132750515 0.14246501028537753 0.01819894835352898 0.20109263807535174 0.5553024709224702 0.28603538870811468 0.025972823612391952 0.036173418164253242 0.045238189399242408 1.112959146499634 0.41488932073116308 0.97553527355194103 1.0041508674621584 0.71440255641937267 0.02143382374197245 0.96822148561477672 0.077742084860801711 0.25036980211734777 0.077657099813222899 52.313106536865241 0.24087198078632358 0.16832682490348819 0.88337385654449474 0.35180103778839117 0.17563696205616 0.23995941877365115 0.031416809186339385 0.28729797899723059
decision_type=2 2 2 2 2 2 2 2 2 2 2 2 2 2 2 2 2 2 2 2 2 2 2 2 2 2 2 2 2 2
left_child=3 4 -3 14 27 13 9 16 19 12 -8 -11 -4 -5 17 25 18 -1 -6 -9 -21 22 -19 -15 26 -12 -7 -2 -10 -29
right_child=1 2 6 5 7 24 10 8 28 11 15 -13 -14 23 -16 -17 -18 21 -20 20 -22 -23 -24 -25 -26 -27 -28 29 -30 -31
leaf_value=0.010745836070802858 -0.01417562302230428 -0.026954570783985971 -0.0055232364810243791 -0.0045880224697061696 0.006579824846361099 0.017848811878727677 -0.02671718677045485 -0.01798778384678756 -0.0024423518893697299 0.0025655718078302376 -0.0098138593185860754 -0.011010926700297493 -0.016726411064711313 0.0106475080000142 0.011062942056529924 -0.020706927663820991 0.003516936100880848 0.052635769899339491 -0.0036937977570185611 -0.0045904631701952792 -0.01455782736067634 0.024377760630506777 -0.020329610644196038 0.0031169468241535273 0.0052759332210389961 0.0087260110007358668 0.011090252989162049 0.001859917278432604 0.0045963999307363041 -0.029317298268590058
leaf_weight=361.42217144370079 1356.5620434582233 1059.8323380947113 1616.3932123482227 903.60258370637894 737.43724358081818 1602.4412218332291 665.18452183902264 627.44893798232079 3223.7712288498878 1811.869024425745 458.97091063857079 749.16247719526291 1290.6181508600712 1628.0379282832146 787.692502617836 470.38835956156254 6683.148132622242 124.58543789386749 3486.5477134287357 1762.4301429092884 787.40139606595039 1113.0373140871525 14.717570811510084 1971.4827682077885 915.99154251813889 205.91698734462261 3171.3276725113392 367.11250707507133 1360.8183133006096 49.663204401731491
leaf_count=1286 5235 4285 6168 3328 2763 5772 2683 2443 12082 6793 1741 2837 5043 5908 2822 1865 24684 429 13110 6730 3055 3928 52 7258 3326 779 11520 1399 5001 195
internal_value=9.73513e-05 -0.00451635 -0.0111585 0.0106373 -0.00181 0.0086293 -0.00885427 -0.000909974 -0.00418346 -0.00624045 -0.0167889 -0.0014042 -0.0104992 0.00429353 0.0191574 -0.0109655 0.0014191 0.0231044 -0.0018989 -0.00971031 -0.00767085 0.0266659 0.0448819 0.00652456 0.0120598 -0.00406406 0.0133603 -0.0112817 -0.000351933 -0.00184932
internal_weight=41365 28770.7 8328.34 12594.3 20442.3 10192.9 7268.5 18669 7761.87 5468.04 1800.46 2561.03 2907.01 4503.12 2401.45 1135.28 10907.1 1613.76 4223.98 3177.28 2549.83 1252.34 139.303 3599.52 5689.76 664.888 4773.77 1773.34 4584.59 416.776
internal_count=154520 108891 32194 45629 76697 37112 27909 69868 29311 20841 7068 9630 11211 16494 8517 4385 40557 5695 15873 12228 9785 4409 481 13166 20618 2520 17292 6829 17083 1594
is_linear=0
shrinkage=0.05


Tree=10
num_leaves=31
num_cat=0
split_feature=6 6 21 21 6 21 6 6 6 6 21 21 21 21 6 6 21 21 7 21 6 6 21 21 6 6 22 6 21 21
split_gain=1749.41 532.579 410.732 366.461 248.198 233.517 224.094 193.243 146.224 142.521 214.498 140.667 120.618 78.8817 82.6878 76.2909 81.0227 56.3678 56.1231 55.8059 53.1822 52.007 50.0323 46.8917 56.1153 43.3984 42.707 38.0318 34.9176 34.6999
threshold=0.23744796961545947 0.37977582216262823 0.024047728627920154 0.033607436344027526 0.15920056402683261 0.01908363122493029 0.54464104771614086 0.30281865596771246 0.19802775233983996 0.29898834228515631 0.028217073529958728 0.020181281492114071 0.046195566654205329 0.025668350979685787 0.45288452506065374 0.20269446074962619 0.023551008664071563 0.043547926470637328 0.20014008134603503 0.032681152224540717 0.46349050104618078 0.75637283921241771 0.0277027040719986 0.017069033347070221 0.12236563488841058 0.27991785109043127 0.78418391942977916 0.33325779438018804 0.019698625430464748 0.01777701918035746
decision_type=2 2 2 2 2 2 2 2 2 2 2 2 2 2 2 2 2 2 2 2 2 2 2 2 2 2 2 2 2 2
left_child=4 2 7 13 23 8 17 11 18 22 27 -2 -8 -3 -15 -7 26 20 -6 -12 -5 -14 -4 24 -1 -13 -17 -11 -9 -10
right_child=1 3 9 6 5 15 12 28 29 10 19 25 21 14 -16 16 -18 -19 -20 -21 -22 -23 -24 -25 -26 -27 -28 -29 -30 -31
leaf_value=-0.02724167417545071 0.017512356553099878 0.044470888161060672 -0.0060142512699270642 0.0015429703191327103 -0.0025113830952425164 -0.021065698231172259 0.03529017192124706 0.041852146703088719 0.0095907937428759832 0.0064354956764792973 -0.0015514350265693187 0.00051251531372630726 0.0069202131140634025 0.020341348812258343 0.038482042912635087 -0.004634365215500349 -0.022294154923633333 -0.0074571132555192321 -0.011714132604940827 -0.013049326562385118 0.014872728016684135 0.026017447074798718 -0.016896224313595373 -0.030468224903890718 -0.014615931635582148 0.010837210510244361 -0.017032264694716255 0.017001121249355173 0.022520687726528883 -5.7221353687205791e-05
leaf_weight=1129.9074632227421 2417.8876356780529 700.49719819426537 3589.7103106379509 2220.7993338406086 3444.6707960963249 2518.5303578078747 981.96677467226982 275.25312176346779 2130.9074972569942 2126.2908869981766 2925.2058831453323 4156.0821357965469 1103.3854882717133 2087.1304472088814 900.52611124515533 3285.3533018529415 1142.2092604339123 1005.8297573626041 3194.866791009903 1651.8971653580666 1129.213054895401 527.42911124229431 1498.2526945471764 793.45140212774277 4004.7477671205997 1348.284580796957 881.55615037679672 1423.6715224087238 1577.854506790638 1654.4705561101437
leaf_count=3018 6474 1899 9575 5930 9187 6721 2651 742 5694 5682 7806 11090 2949 5598 2432 8762 3048 2684 8521 4406 3022 1417 3996 2121 10685 3602 2351 3811 4232 4414
internal_value=8.8258e-07 0.00737332 0.00309023 0.0166129 -0.0102576 -0.00737016 0.00986623 0.0108607 -0.00246897 -0.00265736 0.00145059 0.00745959 0.0214432 0.0293584 0.025812 -0.0138969 -0.0104948 0.00292047 -0.0069405 -0.00570236 0.00603793 0.0131008 -0.00921992 -0.0191468 -0.0173957 0.00304259 -0.00725882 0.0106745 0.0253969 0.00537274
internal_weight=57827.8 33647.2 22990.4 10656.8 24180.7 18252.6 6968.62 9775.36 10424.9 13215 8127.07 7922.25 2612.78 3688.15 2987.66 7827.65 5309.12 4355.84 6639.54 4577.1 3350.01 1630.81 5087.96 5928.11 5134.66 5504.37 4166.91 3549.96 1853.11 3785.38
internal_count=154520 89998 61416 28582 64522 48698 18653 26140 27816 35276 21705 21166 7017 9929 8030 20882 14161 11636 17708 12212 8952 4366 13571 15824 13703 14692 11113 9493 4974 10108
is_linear=0
shrinkage=0.05


Tree=11
num_leaves=31
num_cat=0
split_feature=6 21 21 6 21 6 21 21 6 21 6 6 11 21 22 11 6 11 21 8 6 14 8 7 6 21 11 10 20 7
split_gain=557.192 174.16 146.92 255.514 134.426 119.987 101.522 93.9605 79.3672 63.4228 66.6023 57.0647 56.5218 45.153 38.5584 36.5058 36.2601 38.6123 37.7977 32.5619 31.4752 31.3836 30.0269 29.26 28.7223 25.8708 22.4849 28.0583 24.9615 22.1135
threshold=0.34051708877086645 0.029646463692188266 0.0277027040719986 0.23841619491577151 0.019698625430464748 0.52531808614730846 0.043547926470637328 0.020323099568486217 0.17666205018758777 0.035839289426803596 0.3874217569828034 0.29091058671474462 1.089563846588135 0.023794499225914482 0.031879978254437454 1.2509248256683352 0.27757848799228674 1.170831620693207 0.036173418164253242 0.98612019419670116 0.40174874663352972 36.567207336425788 1.011904835700989 0.3442500531673432 0.41139276325702673 0.022094001062214378 0.65416079759597789 0.88860002160072338 0.31149648129940039 0.13952483981847766
decision_type=2 2 2 2 2 2 2 2 2 2 2 2 2 2 2 2 2 2 2 2 2 2 2 2 2 2 2 2 2 2
left_child=2 13 3 7 -5 9 -7 8 22 10 -3 12 25 -2 -10 24 -4 18 -18 -19 -15 -9 23 29 -11 -6 27 -8 -28 -1
right_child=1 5 16 4 11 6 26 21 14 15 -12 -13 -14 20 -16 -17 17 19 -20 -21 -22 -23 -24 -25 -26 -27 28 -29 -30 -31
leaf_value=-0.004375529463851207 -0.032188930899476532 0.0010524057190662115 0.023571498399617558 -0.017702715221624369 -0.005784923084573756 -0.02987841915842564 -0.0027651448731371535 0.022156202840739603 -0.0027732971557282229 0.009107409197154144 -0.013825910926345936 -0.0069854945411606433 0.011453942171108806 -0.013224124167343927 0.0046445374273343231 0.014044598686327027 0.0055404503587989694 -0.0084554047996531507 0.0385665115754616 0.02645146998504257 -0.025982849521082631 0.010347843550886672 0.016340709913044298 0.033861514708460758 -0.0037172457341181522 0.0015515422094604416 -0.0027041507486720929 0.044555052156870334 -0.016128970424140871 0.0067449442532334274
leaf_weight=484.11137986183167 624.83618938922882 1379.8908424675465 685.08505675196648 1525.910082757473 1875.8526742458344 808.23300579190254 119.58379766345024 671.66554582118988 4523.1391594111919 633.24038165807724 1651.8358310163021 3370.7631196677685 1085.4993219971657 1626.517924696207 2859.1601142883301 629.16343861818314 1814.0387223958969 76.694864541292191 90.956455230712891 505.44899412989616 690.15278434753418 3502.8403666317463 845.02474898099899 94.839318931102753 1405.0509902238846 3341.3950789570808 631.18756124377251 42.261528730392456 769.80176776647568 5749.0783501565456
leaf_count=1655 2338 4828 2310 5526 6626 3010 422 2267 15821 2187 5970 11989 3732 5863 9942 2165 6255 266 304 1699 2566 11953 2885 321 4977 11674 2252 146 2778 19793
internal_value=-9.25566e-05 -0.00983541 0.00314843 0.00206373 -0.00391044 -0.00603812 -0.0154903 0.00563622 0.00373912 -0.00210459 -0.00705258 -0.00173415 0.00107358 -0.0202513 9.89725e-05 0.00351729 0.0133804 0.0105704 0.00712189 0.0218434 -0.0170282 0.0122495 0.0074847 0.00630107 0.000264816 -0.00108537 -0.0080447 0.00958025 -0.0100849 0.0058804
internal_weight=44113.3 11011.8 33101.5 29929.3 11199.4 8070.25 2371.07 18729.9 14555.4 5699.18 3031.73 9673.51 6302.75 2941.51 7382.3 2667.45 3172.22 2487.14 1905 582.144 2316.67 4174.51 7173.05 6328.03 2038.29 5217.25 1562.83 161.845 1400.99 6233.19
internal_count=154520 39502 115018 104184 39547 28735 8608 64637 50417 20127 10798 34021 22032 10767 25763 9329 10834 8524 6559 1965 8429 14220 24654 21769 7164 18300 5598 568 5030 21448
is_linear=0
shrinkage=0.05


Tree=12
num_leaves=31
num_cat=0
split_feature=6 6 21 21 6 7 6 6 7 21 21 6 6 21 10 9 6 6 7 16 17 17 23 9 17 7 20 8 9 6
split_gain=718.19 210.361 113.945 60.8497 67.7097 66.5167 58.1268 55.6982 51.7703 39.2915 35.9972 35.547 33.6643 35.7225 33.2958 32.7178 25.7806 24.2279 27.3359 23.2398 25.6676 23.6703 23.1245 22.7178 20.9628 19.9911 18.9745 18.7859 17.4638 19.8434
threshold=0.19802775233983996 0.36525842547416693 0.027576601132750515 0.017849867232143882 0.24996405094861987 0.25123339891433721 0.13903782516717914 0.5670374631881715 0.1840707063674927 0.036882840096950538 0.045238189399242408 0.43476098775863653 0.29091058671474462 0.031416809186339385 1.1040489673614504 1.0041508674621584 0.71440255641937267 0.23744796961545947 0.20991150289773944 1.1769570112228396 0.022321538068354133 0.68772917985916149 1.3071249127388003 0.94997370243072521 -5.8643841743469229 0.17798186838626864 0.88337385654449474 0.9784471094608308 1.0664485692977907 0.27757848799228674
decision_type=2 2 2 2 2 2 2 2 2 2 2 2 2 2 2 2 2 2 2 2 2 2 2 2 2 2 2 2 2 2
left_child=6 3 -3 17 -5 28 15 9 22 11 -9 24 -7 23 -11 19 -12 18 -2 20 -1 -22 -8 -14 -4 -23 -10 -25 29 -6
right_child=1 2 7 4 5 12 8 10 26 14 16 -13 13 -15 -16 -17 -18 -19 -20 -21 21 25 -24 27 -26 -27 -28 -29 -30 -31
leaf_value=0.042726936545581726 -0.012637731116267415 -0.026194006013213131 0.044928582541522114 0.0033768431804285302 -0.0072303297723695474 0.0026531112841599496 0.0066227599581792215 -0.026757037595563644 0.013292822012110968 0.002780107662879153 -0.0042089445103090702 -0.017533717205669389 -0.012373478936778599 0.0041238223095934889 -0.0095504673119149088 0.0095074026712469954 -0.019984844061783188 -0.019000960002589024 0.00069606724220299884 0.016250299810070475 0.019264580170154783 0.09888769716397533 -0.0033679170557461401 0.0062994058826504815 -0.006597027918950356 0.030053782135093028 0.0055006751719885501 -0.0046643999660767833 0.0054205505248925492 -0.016774624482810262
leaf_weight=235.06861117482185 820.54420518875122 1033.0948499590158 19.805056035518646 7285.6959797739983 1267.1301676630974 4023.8348093032837 2123.8950808048248 567.27912718057632 4920.6824392676353 1638.5173464566469 592.65684017539024 1005.1215632855892 880.09285300970078 1333.3153540790081 821.86641846597195 673.42392256855965 461.35137623548508 507.31172145903111 721.76894354820251 686.44140461087227 459.87929859757423 17.611489504575729 795.53716838359833 434.54646433889866 2100.6508578062057 27.17375773191452 931.75763314962387 3836.8488071858883 166.49511784315109 959.16987453401089
leaf_count=807 3154 4285 76 26865 4793 14960 7710 2349 17641 6144 2255 4012 3381 4880 3132 2385 1865 2004 2752 2391 1585 61 2902 1648 8076 94 3364 14587 631 3731
internal_value=9.66212e-05 -0.00383891 -0.0106628 -0.0013099 -0.000476204 -0.00265249 0.0111299 -0.0084355 0.00933986 -0.00606587 -0.0165958 -0.00978657 -0.000938779 -0.00316833 -0.00133699 0.0186053 -0.0111202 -0.00951831 -0.00639492 0.0228967 0.0290545 0.0226689 0.00389859 -0.00505671 -0.00611132 0.0573936 0.0120532 -0.00354772 -0.0101763 -0.0113452
internal_weight=41348.6 30477.1 8240.34 22236.8 20187.1 12901.4 10871.5 7207.25 8771.87 5585.96 1621.29 3125.58 10508.6 6484.8 2460.38 2099.6 1054.01 2049.62 1542.31 1426.17 739.733 504.665 2919.43 5151.49 2120.46 44.7852 5852.44 4271.4 2392.8 2226.3
internal_count=154520 115580 32194 83386 75476 48611 38940 27909 31617 21440 6469 12164 39456 24496 9276 7323 4120 7910 5906 4938 2547 1740 10612 19616 8152 155 21005 16235 9155 8524
is_linear=0
shrinkage=0.05


Tree=13
num_leaves=31
num_cat=0
split_feature=6 6 6 11 22 22 22 6 11 6 8 14 6 9 25 25 0 11 11 15 25 11 3 16 25 6 6 22 3 10
split_gain=1571.89 414.44 272.168 124.097 100.04 94.1404 93.3094 84.0185 71.2629 67.4801 49.562 45.6871 39.0442 38.8273 30.992 27.5544 25.9905 25.5302 25.4337 23.3781 23.2582 23.2192 23.0382 23.2039 22.1238 23.3759 21.7427 19.6425 19.5862 19.5739
threshold=0.24996405094861987 0.37977582216262823 0.17563696205616 1.087316155433655 0.39499825239181524 0.075531642884016051 0.3372619897127152 0.54464104771614086 1.2128677368164065 0.13510531932115558 1.0015925765037539 65.036861419677749 0.29763701558113104 0.98231577873229992 -0.0091391284950077516 -0.0076155434362590304 -0.025815711356699463 0.79086819291114818 1.0751644372940066 0.90905141830444347 -0.011558063328266142 1.0292225480079653 0.14793869853019717 1.7013029456138613 0.007621253840625287 0.20557531714439395 0.19229054450988772 0.43994787335395819 -0.051185907796025269 1.123399078845978
decision_type=2 2 2 2 2 2 2 2 2 2 2 2 2 2 2 2 2 2 2 2 2 2 2 2 2 2 2 2 2 2
left_child=2 3 9 4 11 10 7 8 14 -1 21 15 -5 -11 -3 -2 -16 -13 -7 -8 -9 26 -17 -24 25 -12 -4 -15 29 -14
right_child=1 6 5 12 -6 18 19 20 -10 13 24 17 28 27 16 22 -18 -19 -20 -21 -22 -23 23 -25 -26 -27 -28 -29 -30 -31
leaf_value=-0.023160541605100889 0.0005619883358250554 0.0090529402531783574 -0.003852790005191932 -0.0092549450029511017 -0.00093220088923752519 -0.0083889530450941552 0.0050105829982691466 0.016622879528712619 0.0032226908968973362 -0.0077173044468830942 -0.0099802988055045921 0.00422273345507637 0.0047339112520584101 -0.013720811919746152 0.0019453887663177872 0.0092636582707630744 0.020795320626386227 0.019385017802499502 -0.016646601677512508 0.015058047268485201 0.029396800231137745 -0.0051440985545550639 -0.0053048491832125982 0.0077971249670352851 -0.019574933173949673 -0.0023176593786569397 0.0039058001593741797 -0.020744698902684971 -0.0073664555988808781 -0.0060511303945999613
leaf_weight=2284.6936981976032 1457.3035920262337 812.14363953471184 1174.7813717722893 1811.1649738848209 4094.0722724199295 5764.6536132097244 1997.6980195641518 449.80337649583817 1005.1478714644909 2180.3718969523907 1660.7427387833595 358.18352004885674 1794.194530069828 3452.8379310071468 193.33293402194977 6628.2198733687401 3586.8349149525166 1249.2780213356018 1114.540799587965 816.75556635856628 1762.7078132927418 1410.9720996320248 593.13957077264786 784.45850300788879 294.44590017199516 2489.6385352909565 3895.6441865861416 1405.7096709311008 692.43998086452484 549.13734096288681
leaf_count=6111 3895 2180 3134 4833 10943 15387 5356 1212 2689 5819 4432 959 4795 9218 518 17732 9660 3349 2975 2200 4767 3766 1585 2099 786 6647 10403 3754 1850 1466
internal_value=-5.14547e-06 0.00775633 -0.00877013 0.0035186 0.00574472 -0.00514567 0.0157377 0.0185511 0.015288 -0.0156911 -0.00226023 0.00821439 -0.00344524 -0.0132657 0.0179276 0.00688949 0.0198327 0.0160101 -0.00972778 0.00792857 0.026803 0.000527769 0.00804065 0.00215233 -0.00632672 -0.00538518 0.00210716 -0.0157544 1.94209e-05 0.00220426
internal_weight=57765 30636 27129 20011.6 15164.7 17805.4 10624.4 7809.97 5597.46 9323.61 10926.2 11070.6 4846.94 7038.92 4592.31 9463.12 3780.17 1607.46 6879.19 2814.45 2212.51 6481.4 8005.82 1377.6 4444.83 4150.38 5070.43 4858.55 3035.77 2343.33
internal_count=154520 82088 72432 53506 40562 47530 28582 21026 15047 24902 29168 29619 12944 18791 12358 25311 10178 4308 18362 7556 5979 17303 21416 3684 11865 11079 13537 12972 8111 6261
is_linear=0
shrinkage=0.05


Tree=14
num_leaves=31
num_cat=0
split_feature=6 21 21 6 6 21 21 21 6 21 6 6 6 21 7 21 11 12 7 11 0 6 6 6 3 6 11 10 6 21
split_gain=500.828 161.459 135.1 264.322 109.943 104.823 102.399 71.5634 68.7109 58.2754 57.1521 55.0751 52.2365 53.5768 46.734 43.1724 32.9433 32.3188 35.2527 32.1259 30.7449 29.5307 24.4232 23.471 23.2889 23.2775 22.6819 24.2703 22.4224 22.8918
threshold=0.34051708877086645 0.029646463692188266 0.026171601377427581 0.23448698222637179 0.50783231854438793 0.019698625430464748 0.041550476104021079 0.020181281492114071 0.14860386401414874 0.035839289426803596 0.28350716829299932 0.3874217569828034 0.26319290697574621 0.029971953481435779 0.3442500531673432 0.023794499225914482 1.2509248256683352 1.0144477486610415 0.13952483981847766 1.089563846588135 -0.010640605352818964 0.40174874663352972 0.19325329363346103 0.27195020020008093 0.29928663372993475 0.41139276325702673 0.65416079759597789 0.92159730195999157 0.6151222586631776 0.072353105992078795
decision_type=2 2 2 2 2 2 2 2 2 2 2 2 2 2 2 2 2 2 2 2 2 2 2 2 2 2 2 2 2 2
left_child=2 15 3 7 9 23 -6 8 17 11 19 -3 -4 -14 20 -2 25 18 -1 -7 -10 -17 -22 24 -5 -11 27 -8 -28 -30
right_child=1 4 12 5 6 10 26 -9 14 16 -12 -13 13 -15 -16 21 -18 -19 -20 -21 22 -23 -24 -25 -26 -27 28 -29 29 -31
leaf_value=-0.0051784567645577788 -0.031362602738912566 0.00093706842307009599 0.021908108425544682 -0.013681054927625553 -0.029407882901000396 -0.0010633982872052777 0.0016201755416647068 0.01133724934779826 0.0074022279190357788 0.0086366290983714688 -0.0078943004438063319 -0.012736026820473834 0.0040768712217640708 0.016031728229458485 0.023234111933067153 -0.012660214743806852 0.014629026820377365 0.024231752816962326 0.010609749631085351 0.0095425778555202588 0.002228666994728365 -0.025140750009489107 -0.0030838629848939677 -0.025926481168143369 0.029495735161585032 -0.0031462006783629219 -0.0034433488527692902 0.054336582606636978 -0.018537404971650236 0.0032119835634906117
leaf_weight=413.62280637025833 607.45455873012543 1382.1358334124088 844.27715149521828 1230.7972898185253 771.76312646269798 4534.6234234273434 155.83723866939545 3838.4244404733181 1711.8806008696556 637.01411089301109 3125.6545602083206 1574.8770476877689 2685.7018506526947 1440.8639180958271 247.50811582803726 1608.8632351160049 569.41424006223679 359.15333065390587 2416.9924327135086 847.24485310912132 5378.7510767281055 674.24770817160606 3618.8063678741455 447.91159543395042 31.882132053375244 1224.6087037920952 794.4833869934082 25.336206048727036 745.36284297704697 143.93796855211258
leaf_count=1411 2338 4828 2828 4481 2950 15908 552 12974 5912 2187 11158 5752 9315 4853 846 5863 1938 1198 8231 2896 18527 2566 12703 1661 116 4343 2865 85 2712 523
internal_value=-8.37598e-05 -0.00937409 0.00297292 0.00163313 -0.00572338 -0.00478841 -0.0140895 0.00528177 0.00363831 -0.00162819 -0.0025168 -0.00634359 0.0105733 0.00825262 0.00175758 -0.0195069 0.0041054 0.0100969 0.00830083 0.000605473 0.00126055 -0.0163491 9.14078e-05 -0.0160824 -0.0125846 0.000883235 -0.00774644 0.00904579 -0.00955667 -0.0150116
internal_weight=44089.4 10915.3 33174.1 28203.3 8024.77 10218.1 2636.72 17985.1 14146.7 5388.05 8507.52 2957.01 4970.84 4126.57 10956.9 2890.57 2431.04 3189.77 2830.62 5381.87 10709.4 2283.11 8997.56 1710.59 1262.68 1861.62 1864.96 181.173 1683.78 889.301
internal_count=154520 39502 115018 98022 28735 36220 9687 61802 48828 19048 29962 10580 16996 14168 37988 10767 8468 10840 9642 18804 37142 8429 31230 6258 4597 6530 6737 637 6100 3235
is_linear=0
shrinkage=0.05


Tree=15
num_leaves=31
num_cat=0
split_feature=6 6 6 21 21 7 6 2 6 8 10 6 7 6 6 21 11 5 24 7 21 2 19 11 7 18 17 2 14 7
split_gain=632.348 127.198 106.839 96.1403 78.8041 61.6293 51.0748 47.1784 43.4635 42.199 37.4248 31.1917 30.8688 28.5431 28.3053 27.8695 26.3959 25.6694 24.7398 36.7522 24.2972 23.4787 25.6657 21.4067 21.0586 20.7918 19.0735 17.6314 22.1243 18.4756
threshold=0.24029130488634112 0.15920056402683261 0.40797561407089239 0.034920161589980132 0.021647231653332714 0.2171895429491997 0.71440255641937267 0.035760786384344108 0.27312026917934423 1.0077881813049319 0.96887215971946727 0.19517472386360171 0.19504826515913012 0.20648887008428576 0.3297742903232575 0.027462108060717586 0.91350701451301586 0.1759670823812485 0.079186931252479567 0.1908618360757828 0.029350723139941696 -0.073301378637552247 389.77622985839849 1.3102877140045168 0.1908618360757828 34.10614204406739 1.1966904401779177 0.024589689448475841 44.317333221435554 0.29230938851833349
decision_type=2 2 2 2 2 2 2 2 2 2 2 2 2 2 2 2 2 2 2 2 2 2 2 2 2 2 2 2 2 2
left_child=1 18 4 15 8 9 21 10 12 11 16 -3 -2 -7 26 -4 -6 -12 25 -20 -16 22 -5 -24 -13 -1 -9 28 -15 -29
right_child=2 5 3 6 7 13 -8 14 -10 -11 17 24 -14 27 20 -17 -18 -19 19 -21 -22 -23 23 -25 -26 -27 -28 29 -30 -31
leaf_value=0.036924539244595066 -0.028975457291732211 0.0015684667119126982 -0.032564137238480846 -0.011859393514994926 0.0017370367531270798 0.010522226182333762 -0.021464029387454044 -0.0011984240984939294 -0.018220966584643478 0.0076180466930206685 -0.0079386313616973056 -0.013967600405295095 -0.0046259819173761711 0.0020929635990561634 -0.016182016164467263 -0.017810140957205518 0.018668468167394443 -2.6892224572889032e-05 -9.9922329452879701e-05 0.016988795539378997 -0.0044734437137536566 -0.0016691211640696266 0.0056511066060424527 0.076303592046525828 -0.0028630928197903634 0.015494196272915199 -0.011888869509871558 -0.0025285559841599229 0.011822358658893771 0.0082407134462164962
leaf_weight=117.71267759799957 139.73270502686501 2598.3496602475643 421.67228980362415 1244.6714797765017 508.11019551753998 3614.4435721635818 547.12097875773907 2314.7441297024488 1220.8846667408943 1552.7454690337181 1193.2391538619995 674.90967261791229 1905.6205003410578 1086.1729685664177 1030.4569642692804 1348.0278135985136 421.88557101786137 7285.8069321811199 661.67016929388046 598.78924202919006 779.9546864926815 2066.9004726558924 54.589579209685326 13.307920545339583 1166.1214226782322 3171.4224289059639 509.28982463479042 1280.2504183351994 1268.2432427406311 577.82292810082436
leaf_count=403 547 9438 1798 4795 1913 12896 2265 8700 4841 5681 4506 2562 7291 3993 4077 5456 1590 27403 2345 2084 2944 7973 212 51 4365 11031 1928 4769 4689 2124
internal_value=-0.000189676 0.0067279 -0.00571308 -0.0116531 -0.00375799 0.00433995 -0.00729004 -0.00213051 -0.0107537 0.000522838 -9.60566e-05 -0.00195782 -0.00629325 0.00726156 -0.00625978 -0.0213301 0.00942441 -0.00114097 0.0139798 0.00801492 -0.0111411 -0.00499329 -0.0102235 0.0196644 -0.00693718 0.0162638 -0.00312848 0.00446243 0.00733626 0.00081804
internal_weight=41374.7 18368.7 23006 5696.29 17309.7 13819.1 3926.59 14043.5 3266.24 5992.13 9409.04 4439.38 2045.35 7826.93 4634.45 1769.7 929.996 8479.05 4549.59 1260.46 1810.41 3379.47 1312.57 67.8975 1841.03 3289.14 2824.03 4212.49 2354.42 1858.07
internal_count=154670 66380 88290 22550 65740 50517 15296 53061 12679 22046 35412 16365 7838 28471 17649 7254 3503 31909 15863 4429 7021 13031 5058 263 6927 11434 10628 15575 8682 6893
is_linear=0
shrinkage=0.05


Tree=16
num_leaves=31
num_cat=0
split_feature=6 6 21 21 6 21 6 21 21 21 6 6 21 6 6 21 6 6 21 6 21 7 21 6 6 21 6 6 21 6
split_gain=1470.78 322.33 409.975 331.64 238.785 275.433 160.421 173.027 138.675 117.061 118.129 112.045 105.441 99.7512 85.5388 85.0695 108.083 84.0934 63.6559 73.1058 52.9745 47.833 44.4866 44.2742 37.2043 33.9879 31.7101 31.2718 26.7923 30.463
threshold=0.24996405094861987 0.35670687258243566 0.024478665553033355 0.0277027040719986 0.17563696205616 0.019980214536190036 0.6151222586631776 0.036882840096950538 0.049865784123539932 0.029055583290755752 0.30029097199440008 0.42260882258415228 0.020529046654701236 0.20921248197555545 0.29898834228515631 0.01684387028217316 0.14081635326147082 0.42260882258415228 0.023714585229754451 0.22700326889753344 0.017069033347070221 0.21183034032583239 0.042820710688829429 0.71440255641937267 0.51563337445259105 0.023714585229754451 0.50043863058090221 0.27419495582580572 0.032681152224540717 0.39313353598117834
decision_type=2 2 2 2 2 2 2 2 2 2 2 2 2 2 2 2 2 2 2 2 2 2 2 2 2 2 2 2 2 2
left_child=4 2 12 25 15 13 7 11 -8 10 -4 28 27 20 -14 16 -1 -9 19 -7 -6 -15 24 -10 -19 -3 -13 -2 29 -5
right_child=1 3 9 6 5 18 8 17 23 -11 -12 26 14 21 -16 -17 -18 22 -20 -21 -22 -23 -24 -25 -26 -27 -28 -29 -30 -31
leaf_value=-0.019985263260549786 0.015809549832927077 0.042400407789312436 -0.0064073127819317139 0.0069290806416944274 0.0015073082404515672 -0.014356709677581958 0.040432390407561455 -0.01388977701043799 -0.0012549664758194751 -0.011260751526944017 0.0071148890529038958 0.019274516508362129 0.0041718045995008139 0.013323079837890148 0.017490856536387659 -0.023425541131645675 -0.0073411663666995905 0.0051167939309936603 -0.019944781887386062 -0.0029632035782320219 -0.0079804066745074939 0.0021127590747203259 -0.002102504520484503 0.020224943344626784 0.023046973113446497 0.028062634868074351 0.034012575384673054 0.028161762912144755 0.0019712534921820604 0.020185909408450057
leaf_weight=2787.0162244141102 1187.4208183288574 605.32596758008003 3302.1644951999187 1288.6869486868382 2648.5817654132843 3343.9093364179134 738.65611770749092 885.14575153589249 390.56619712710381 3394.4833389520645 3161.1072112321854 1475.7624012827873 4117.0810339152813 1548.5728540122509 1705.4287491738796 2278.3520894050598 4299.6919482350349 1126.8329740762711 1982.9513949155807 2434.0561846792698 3307.4561961293221 2471.4631457030773 1667.2995839715004 619.98881819844246 389.73709508776665 1323.7084901928902 487.07046839594841 906.38992995023727 1234.152029722929 654.40792754292488
leaf_count=7467 3189 1665 8809 3450 7067 8929 2019 2361 1045 9058 8456 3984 10994 4142 4585 6098 11475 3013 5298 6493 8825 6604 4463 1676 1060 3603 1332 2447 3299 1764
internal_value=-7.31266e-05 0.00742783 0.00306215 0.0134485 -0.00855937 -0.00514863 0.0100823 0.00744481 0.0239641 -0.00374245 0.000205465 0.0135426 0.0115361 0.00034649 0.00807408 -0.0150185 -0.0123147 -0.000256993 -0.0122128 -0.00955802 -0.00376053 0.0064326 0.0035318 0.011919 0.00972911 0.0325663 0.0229358 0.0211602 0.00773758 0.0113972
internal_weight=57763.5 30661.4 17774.1 12887.3 27102.1 17737 10958.3 9209.1 1749.21 9857.76 6463.27 5140.08 7916.32 9976.07 5822.51 9365.06 7086.71 4069.02 7760.92 5777.97 5956.04 4020.04 3183.87 1010.56 1516.57 1929.03 1962.83 2093.81 3177.25 1943.09
internal_count=154670 82272 47538 34734 72398 47358 29466 24726 4740 26323 17265 13829 21215 26638 15579 25040 18942 10897 20720 15422 15892 10746 8536 2721 4073 5268 5316 5636 8513 5214
is_linear=0
shrinkage=0.05


Tree=17
num_leaves=31
num_cat=0
split_feature=22 24 5 14 11 1 3 0 5 25 3 1 11 24 21 7 22 21 14 7 24 5 22 21 24 5 7 7 24 10
split_gain=174.896 137.592 75.4812 72.8141 51.7264 35.8721 33.8112 31.4072 26.9878 26.1091 24.9289 23.7855 29.9968 21.4136 24.9507 21.0311 20.0839 18.4792 17.2921 16.8843 22.999 16.3122 15.3044 15.1791 14.99 14.7062 14.6122 14.7646 27.2017 15.7693
threshold=0.12046303972601892 0.12974819540977481 0.44436380267143255 39.376901626586921 1.0809717774391177 -0.0043911682441830626 -0.060292318463325494 -1.0000000180025095e-35 0.18565966933965686 0.0079193892888724821 -0.19709581136703488 -0.001998408697545528 1.1578739881515505 0.25691473484039312 0.023074229247868065 0.3716165572404862 1.1077221632003786 0.017492996528744701 37.236623764038093 0.40249024331569677 0.099709082394838347 0.64785993099212658 -0.90852683782577504 0.025105358101427559 0.10543047264218332 0.18886847794055941 0.17563806474208835 0.45773343741893774 0.17522747069597247 0.90190094709396373
decision_type=2 2 2 2 2 2 2 2 2 2 2 2 2 2 2 2 2 2 2 2 2 2 2 2 2 2 2 2 2 2
left_child=1 4 5 11 7 6 9 18 -8 -2 -4 12 22 14 -14 -9 24 -17 -1 -6 25 26 -3 -12 -7 -21 -5 29 -29 -28
right_child=2 3 10 21 19 16 8 15 -10 -11 23 -13 13 -15 -16 17 -18 -19 -20 20 -22 -23 -24 -25 -26 -27 27 28 -30 -31
leaf_value=0.011616303606606817 0.01184366279020514 0.011411924383608588 0.0080286392087338988 0.036059130188731497 0.0058624510397995711 0.0043162991270070282 0.011393627653745452 -0.0031875753761148908 0.0030088515146203332 0.028927398491258818 -0.016666483362351381 -0.0094358656291391868 -0.01543869657099254 -0.0007923488130498525 0.0192161989956794 0.050105602374172942 0.0069851424700033415 0.0053782684206974529 0.0013749370355023926 0.0092707430967686379 0.0089168097541702501 -0.017702615018978834 -0.0045608428764625621 -0.0040617121416029536 -0.00135402714584457 0.051729635855629702 -0.014701758676265518 0.0058346779255965629 -0.0081827895033941746 -0.0082712908525873815
leaf_weight=440.51792433857918 1787.8791745007038 177.58277380466461 390.94373282790184 18.404103517532349 2110.3538058698177 2406.1370265185833 1526.3088641762733 7667.3245296180248 2591.3496710807085 256.23707509040833 275.23928266763687 448.41459336876869 57.398912519216537 291.32070136070251 525.43172955513 24.304125815629959 2707.9300192296505 444.50301843881607 6430.3898192644119 29.887024492025375 200.80981770157814 488.68612629175186 958.08274154365063 1823.8231137394905 2258.5644406825304 66.643777310848236 1194.639736354351 477.94053134322166 1251.0826752483845 4781.9114759862423
leaf_count=1498 6100 615 1382 64 7274 8290 5205 26821 8956 872 1005 1603 199 1036 1798 81 9361 1548 22381 101 690 1806 3363 6556 7961 226 4366 1696 4591 17225
internal_value=0.000273789 -0.00210424 0.00444201 -0.00657503 0.00063497 0.00591405 0.0087303 -0.000456226 0.00611829 0.0139889 -0.00355713 0.000972434 0.00329749 0.0102603 0.0157926 -0.0025585 0.00355957 0.0077179 0.00203243 0.00743815 0.018599 -0.00883475 -0.00205801 -0.00571761 0.00156979 0.0386588 -0.00827282 -0.00837982 -0.00430504 -0.00955772
internal_weight=44110 28085.6 16024.4 10670.9 17414.7 13534.4 6161.77 15007 4117.66 2044.12 2490.01 2458.23 2009.82 874.151 582.831 8136.13 7372.63 468.807 6870.91 2407.69 297.341 8212.66 1135.67 2099.06 4664.7 96.5308 7723.98 7705.57 1729.02 5976.55
internal_count=154670 98982 55688 38362 60620 46745 21133 52329 14161 6972 8943 8614 7011 3033 1997 28450 25612 1629 23879 8291 1017 29748 3978 7561 16251 327 27942 27878 6287 21591
is_linear=0
shrinkage=0.05


Tree=18
num_leaves=31
num_cat=0
split_feature=24 24 24 17 22 5 25 22 1 16 14 16 25 21 5 22 7 21 15 0 24 0 24 0 14 1 2 5 7 21
split_gain=377.425 88.7315 70.0591 51.6116 32.7552 27.214 26.3715 23.5296 22.9343 27.4491 21.9787 21.4119 20.4588 19.8547 17.7118 24.2906 16.905 16.6022 17.8193 16.3905 15.6346 17.0657 15.409 16.9538 15.1317 15.0861 14.7937 14.067 17.9215 21.1702
threshold=0.10204529389739038 0.17782200127840045 0.070769343525171294 0.29045854508876806 0.28192688524723059 0.30448098480701452 -0.0046686972491443149 0.39499825239181524 0.0063104624859988698 -7.2912280559539786 79.283420562744155 -0.25860233604907984 -0.0040678163059055797 0.025871450081467632 0.33736409246921545 0.010361737105995418 0.34267356991767889 0.021574367769062523 -0.12391092628240584 0.002240930101834238 0.25157244503498083 -0.02659991197288036 0.038791352882981307 0.00046221938100643461 56.108774185180671 0.077528987079858794 0.10930820927023889 0.20822434127330783 0.3017581850290299 0.015992266125977043
decision_type=2 2 2 2 2 2 2 2 2 2 2 2 2 2 2 2 2 2 2 2 2 2 2 2 2 2 2 2 2 2
left_child=2 3 5 7 13 16 25 10 9 -4 12 -10 19 -3 15 -8 22 18 -13 -2 21 -15 23 -1 -18 -5 -6 28 29 -11
right_child=1 4 8 6 26 -7 14 -9 11 27 -12 17 -14 20 -16 -17 24 -19 -20 -21 -22 -23 -24 -25 -26 -27 -28 -29 -30 -31
leaf_value=0.040085285053247613 -3.9862623416238593e-05 -0.01983510151963255 0.044751990384939322 0.001670267974780736 -0.0013619671976803614 -0.0057092088614581812 -0.009262122383646652 0.0033244132108319851 -0.0042597440947010285 0.0017275105731624351 0.058689816040152193 0.022729055405959611 -0.0034365659244373157 0.0039553265789823199 -0.013460635717496481 -0.0006516477807625824 -0.018317180842465267 0.0090991079441490666 7.0067673498218843e-05 0.010352740077288494 -0.014333319783080499 -0.0092102631907217108 0.010414192920521504 0.0097469629363320168 0.013177211911262374 -0.019969861154125787 -0.010661206909221732 0.0020573082491371244 -0.0030615078984333917 0.010850633221884558
leaf_weight=93.488178580999374 1801.970720499754 606.34101465344429 43.334477961063385 1204.8343902081251 1555.9098770916462 272.32213677465916 2265.2356462627649 3164.5022493004799 1574.315125092864 897.16186890006065 14.90584187209606 89.788085401058197 5843.6640047729015 273.88849522173405 1082.1576028168201 1285.0081073790789 94.796680554747581 798.56318418681622 2511.9178337901831 480.14719752967358 1437.4247440695763 2381.884075447917 5551.6710169315338 91.885296761989594 63.514641970396042 86.200343087315559 590.58690916001797 2596.9622462689877 397.63882850110531 2195.3843141794205
leaf_count=320 6808 2436 159 4580 5973 1013 8621 11816 5839 3231 53 327 22083 1056 4204 4825 341 2972 9214 1807 5760 9283 19689 311 229 338 2331 9618 1453 7980
internal_value=-0.000182433 -0.00422888 0.00545718 -0.00231499 -0.00904452 0.00973041 -0.00609568 -0.000333588 0.00308335 0.00513026 -0.00175619 0.000559754 -0.00186841 -0.0113824 -0.00785691 -0.00614708 0.0104445 0.0027927 0.000854823 0.00214486 -0.0101286 -0.00785052 0.0108896 0.0250876 -0.0056497 0.000220084 -0.00392327 0.00484664 0.00692056 0.00820573
internal_weight=41347.4 24074.7 17272.7 17228.6 6846.04 6167.68 5923.44 11305.2 11105.1 6130.48 8140.69 4974.58 8125.78 4699.54 4632.4 3550.24 5895.36 3400.27 2601.71 2282.12 4093.2 2655.77 5737.04 185.373 158.311 1291.03 2146.5 6087.15 3490.19 3092.55
internal_count=154670 91974 62696 65135 26839 21903 22568 42567 40793 22441 30751 18352 30698 18535 17650 13446 20890 12513 9541 8615 16099 10339 20320 631 570 4918 8304 22282 12664 11211
is_linear=0
shrinkage=0.05


Tree=19
num_leaves=31
num_cat=0
split_feature=6 6 21 21 6 21 6 21 21 21 6 6 6 21 6 21 6 6 21 21 7 21 6 6 6 21 6 6 21 21
split_gain=1332.37 294.085 377.915 308.143 217.145 257.477 147.835 160.397 132.188 108.485 109.9 102.794 99.0936 97.5304 82.4249 79.8188 99.9445 78.9196 67.9204 57.7524 57.0898 39.4524 47.1855 37.3323 34.6863 32.2999 30.0913 29.9488 25.481 24.7847
threshold=0.24996405094861987 0.35670687258243566 0.024478665553033355 0.0277027040719986 0.17563696205616 0.020872473716735843 0.6151222586631776 0.036882840096950538 0.048378720879554755 0.029055583290755752 0.30976028740406042 0.42260882258415228 0.20921248197555545 0.02024953626096249 0.28350716829299932 0.01684387028217316 0.14081635326147082 0.46349050104618078 0.017069033347070221 0.041550476104021079 0.21183034032583239 0.023714585229754451 0.22500898689031604 0.71440255641937267 0.32335484027862554 0.023714585229754451 0.50043863058090221 0.31108723580837255 0.05365626513957978 0.032681152224540717
decision_type=2 2 2 2 2 2 2 2 2 2 2 2 2 2 2 2 2 2 2 2 2 2 2 2 2 2 2 2 2 2
left_child=4 2 13 25 15 12 7 11 -8 10 -4 29 18 27 -15 16 -1 -9 -6 -19 -14 22 -7 -10 -16 -3 -13 -2 -21 -5
right_child=1 3 9 6 5 21 8 17 23 -11 -12 26 20 14 24 -17 -18 19 -20 28 -22 -23 -24 -25 -26 -27 -28 -29 -30 -31
leaf_value=-0.019083550312755087 0.01880379682665392 0.040980728038889469 -0.0049346198694912215 0.010909773473435398 0.0015289444045233052 -0.015908117633627188 0.040355731015387732 -0.0085359595948027549 0.0006000570242311906 -0.010866778074426769 0.0084973875885861107 0.01839839004357835 0.011863300214384512 0.0027007857807967422 0.011147567884919732 -0.02246907064881299 -0.0069160592623360552 0.017233579379343097 -0.0087914433457420803 0.0030494325994600826 0.00077553137690820049 -0.019183739160484169 -0.004933151384254356 0.019673495026588994 0.024116529877630244 0.026940330304671373 0.032800625112822827 0.038581232400385301 -0.014048642226470273 0.0018406514045791007
leaf_weight=2781.1374312341213 1613.7710453867912 599.02552777528763 4004.2604875862598 1940.4059246480465 2648.4496939182281 1996.3233749866486 670.94422528147697 1708.4208553433418 428.67953035235405 3393.7222672998905 2457.257691681385 1470.9421056210995 1759.011598855257 3326.7749193012714 2057.5618074536324 2273.870636254549 4298.0430494844913 732.32513132691383 4002.0511604547501 1366.9289480745792 3417.365035623312 1980.8066712915897 1926.0378785431385 640.88278165459633 689.58771422505379 1316.0270263552666 483.5310460627079 217.91920247673988 259.10612446069717 1233.8741912543774
leaf_count=7467 4353 1665 10686 5214 7067 5335 1852 4560 1148 9058 6579 3984 4707 8882 5521 6098 11475 1978 10685 3667 9128 5298 5138 1740 1863 3603 1332 596 692 3299
internal_value=-7.41094e-05 0.00707267 0.00290359 0.0128341 -0.00815227 -0.00490004 0.00959331 0.0070632 0.0229564 -0.00362837 0.000172731 0.0129434 -0.000642681 0.011047 0.00799568 -0.0143167 -0.0116971 -0.000351471 -0.00468081 0.00557545 0.00454445 -0.0134286 -0.0105205 0.0120343 0.0144056 0.0313367 0.0219655 0.0211615 0.00032111 0.00738626
internal_weight=57695 30611.9 17760.9 12851.1 27083.1 17730 10936 9195.53 1740.51 9855.24 6461.52 5128.75 11826.9 7905.61 6073.92 9353.05 7079.18 4066.78 6650.5 2358.36 5176.38 5903.17 3922.36 1069.56 2747.15 1915.05 1954.47 1831.69 1626.04 3174.28
internal_count=154670 82272 47538 34734 72398 47358 29466 24726 4740 26323 17265 13829 31587 21215 16266 25040 18942 10897 17752 6337 13835 15771 10473 2888 7384 5268 5316 4949 4359 8513
is_linear=0
shrinkage=0.05


Tree=20
num_leaves=31
num_cat=0
split_feature=6 21 21 6 6 21 21 21 6 21 6 21 6 6 6 21 7 21 7 20 6 3 24 6 6 3 7 20 4 19
split_gain=429.51 195.155 130.213 193.228 114.84 93.8214 90.5404 74.3716 70.1394 64.7109 59.4893 46.8687 40.5077 39.5847 36.6587 36.2684 34.4501 33.7601 30.3261 27.9681 25.1393 22.7743 30.3036 23.0395 22.382 21.3839 21.5778 20.7863 20.4372 19.9703
threshold=0.32335484027862554 0.027576601132750515 0.026171601377427581 0.22700326889753344 0.3874217569828034 0.034371323883533485 0.019980214536190036 0.019840338267385963 0.54464104771614086 0.047234654426574714 0.17666205018758777 0.034638164564967162 0.50043863058090221 0.2441922724246979 0.25794436037540441 0.023794499225914482 0.41357965767383581 0.041550476104021079 0.21089491993188861 0.21521686762571338 0.25587052106857305 0.079482406377792372 0.080171525478363051 0.13510531932115558 0.46349050104618078 -0.11147670820355414 0.3017581850290299 0.26158747076988226 -0.010267347563058136 122.34294509887697
decision_type=2 2 2 2 2 2 2 2 2 2 2 2 2 2 2 2 2 2 2 2 2 2 2 2 2 2 2 2 2 2
left_child=2 15 3 7 11 12 20 10 17 -10 18 -3 -6 -4 -8 -2 19 24 21 -15 -5 22 -1 -24 -7 -9 -27 -11 -12 -23
right_child=1 4 13 6 5 8 14 25 9 27 28 -13 -14 16 -16 -17 -18 -19 -20 -21 -22 29 23 -25 -26 26 -28 -29 -30 -31
leaf_value=0.0045232512130471405 -0.02781252536825194 0 0.026407040753454541 -0.0078011218380088414 -0.014442395714253379 9.2832636510820161e-05 0.0033951457888655476 0.021293938376842288 -0.023983875327503873 0.0042744131405664651 0.0065263907188324649 0.014113218572553904 -0.03434880387399402 0.014350656989845865 -0.0032994756041946818 -0.015432032971612664 0.022205868185670139 0.0071871696518805706 0.01217271414296113 0.0043472954106333764 -0.018514036201435307 -0.0061138775189142373 0.035288222085215308 0.011983501345054152 -0.011784406724104676 0.0082067313388220469 0.018663043919725331 -0.0098280419616411027 -0.001228866767343092 0.0046150289782112509
leaf_weight=2589.4735088348389 892.19189171493053 2549.7052644491196 420.8906275331974 1552.0210683643818 1507.3963408172131 1178.876756310463 3431.4699720442295 521.15336483716965 705.70890766382217 411.69833052158356 1025.7076205909252 764.59620341658592 308.39585667848587 1121.2671897113323 5059.3652590513229 1768.5471388101578 508.00571337342262 1119.8458502292633 1953.3935554325581 1860.019661962986 848.75474858283997 722.52709013223648 123.73693954944611 754.42345058917999 597.05471436679363 2442.6965039968491 619.80240046977997 713.15156829357147 4942.3208327293396 1084.590190500021
leaf_count=8766 3478 8942 1372 5595 5666 4177 11820 1728 2753 1484 3542 2591 1230 3769 17932 6595 1707 3911 6610 6384 3181 2454 410 2553 2205 8198 2076 2623 17243 3675
internal_value=0.000268123 -0.00756976 0.00337479 0.00216767 -0.00432526 -0.00816686 -0.00301807 0.00553397 -0.00445391 -0.0121146 0.00379869 0.00325622 -0.0178278 0.0119157 -0.000593327 -0.0195862 0.0101656 0.0003873 0.00684914 0.00811161 -0.0115912 0.00487652 0.00724828 0.0152766 -0.00389783 0.0119222 0.0103251 -0.00466214 0.000103256 0.000322498
internal_weight=44098.8 12517.2 31581.6 27671.4 9856.43 6542.13 10891.6 16779.8 4726.34 1830.56 13196.2 3314.3 1815.79 3910.18 8490.84 2660.74 3489.29 2895.78 7228.14 2981.29 2400.78 5274.75 3467.63 878.16 1775.93 3583.65 3062.5 1124.85 5968.03 1807.12
internal_count=154670 45655 109015 95783 35582 24049 38528 57255 17153 6860 45253 11533 6896 13232 29752 10073 11860 10293 24468 10153 8776 17858 11729 2963 6382 12002 10274 4107 20785 6129
is_linear=0
shrinkage=0.05


Tree=21
num_leaves=31
num_cat=0
split_feature=24 24 24 25 2 22 22 10 11 1 7 11 9 14 1 10 2 21 24 4 2 3 22 16 3 22 3 25 4 16
split_gain=344.189 105.468 45.8751 37.2171 35.2455 30.567 27.255 26.2301 30.4301 20.5645 21.9821 27.2871 17.9387 16.0405 16.8833 15.9049 15.5362 15.3741 15.0073 15.1788 14.8298 13.9524 13.65 13.0287 12.8152 12.685 17.1017 18.8038 17.1951 12.487
threshold=0.12142287194728853 0.07723602652549745 0.18206895142793658 -0.0032468587160110469 0.035760786384344108 0.24184551090002063 0.3372619897127152 0.90857648849487316 1.0514299869537356 0.026706391014158729 0.34267356991767889 0.84537804126739513 0.94997370243072521 39.92329406738282 -0.032037697732448571 0.91690948605537426 0.10930820927023889 0.025972823612391952 0.038791352882981307 0.00046211258450057363 -0.16756750643253324 -0.058719035238027566 -0.70797431468963612 -0.16834721714258191 -0.093296110630035387 0.80523115396499645 0.048362620174884803 -0.001118511368986219 0.014474889263510706 -0.37205559015274042
decision_type=2 2 2 2 2 2 2 2 2 2 2 2 2 2 2 2 2 2 2 2 2 2 2 2 2 2 2 2 2 2
left_child=1 9 4 -3 13 17 12 8 22 10 18 -12 15 14 21 -5 -7 -4 19 23 -19 -2 -6 -1 -14 -20 -27 -28 -29 -23
right_child=2 3 5 6 7 16 -8 -9 -10 -11 11 -13 24 -15 -16 -17 -18 20 25 -21 -22 29 -24 -25 -26 26 27 28 -30 -31
leaf_value=0.0072915931860954575 -0.0051352575397376936 0.0052685489861762323 -0.019541358602521746 0.0028984623881360308 0.0061059836751184158 -0.0012002482543517945 0.0037490359935154201 -0.0090937553276642102 0.039256937144066348 0.0012872149081073958 0.036813377824103814 -0.012247030360918917 -0.0064153921635899799 0.00088897489667561695 -0.0092410795110127366 -0.0196727889489508 -0.010894880997155673 -0.017826338553169389 0.0082450859149450027 0.0090242616263889654 -0.0088910253793794535 0.013134848373451705 -0.0051481713002442956 0.048927901618754183 -0.00044191848813222357 0.0086504148785465172 0.0094209850328774835 0.032506124192552811 0.002161473883069484 -0.0012946968832218799
leaf_weight=26.212911307811737 787.74177938699722 4260.5054299384356 499.6468497812748 112.85447604954243 353.62542146444321 1499.0773756057024 3089.419959962368 3467.0953282266855 44.942695125937462 936.0143274217844 32.626235395669937 210.24905095994473 1041.5656721740961 3941.9376085400581 1003.797074303031 250.19593457877636 571.24529120326042 544.81344731152058 5677.7297647446394 91.784654140472412 3206.6278088390827 263.63624759018421 1127.1841771751642 69.397382527589798 6522.704082980752 753.09863460063934 245.24460056424141 288.4052444845438 56.14272603392601 346.14588135480881
leaf_count=88 2956 15779 2049 421 1358 5775 11389 13334 174 3387 118 760 3868 15077 3763 947 2281 2184 20125 308 12722 982 4329 232 24211 2671 870 1014 204 1294
internal_value=-0.000167919 0.00377379 -0.00545077 0.00130016 -0.00354685 -0.00886414 -0.000234109 -0.00668947 -0.00122251 0.00827898 0.00915661 -0.00562357 -0.00178707 -0.0010724 -0.00429413 -0.0126439 -0.00387801 -0.0112911 0.0096554 0.0236349 -0.0101905 -0.000736907 -0.00245701 0.0375845 -0.00126517 0.00928121 0.0136573 0.0200395 0.0275782 0.00493678
internal_weight=41321.7 23664.2 17657.5 15277.2 11336.1 6321.41 11016.7 4992.85 1525.75 8386.91 7450.89 242.875 7927.32 6343.26 2401.32 363.05 2070.32 4251.09 7208.02 187.395 3751.44 1397.52 1480.81 95.6103 7564.27 7020.62 1342.89 589.793 344.548 609.782
internal_count=154670 86392 68278 56615 43267 25011 40836 19195 5861 29777 26390 878 29447 24072 8995 1368 8056 16955 25512 628 14906 5232 5687 320 28079 24884 4759 2088 1218 2276
is_linear=0
shrinkage=0.05


Tree=22
num_leaves=31
num_cat=0
split_feature=6 6 21 21 6 21 6 6 21 6 21 21 6 21 6 6 6 6 21 21 6 21 21 21 21 7 6 6 21 22
split_gain=1200.56 268.319 352.912 323.272 197.613 236.044 150.801 129.143 96.7233 135.396 92.6196 89.4185 83.5746 74.5157 93.1897 62.2204 60.3813 57.0201 55.6064 54.3794 61.9871 49.8946 49.2533 48.8371 45.2049 41.0455 33.6431 30.4267 27.0117 25.6923
threshold=0.24996405094861987 0.38216750323772436 0.024478665553033355 0.033607436344027526 0.17563696205616 0.019980214536190036 0.51563337445259105 0.32335484027862554 0.028217073529958728 0.30976028740406042 0.020529046654701236 0.041550476104021079 0.20921248197555545 0.01684387028217316 0.14081635326147082 0.48697146773338323 0.32033812999725347 0.71440255641937267 0.025576702319085601 0.023714585229754451 0.22700326889753344 0.039913171902298934 0.05365626513957978 0.032910596579313285 0.017069033347070221 0.21183034032583239 0.42260882258415228 0.28350716829299932 0.05951363034546376 1.048428535461426
decision_type=2 2 2 2 2 2 2 2 2 2 2 2 2 2 2 2 2 2 2 2 2 2 2 2 2 2 2 2 2 2
left_child=4 2 7 15 13 12 21 10 9 -4 -2 -8 24 14 -1 18 -10 22 -3 20 29 26 -13 -18 -6 -14 -5 -12 -19 -7
right_child=1 3 8 6 5 19 11 -9 16 -11 27 17 25 -15 -16 -17 23 28 -20 -21 -22 -23 -24 -25 -26 -27 -28 -29 -30 -31
leaf_value=-0.018244703553406291 0.018205352866302184 0.037473083874330806 -0.0039632674389302224 -0.0025399978580276945 0.0015491424906911859 -0.011102145517164666 0.030492220255994396 0.027004942829232437 -0.013501432958042604 0.01109026584087535 0.0022937850327869077 0.010990254137913298 0.012406118516169873 -0.0215201445688851 -0.0064862261639451512 0.039426046097475263 0.0014509466880591147 0.032721740097163096 0.019122453407721188 -0.018347135472259725 -0.0026651249516232039 -0.0067091477045511331 -0.007834598842685744 -0.010292845231327889 -0.0072162907607764134 0.0020156077051988754 0.010034694218157635 0.010189697677151494 0.013536046079129461 -0.022535254181316192
leaf_weight=2774.6667615175247 1924.3420796990395 504.77951875329018 3590.5624543726444 883.17111307382584 2648.3980526328087 2738.3376986384392 726.32232421636581 1136.7387910783291 2087.479015827179 2557.3638054430485 3159.3285174369812 1126.1644613742828 1545.9997196495533 2268.4743022918701 4296.1900115311146 669.80089923739433 2382.7806261479855 324.61756816506386 2288.7362478673458 1977.7832024693489 2433.894748210907 1530.4943483769894 502.0995979309082 1407.9423399567604 3305.8605934381485 2470.9579167962074 1335.1630097329617 1989.9725254774094 425.46020042896271 600.42090409994125
leaf_count=7467 5205 1423 9582 2360 7067 7322 2017 3111 5575 6874 8435 3045 4142 6098 11475 1878 6366 891 6229 5298 6493 4087 1342 3758 8825 6604 3590 5345 1159 1607
internal_value=-7.73639e-05 0.0067152 0.00336925 0.0132777 -0.00774671 -0.00464446 0.00698478 0.0113606 -0.00208614 0.00229784 0.00884545 0.0151346 0.00044256 -0.0136327 -0.0111013 0.0257287 -0.0066721 0.0104413 0.0224414 -0.0111897 -0.00873627 0.000233791 0.00518213 -0.00290975 -0.00331671 0.00601604 0.00502627 0.00534631 0.0218491 -0.0131603
internal_weight=57614.3 30553.3 20236.5 10316.8 27061 17721.7 6853.49 8210.38 12026.1 6147.93 7073.64 3104.66 9971.22 9339.33 7070.86 3463.32 5878.2 2378.34 2793.52 7750.44 5772.65 3748.83 1628.26 3790.72 5954.26 4016.96 2218.33 5149.3 750.078 3338.76
internal_count=154670 82272 54251 28021 72398 47358 18491 22096 32155 16456 18985 8454 26638 25040 18942 9530 15699 6437 7652 20720 15422 10037 4387 10124 15892 10746 5950 13780 2050 8929
is_linear=0
shrinkage=0.05


Tree=23
num_leaves=31
num_cat=0
split_feature=6 21 21 6 6 21 21 21 6 21 6 21 6 6 21 6 7 21 7 20 6 3 24 17 7 6 6 9 7 6
split_gain=382.251 177.613 117.129 170.825 103.656 86.7574 81.5714 65.9951 63.4812 60.0258 51.4137 42.1207 38.463 34.6172 34.3934 32.3974 31.1699 30.3111 27.3612 25.5203 23.0161 21.213 27.321 21.2023 21.7678 20.5135 20.5068 19.7247 20.484 19.6331
threshold=0.32335484027862554 0.027576601132750515 0.026171601377427581 0.22700326889753344 0.3874217569828034 0.034371323883533485 0.019980214536190036 0.019840338267385963 0.54464104771614086 0.047234654426574714 0.17666205018758777 0.034638164564967162 0.50043863058090221 0.2441922724246979 0.023551008664071563 0.25794436037540441 0.41357965767383581 0.041550476104021079 0.21089491993188861 0.21521686762571338 0.25587052106857305 0.079482406377792372 0.080171525478363051 1.5249880552291872 0.34768776595592504 0.13510531932115558 0.18266201019287112 1.0600026845932009 0.3017581850290299 0.46349050104618078
decision_type=2 2 2 2 2 2 2 2 2 2 2 2 2 2 2 2 2 2 2 2 2 2 2 2 2 2 2 2 2 2
left_child=2 14 3 7 11 12 20 10 17 -10 18 -3 -6 -4 -2 -8 19 29 21 -15 -5 22 -1 24 -12 -24 -9 28 -28 -7
right_child=1 4 13 6 5 8 15 26 9 -11 23 -13 -14 16 -16 -17 -18 -19 -20 -21 -22 -23 25 -25 -26 -27 27 -29 -30 -31
leaf_value=0.0041869504238742691 -0.027529271862322402 -3.9058221192488145e-06 0.024675400776801099 -0.0074247939184098159 -0.013858520188732274 2.6927407665602225e-05 0.0031715557633161754 0.020444551466255182 -0.023161556111219589 -0.0043994423040695846 -0.00094741776269115317 0.013327027740644504 -0.033556458080721885 0.013577102917934042 -0.014996781179455585 -0.0031200076937043346 0.020977159572399467 0.0068026528610275749 0.011397522996180284 0.0040541547227979707 -0.017746740504197632 0.0001038243885997505 0.033030664898585117 0.014505910089098274 0.021373326775941136 0.011242948636293179 0.0063989683902236794 0.025630050536853501 0.016490385135472019 -0.011141556837301888
leaf_weight=2600.7293443083763 785.17990374565125 2549.6302797794342 427.87190517783165 1541.8415540158749 1488.8396478444338 1179.9285534918308 3441.6932271718979 512.23623117804527 689.19620750844479 1119.7141889035702 5611.5228807926178 771.53911650180817 297.95314325392246 1131.0867619514465 1823.0140761435032 5044.895958840847 514.5268988609314 1125.4834648370743 1971.257411301136 1867.1690654456615 833.82756222784519 1812.5060599148273 126.27270796895027 244.97492232918739 111.28664043545723 761.03191718459129 2274.0492746829987 181.67236343026161 647.04498440027237 589.61725029349327
leaf_count=8766 3155 8942 1372 5595 5666 4177 11820 1683 2753 4107 19550 2591 1230 3769 6918 17932 1707 3911 6610 6384 3181 6129 410 856 379 2553 7587 593 2139 2205
internal_value=0.000258657 -0.00717499 0.00317525 0.00202824 -0.0040915 -0.0077678 -0.00286104 0.00517952 -0.00420349 -0.0115515 0.00354405 0.0030918 -0.0171477 0.0112413 -0.0187724 -0.0005679 0.0096029 0.00038629 0.00636668 0.00764867 -0.0110504 0.0044946 0.00677471 0.000103753 -0.000512126 0.0143526 0.0111676 0.0096339 0.00863649 -0.00369203
internal_weight=44077.6 12420.1 31657.5 27716.8 9811.9 6490.73 10862.3 16854.6 4703.94 1808.91 13239.6 3321.17 1786.79 3940.65 2608.19 8486.59 3512.78 2895.03 7271.8 2998.26 2375.67 5300.54 3488.03 5967.78 5722.81 887.305 3615 3102.77 2921.09 1769.55
internal_count=154670 45655 109015 95783 35582 24049 38528 57255 17153 6860 45253 11533 6896 13232 10073 29752 11860 10293 24468 10153 8776 17858 11729 20785 19929 2963 12002 10319 9726 6382
is_linear=0
shrinkage=0.05


Tree=24
num_leaves=31
num_cat=0
split_feature=6 6 6 21 21 6 9 3 21 6 6 6 21 6 21 2 19 2 23 11 19 2 24 21 11 21 11 14 11 2
split_gain=476.46 95.5463 83.2981 85.5589 67.1287 43.2186 39.6694 44.0866 37.6743 37.3103 32.6535 31.7639 31.0466 35.8818 26.3125 22.8703 24.1191 21.7118 18.8866 18.6976 18.3684 22.1556 18.1717 21.0174 18.0767 17.3624 17.2116 17.1973 16.3313 18.7428
threshold=0.24029130488634112 0.15920056402683261 0.40797561407089239 0.034920161589980132 0.021647231653332714 0.71440255641937267 0.94997370243072521 -0.10336708277463912 0.017636882141232494 0.27312026917934423 0.19802775233983996 0.19897619634866717 0.029204507358372215 0.31868718564510351 0.027462108060717586 -0.073301378637552247 389.77622985839849 0.02848074305802584 1.1947721838951113 1.3102877140045168 46.049528121948249 -0.024060071446001526 0.079186931252479567 0.018130364827811721 1.1391019821166994 0.016070180572569374 0.79086819291114818 79.283420562744155 0.8089207410812379 0.023824215866625312
decision_type=2 2 2 2 2 2 2 2 2 2 2 2 2 2 2 2 2 2 2 2 2 2 2 2 2 2 2 2 2 2
left_child=1 20 4 14 9 15 26 -8 11 -2 28 -3 13 -9 -4 16 -5 18 -12 -18 21 -1 25 27 -15 -22 -6 -24 29 -10
right_child=2 8 3 5 6 -7 7 12 10 -11 17 -13 -14 24 -16 -17 19 -19 -20 -21 22 -23 23 -25 -26 -27 -28 -29 -30 -31
leaf_value=0.0041512664013230414 -0.0056964440763636144 0.0026576022653519702 -0.031079552624968601 -0.010958976613659074 0.0020825301953092553 -0.019651976416260899 -0.0060835646786207391 0.0014156574576314213 0.059845748060520287 -0.01688982889419734 0.0047423778941025931 -0.0062731085693864394 0.0058314538065836778 -0.0081169090422110179 -0.016284651228809885 -0.00082906998038433761 0.0062097228440071671 -0.00033468214420006594 0.016692353554879899 0.071366417175434405 0.011326176161850688 0.02872722225702248 0.0013345120309201149 0.023110551473579218 0.012687693354120755 0.021681399731393977 -0.010751719398001059 0.030931923464951907 0.0092140477261622843 0.016901905672521863
leaf_weight=129.63605180382729 2022.4435799568892 3758.6037311255932 392.99414126574993 1221.0015853196383 313.42787104845047 518.68576936423779 2934.2440043240786 4953.9924552440643 32.309529602527618 1180.1698968112469 3440.8146648555994 1354.2367494553328 2409.0620245188475 1687.4463859945536 1295.7440270483494 2036.3890728056431 54.098774299025536 2209.9896387457848 366.22889772057533 13.804417520761488 2595.3512496054173 317.8829385638237 934.97301286458969 147.91282811760902 111.02819417417049 481.40537598729134 1548.9531303495169 51.735184490680695 2658.8303815424442 121.41402319073677
leaf_count=441 7838 13531 1798 4795 1213 2265 11094 18540 112 4841 12508 5230 9003 6718 5456 7973 212 8103 1337 51 8801 1062 3262 498 435 1621 6058 178 9271 425
internal_value=-0.000152319 0.00577972 -0.00501489 -0.0103503 -0.00329439 -0.0062269 -0.00179598 -0.000749574 0.00370768 -0.00982319 0.00568551 0.000291073 0.000958292 -0.000779615 -0.0197322 -0.0041308 -0.00934299 0.00360526 0.00589366 0.0196148 0.0119793 0.0216218 0.010953 0.00553606 -0.00682913 0.0129487 -0.00858911 0.00289441 0.0101338 0.0259934
internal_weight=41294.8 18601.3 22693.5 5532.72 17160.8 3843.98 13958.2 12095.8 13942.4 3202.61 8829.59 5112.84 9161.53 6752.47 1688.74 3325.29 1288.9 6017.03 3807.04 67.9032 4658.9 447.519 4211.38 1134.62 1798.47 3076.76 1862.38 986.708 2812.55 153.724
internal_count=154670 66380 88290 22550 65740 15296 53061 45790 50517 12679 31756 18761 34696 25693 7254 13031 5058 21948 13845 263 15863 1503 14360 3938 7153 10422 7271 3440 9808 537
is_linear=0
shrinkage=0.05


Tree=25
num_leaves=31
num_cat=0
split_feature=6 6 21 21 6 21 6 21 21 6 21 6 21 6 6 6 21 6 6 21 7 21 21 6 21 6 13 21 6 6
split_gain=1083.36 243.72 317.22 268.177 181.821 202.189 127.808 139.334 118.117 103.867 92.1331 93.6341 82.695 82.4529 69.9783 65.4983 63.7667 61.0135 58.3749 53.3497 48.7725 46.3367 44.7608 35.4273 28.8389 27.2196 26.7988 26.7894 25.9059 25.0906
threshold=0.24996405094861987 0.35670687258243566 0.024478665553033355 0.0277027040719986 0.16731479763984683 0.019980214536190036 0.6151222586631776 0.035839289426803596 0.049865784123539932 0.19897619634866717 0.029055583290755752 0.29898834228515631 0.020529046654701236 0.42260882258415228 0.42260882258415228 0.29898834228515631 0.017492996528744701 0.14081635326147082 0.21026819944381717 0.023382510058581833 0.20109263807535174 0.039913171902298934 0.018334978260099891 0.71440255641937267 0.023714585229754451 0.26629622280597692 0.98756316304206859 0.01565590221434832 0.48697146773338323 0.22791983187198642
decision_type=2 2 2 2 2 2 2 2 2 2 2 2 2 2 2 2 2 2 2 2 2 2 2 2 2 2 2 2 2 2
left_child=4 2 12 24 16 9 7 13 -8 20 11 -4 25 -5 -9 -14 17 -1 -7 -20 26 28 29 -10 -3 -2 -6 -19 -16 -11
right_child=1 3 10 6 5 18 8 14 23 22 -12 -13 15 -15 21 -17 -18 27 19 -21 -22 -23 -24 -25 -26 -27 -28 -29 -30 -31
leaf_value=-0.017646334381727687 0.011999705645238092 0.038312864458036874 -0.0059570224735860326 0.007428471219571276 0.0056713234288331528 -0.017857097035814146 0.036619413984122939 -0.010842556817842686 -0.0017216043584238603 0.0057295723253381874 -0.010069395767717794 0.006085555580131314 0.00359386740013036 0.021412090432204895 0.0061418486217498514 0.015283175573811057 -0.025573574412865216 -0.0047648204612867374 -0.0048562944505424772 -0.015125163414176671 -0.0094872137313067387 -0.00036337203150222139 -0.0006113695055078623 0.017542896261873032 0.02490416929915212 0.023596651675518433 -0.0043089613841591377 -0.013814841040940291 0.021975689494978291 0.016228077475237239
leaf_weight=2836.9859119653702 887.26610964536667 584.26180317997932 3204.3394486606121 2945.690165668726 1095.616748303175 2227.8405312597752 717.9457151889801 1106.4392887353897 390.15972155332565 2300.3376422524452 3390.9201214909554 3252.2575313448906 4113.7329691648483 1643.2558090686798 696.60769355297089 1691.9462034702301 1025.4984026551247 2394.8791289925575 3772.1931124031544 1904.6396363079548 3158.3990940749645 2356.669498860836 2576.654608041048 612.60513043403625 1299.3031833469868 1186.1049852967262 1741.5073530077934 1243.9482001364231 411.80634725093842 757.52873635292053
leaf_count=7655 2398 1665 8549 7922 2923 5982 2019 2952 1045 6152 9058 8716 10994 4526 1868 4585 2771 6402 10068 5105 8441 6328 6882 1676 3603 3238 4649 3333 1130 2035
internal_value=-8.06726e-05 0.00638027 0.00258655 0.0116482 -0.00736753 -0.00482621 0.00863212 0.00628261 0.0211361 -0.000632037 -0.00339595 0.00010818 0.0100643 0.0124373 0.000103224 0.00700154 -0.0139847 -0.0121484 -0.0109963 -0.0083027 -0.00521309 0.00359999 0.00424164 0.010043 0.0290679 0.0186372 -0.000453033 -0.00786028 0.0120305 0.00833246
internal_weight=57527.3 30491.3 17726.6 12764.7 27036 19534.7 10881.2 9160.47 1720.71 11630 9847.52 6456.6 7879.05 4588.95 4571.52 5805.68 7501.31 6475.81 7904.67 5676.83 5995.52 3465.08 5634.52 1002.76 1883.56 2073.37 2837.12 3638.83 1108.41 3057.87
internal_count=154670 82272 47538 34734 72398 52237 29466 24726 4740 31082 26323 17265 21215 12448 12278 15579 20161 17390 21155 15173 16013 9326 15069 2721 5268 5636 7572 9735 2998 8187
is_linear=0
shrinkage=0.05


Tree=26
num_leaves=31
num_cat=0
split_feature=22 24 20 11 5 11 8 20 25 7 2 8 8 18 3 20 7 24 16 21 5 3 25 19 7 21 17 7 11 10
split_gain=151.584 109.728 71.1276 53.6823 46.4727 44.0079 33.1574 27.7941 27.6379 26.3312 21.7571 20.2156 19.5056 19.129 19.0324 18.3453 18.0327 18.8901 17.9445 16.7276 16.7151 17.39 17.2258 15.0623 14.9874 20.7109 14.7577 14.4551 13.7841 16.2968
threshold=0.32269304990768438 0.12974819540977481 0.23177868127822879 1.0809717774391177 0.44968335330486303 1.1578739881515505 0.99683114886283886 0.2488401606678963 0.0059755726251751193 0.36971788108348852 -0.040218384936451905 0.98853701353073131 0.96826338768005382 217.29472351074222 -0.19709581136703488 -0.08585107326507567 0.40249024331569677 0.099709082394838347 -1.9006592035293577 0.017636882141232494 0.29892937839031225 -0.16928856074810025 -0.011227393522858618 151.16638183593753 0.34267356991767889 0.023305418901145462 1.9745045304298403 0.17563806474208835 0.65416079759597789 0.92492836713790905
decision_type=2 2 2 2 2 2 2 2 2 2 2 2 2 2 2 2 2 2 2 2 2 2 2 2 2 2 2 2 2 2
left_child=1 3 5 6 7 18 9 8 20 26 -9 -4 -5 19 -6 -8 -14 23 -3 -11 22 -22 -2 -18 25 -7 -1 -13 -29 -30
right_child=4 2 11 12 14 24 15 10 -10 13 -12 27 16 -15 -16 -17 17 -19 -20 -21 21 -23 -24 -25 -26 -27 -28 28 29 -31
leaf_value=-0.0040990194484739608 0.020380235444342251 0.0042703470700324918 -0.010767825378939458 -0.02544413893080967 0.0088188682588471647 -0.0099717853913891159 0.019460015492159102 -0.0032535686819922336 0.020387674066686422 0.060595167719656763 0.0052235617352667501 0.039248569556924073 0.0062601692809012887 -0.0082697485085412217 -0.004368006475907669 0.0013466478251393257 0.050691137964356106 0.010074026476177131 -0.006794485235781327 0.011629144688595251 0.018131240912558102 -0.0013691878454172961 0.0081825311796338319 0.012339611049980045 0.0052189346626552967 0.022956211769539568 0.0080024383481152716 0.013336185686021582 -0.010722284052250688 -0.0046048812929661868
leaf_weight=6780.1050246357918 346.44949215650558 532.95944245159626 3330.5245729535818 44.712382450699806 325.58261133730412 56.113734364509583 141.98907309770584 848.58370663225651 513.84255562722683 18.336290806531906 6950.5241771787405 17.594796061515808 2295.6869212538004 128.76104716956615 1706.6465598344803 8823.3441128581762 66.670201510190964 205.6604660153389 1169.3799011558294 347.87743543088436 136.53158204257488 698.504304215312 1784.4713512957096 42.299887776374817 638.007752597332 311.31961478292942 261.29590176045895 90.579809918999672 1509.3018174171448 3929.066571444273
leaf_count=23797 1158 1858 12311 159 1149 191 476 2949 1716 58 24001 60 7854 447 6253 30499 219 696 4111 1203 454 2385 5963 139 2208 1040 928 332 5654 14402
internal_value=0.000248245 -0.00168162 -0.00552297 0.00064115 0.00470556 0.00156914 -0.000420262 0.00595972 0.0096767 -0.00286503 0.00430053 -0.00768684 0.00723976 0.0082779 -0.00225255 0.00163429 0.00780247 0.0190344 -0.00332738 0.0141104 0.00781875 0.00181501 0.0101689 0.0358747 0.00986405 0.0179126 -0.00364914 -0.00583574 -0.00598082 -0.00630372
internal_weight=44052.7 30741.6 11584.8 19156.7 13311.1 2707.78 16501.7 11278.9 3479.8 7536.38 7799.11 8877.07 2655.03 494.975 2032.23 8965.33 2610.32 314.631 1702.34 366.214 2965.96 835.036 2130.92 108.97 1005.44 367.433 7041.4 5546.54 5528.95 5438.37
internal_count=154670 108642 42167 66475 46028 9408 57408 38626 11676 26433 26950 32759 9067 1708 7402 30975 8908 1054 5969 1261 9960 2839 7121 358 3439 1231 24725 20448 20388 20056
is_linear=0
shrinkage=0.05


Tree=27
num_leaves=31
num_cat=0
split_feature=6 6 6 21 21 7 6 9 3 11 25 6 6 21 1 3 11 21 6 21 7 3 18 3 7 7 6 11 6 21
split_gain=423.193 84.0832 75.2437 79.0337 60.4096 53.6592 39.6032 39.2337 35.6786 43.8475 39.0025 30.5547 26.7027 25.547 24.9624 24.4319 23.0229 22.5002 21.2376 35.3581 20.4842 18.6044 18.3466 18.1586 17.5779 17.0225 21.4662 16.6172 15.8273 23.9098
threshold=0.24029130488634112 0.15920056402683261 0.40797561407089239 0.034920161589980132 0.020529046654701236 0.18636871129274371 0.71440255641937267 0.94632667303085338 -0.058719035238027566 1.0116540789604189 -0.0065157359931617967 0.19802775233983996 0.19897619634866717 0.027462108060717586 0.041277334094047553 0.048362620174884803 0.79086819291114818 0.018543112091720108 0.27641320228576666 0.028217073529958728 0.30514584481716162 0.033883564174175269 46.834222793579109 -0.06503977999091147 0.3442500531673432 0.19504826515913012 0.26856993138790136 1.0963124036788943 0.51563337445259105 0.05365626513957978
decision_type=2 2 2 2 2 2 2 2 2 2 2 2 2 2 2 2 2 2 2 2 2 2 2 2 2 2 2 2 2 2
left_child=1 22 4 13 25 11 24 16 -9 18 21 23 -7 -4 -12 -16 -6 27 20 -20 -10 -11 -1 -3 -5 -2 -27 -14 -26 -30
right_child=2 5 3 6 7 12 -8 8 9 10 14 -13 17 -15 15 -17 -18 -19 19 -21 -22 -23 -24 -25 28 26 -28 -29 29 -31
